svm_type c_svc
kernel_type sigmoid
gamma 0.000108932
coef0 0
nr_class 4
total_sv 28
rho 0.470187 -0.14072 0.16924 -0.605389 -0.399569 -0.0820852
label 0 1 2 4
probA -2.22866 -2.10339 -0.935284 -2.27528 -1.92497 -1.97102
probB -0.442602 -0.414915 -0.0739751 -0.451374 -0.634665 0.585515
nr_sv 7 9 5 7
SV
0.7097327081218489 0.6890228317409193 2.597776333990654 1:-0.37431434 2:-0.22142374 3:-0.3404906 4:-0.50949963 5:-0.72088565 6:-0.74259665 7:-0.35045115 8:1.1028503 9:0.51733472 10:0.88700922 11:0.42647394 12:0.31284999 13:0.87877697 14:0.47646496 15:0.41795455 16:1.3938486 17:0.40647592 18:-0.41044394 19:-0.43666281 20:-0.53407478 21:-0.63820402 22:-0.83572599 23:-0.81463077 24:0.10872556 25:0.84567825 26:0.3895672 27:0.41851294 28:0.52604171 29:0.9120813 30:1.0225749 31:0.61170169 32:0.86228079 33:1.2544931 34:1.0520154 35:-0.4482171 36:-0.56024535 37:-0.71556604 38:-0.89419994 39:-1.0287495 40:-0.27300224 41:0.89872053 42:0.16067184 43:-0.89510054 44:-0.78713771 45:-0.19939944 46:0.51521135 47:0.72294112 48:0.42306692 49:0.79930708 50:1.4447967 51:1.7433977 52:-0.5661096 53:-0.46618004 54:-0.62366479 55:-0.87088692 56:-0.70281152 57:0.29383435 58:0.35026472 59:-0.98854382 60:-1.4219812 61:-1.9655067 62:-0.83203367 63:-0.33435108 64:-0.058822317 65:0.37903648 66:-0.21566011 67:0.52375898 68:1.2789497 69:-0.34351571 70:-0.21364451 71:-0.25980682 72:-0.48122399 73:-0.33056508 74:-0.12155187 75:-0.75254014 76:-1.2930914 77:-1.376281 78:-1.7009714 79:-0.65442818 80:-0.015486373 81:-0.10676424 82:0.66987156 83:0.55556545 84:0.34532455 85:0.54798671 86:-0.22959385 87:-0.074557481 88:-0.046621871 89:-0.35699365 90:-0.37704191 91:-0.58043702 92:-0.94786929 93:-1.0639883 94:-1.3466748 95:-1.7592746 96:-1.0720261 97:0.10105479 98:0.40647286 99:0.84148695 100:1.1923864 101:0.52670196 102:0.77757769 103:-0.31080576 104:-0.3551813 105:-0.40346763 106:-0.46548918 107:-0.58257772 108:-0.74328266 109:-0.88359286 110:-1.0358506 111:-1.4540747 112:-1.7801565 113:-1.4945011 114:-0.021159276 115:1.0637354 116:0.71711161 117:1.5294412 118:1.7093851 119:1.5550192 120:-0.5816762 121:-0.58558554 122:-0.60871164 123:-0.62551232 124:-0.70274385 125:-0.71720777 126:-0.86441421 127:-1.1508743 128:-1.5577092 129:-1.7369846 130:-1.8295659 131:-0.73731783 132:0.51037678 133:0.57209516 134:0.67629539 135:1.2564096 136:1.6893134 137:-0.79683148 138:-0.70353059 139:-0.67782624 140:-0.66086588 141:-0.7096353 142:-0.71097774 143:-0.87581786 144:-1.254338 145:-1.6172834 146:-1.8711576 147:-1.9178462 148:-1.2649461 149:-0.53255031 150:-0.0061695783 151:0.39095016 152:0.76781811 153:1.4667452 154:-0.94479128 155:-1.0114522 156:-1.443266 157:-1.0930103 158:-0.97237535 159:-1.0633692 160:-0.02756336 161:0.70394251 162:0.06684099 163:0.18022885 164:2.7042465 165:3.4463872 166:-0.34245828 167:1.1920514 168:2.2214753 169:0.36199175 170:0.71408061 171:-1.0378808 172:-1.18673 173:-1.0945224 174:-0.81484644 175:-0.51094327 176:-0.53586984 177:0.82171333 178:0.61208997 179:0.31460227 180:0.3678235 181:1.3927545 182:2.8410291 183:0.95217561 184:0.27131854 185:1.1269484 186:0.57185549 187:0.66287396 188:-1.1036966 189:-1.1546242 190:-0.90858593 191:-0.58694148 192:-0.13098629 193:-0.39356233 194:0.90858006 195:0.79748192 196:0.053305552 197:0.23305048 198:0.37979297 199:1.407314 200:0.20579407 201:0.0010739231 202:0.69594611 203:0.63054441 204:0.68656275 205:-1.0708873 206:-1.1081332 207:-1.0324299 208:-0.54117018 209:0.20545595 210:-0.34022694 211:0.37423445 212:0.73421694 213:-0.44733262 214:0.21466708 215:0.77595582 216:0.94572747 217:-0.23872507 218:-0.09514952 219:0.48355309 220:0.90859875 221:0.77357152 222:-1.0915911 223:-1.1763103 224:-1.11511 225:-0.27205398 226:0.15867221 227:-0.39251241 228:-0.03732739 229:0.37874825 230:-0.96291925 231:-0.25948941 232:0.38449986 233:0.66105804 234:-0.35506268 235:-0.12673437 236:0.48561421 237:1.0443915 238:0.76203754 239:-1.1432707 240:-1.1866218 241:-1.2309891 242:-0.51731389 243:-0.60197064 244:-1.148499 245:0.18903085 246:0.64302289 247:-1.03322 248:-0.26913991 249:0.47948562 250:0.15375654 251:-0.69669795 252:-0.25999233 253:0.31516226 254:0.63287117 255:0.48975152 256:-1.1225175 257:-1.2307382 258:-1.4400929 259:-1.2026384 260:-1.0618935 261:-1.2517511 262:0.69444704 263:0.69220195 264:-1.1767598 265:0.020647815 266:0.75351233 267:0.45024979 268:-0.58183204 269:-0.36488199 270:0.091522342 271:0.48460257 272:0.49748304 273:-1.1803579 274:-1.1400453 275:-1.318388 276:-1.6637868 277:-0.98152985 278:-0.25615455 279:1.0915333 280:0.67651193 281:-0.53657919 282:0.37817149 283:0.71745072 284:0.38913318 285:-0.24617946 286:-0.56301688 287:-0.10739879 288:0.21036203 289:0.25263151 290:-0.7459335 291:-0.89701264 292:-0.8941551 293:-1.2534312 294:-0.71800217 295:0.53524588 296:1.071734 297:0.68310609 298:-0.14365079 299:0.15059063 300:0.20663363 301:-0.16904149 302:-0.77912373 303:-0.75644678 304:-0.20494661 305:-0.0033524278 306:0.15246775 307:-0.27224984 308:-0.24357513 309:-0.22446614 310:-0.4163565 311:-0.1823698 312:-0.2382717 313:-1.2836699 314:-1.2149584 315:0.29631432 316:-0.93359039 317:-1.3103539 318:-0.94045581 319:-0.57757912 320:-0.39477063 321:-0.33603078 322:-0.34702527 323:-0.18987406 324:-0.25227057 325:-0.27893284 326:-0.2489151 327:-0.42591345 328:-0.20116678 329:0.026387153 330:-0.86360883 331:-0.94368998 332:-0.35259682 333:-0.87120785 334:-1.0142281 335:-0.96434716 336:-0.66102553 337:-0.51688478 338:-0.40285153 339:-0.38006181 340:-0.2436101 341:-0.32474513 342:-0.36971253 343:-0.34926536 344:-0.50199148 345:-0.50500285 346:0.39389301 347:-0.089722683 348:-0.32990784 349:-1.4667936 350:0.016937815 351:0.027350158 352:1.9459204 353:0.56927386 354:-0.62785951 355:-0.50383095 356:-0.38373023 357:-0.32639192 358:-0.42746604 359:-0.41932756 360:-0.42782491 361:-0.65915966 362:-0.67093904 363:0.28486851 364:0.51106105 365:1.0722274 366:0.46606848 367:1.2589754 368:0.6859358 369:5.1387336 370:6.5995241 371:4.5493439 372:-0.44418674 373:-0.36182439 374:-0.42247477 375:-0.48027036 376:-0.58387356 377:-0.4663263 378:-0.69585274 379:-0.80449133 380:0.10202523 381:0.43339911 382:0.90281266 383:0.0078142296 384:0.49079934 385:-1.6016723 386:0.45929867 387:5.8877907 388:6.5670027 389:1.135472 390:-0.36730596 391:-0.42612443 392:-0.59722602 393:-0.67039337 394:-0.65161418 395:-0.81966118 396:-0.70503596 397:0.14048627 398:0.24165569 399:1.9249121 400:0.041010323 401:0.52512086 402:-1.4612246 403:-1.2693358 404:-1.1245475 405:-0.19090548 406:0.05487071 407:-0.36166841 408:-0.4723086 409:-0.79409877 410:-0.80912982 411:-1.055041 412:-1.2569516 413:-0.90643613 414:-0.73466516 415:-0.26550074 416:2.4210878 417:0.093546903 418:0.19192982 419:-1.2929149 420:-1.4635405 421:-1.3867824 422:-0.82743875 423:-0.67347344 424:-0.46520866 425:-0.62023991 426:-0.58162289 427:-1.0634474 428:-1.5161052 429:-1.6097177 430:-1.2797396 431:-1.6816773 432:-0.79942912 433:1.3869636 434:0.083053815 435:0.084674242 436:-1.1914955 437:-1.7411669 438:-1.4899834 439:-0.87103248 440:-0.70422937 441:-0.44673074 442:-0.62126774 443:-0.23058817 444:-1.0538835 445:-1.0871163 446:-1.3001305 447:-1.6860763 448:-1.7338055 449:-0.77733194 450:0.87511155 451:0.33972322 452:0.45654998 453:-0.96398508 454:-2.1099312 455:-1.6267643 456:-0.8132438 457:-0.23634835 458:-0.25920963 459:-0.41957898 460:1.4536554 461:1.388147 462:1.2550745 463:-0.084748944 464:0.43879202 465:1.6214218 466:1.7894063 467:0.59917277 468:0.16794321 469:0.3731227 470:-0.012138098 471:0.11834898 472:0.2194079 473:-0.32544633 474:-0.40149394 475:-0.58834272 476:-1.0017408 477:1.6787053 478:1.0666199 479:0.85594115 480:0.052445283 481:0.82431845 482:1.624231 483:1.3348239 484:0.22478015 485:0.11236396 486:0.14781874 487:0.34667186 488:0.41737667 489:0.11779148 490:-0.29685812 491:-0.50540672 492:-0.36421425 493:-0.70773335 494:1.2690661 495:0.70928719 496:0.35206921 497:-0.21434804 498:0.26592133 499:1.1352421 500:0.8570607 501:-0.29458008 502:-0.32127725 503:0.17334662 504:0.63880509 505:0.72151536 506:0.15041467 507:0.038115185 508:-0.2942042 509:-0.26482411 510:-0.45906073 511:1.1999468 512:0.35002419 513:-0.16195156 514:-0.47528809 515:-0.013982069 516:0.32393399 517:-0.12330831 518:-0.87687788 519:-0.72646149 520:0.14851307 521:0.47395777 522:0.60191868 523:0.65899655 524:0.25843629 525:-0.19306642 526:-0.37669947 527:-0.50692584 528:0.89956898 529:0.5713901 530:-0.0020793548 531:-0.19547996 532:-0.11706959 533:-0.29366535 534:-0.63687813 535:-0.74939116 536:-0.99048597 537:-0.039082131 538:0.51193804 539:-0.10742022 540:0.4269562 541:0.11686266 542:-0.49756063 543:-0.54011708 544:-0.64400779 545:1.0934724 546:0.84237684 547:0.2852938 548:-0.31706789 549:-0.42365744 550:-0.65399043 551:-0.73325369 552:-0.55186178 553:-0.69384667 554:-0.20672094 555:0.71343492 556:0.092463334 557:-0.42047295 558:0.23491128 559:-0.58529984 560:-0.25584481 561:-0.26393955 562:0.64917216 563:0.53145637 564:0.16956375 565:-0.47372567 566:-0.64985115 567:-0.98399791 568:-1.0489796 569:-0.743357 570:-0.88895299 571:-0.71045326 572:0.76854775 573:0.28362819 574:-0.63997348 575:0.33144843 576:0.043240295 577:-0.018010056 578:0.31890635 579:0.27448787 580:0.31857907 581:-0.16124704 582:-0.49909587 583:-0.753888 584:-1.0042014 585:-1.2115671 586:-1.1055987 587:-1.1668232 588:-0.95877005 589:1.0086194 590:0.73609868 591:-0.31030656 592:-0.090961935 593:0.45542405 594:0.42283783 595:0.074220011 596:-0.076041568 597:0.010682653 598:-0.20577302 599:-0.46117954 600:-0.7758774 601:-0.91538205 602:-1.2227736 603:-1.2901456 604:-1.2037607 605:-0.8688325 606:0.79812011 607:0.82141783 608:-0.36189258 609:-0.16785228 610:0.38893443 611:0.33409977 612:-0.012214322 613:-1.2715312 614:-0.70536788 615:-0.076526691 616:-0.56227373 617:-0.63983973 618:0.95465619 619:0.4891021 620:0.21831395 621:0.2844751 622:0.34410576 623:0.60830755 624:0.83701936 625:-0.53535366 626:-0.84454283 627:-0.50526222 628:-0.34693669 629:-0.36052852 630:-0.8619601 631:-0.38561518 632:-0.1911003 633:-0.76865951 634:-0.49703755 635:0.46362605 636:0.32226922 637:0.30400314 638:0.45924166 639:0.18643497 640:0.40946756 641:0.31161892 642:-0.5951797 643:-0.97330583 644:-0.66573157 645:-0.49345249 646:-0.44959747 647:-0.60737468 648:0.026296967 649:0.10604399 650:-0.69511705 651:-0.40807834 652:0.26810819 653:0.89268028 654:0.62310357 655:-0.30504031 656:-0.18511452 657:-0.30747605 658:-0.22998802 659:-0.99861331 660:-1.0867432 661:-0.76850187 662:-0.58439218 663:-0.49005048 664:-0.13571372 665:0.12695855 666:-0.48652132 667:-1.3744804 668:-0.14387037 669:1.1412522 670:2.0103283 671:0.71965569 672:-0.33301601 673:-0.46536698 674:-0.71069207 675:-0.66420928 676:-1.0962191 677:-1.0613471 678:-0.77935379 679:-0.61302117 680:-0.50403028 681:-0.61217254 682:-0.65921095 683:-1.1010496 684:-1.7198035 685:0.37404338 686:2.5468362 687:2.1698618 688:-0.15827467 689:-1.0071058 690:-0.66460148 691:-0.78901634 692:-1.0408385 693:-1.3356772 694:-1.0938871 695:-0.76034739 696:-0.63636873 697:-0.52451746 698:-1.3270929 699:-1.1667572 700:-1.0246886 701:-0.85991575 702:1.0128068 703:3.0330235 704:1.5284984 705:-1.2926295 706:-1.4829702 707:-1.1428937 708:-1.3313247 709:-1.2180823 710:-0.99399695 711:-0.99433525 712:-0.80780975 713:-0.66048556 714:-0.49402391 715:-1.2926787 716:-0.63845066 717:0.052510418 718:1.3275405 719:1.044156 720:1.8578072 721:-0.13400927 722:-2.0572449 723:-1.9901067 724:-1.5363144 725:-1.5491248 726:-1.3594619 727:-0.77690346 728:-0.72913195 729:-0.82660858 730:-0.64182428 731:-0.40946054 732:-0.87033369 733:0.21023813 734:1.4089161 735:1.703988 736:1.4394807 737:0.53231489 738:-1.3045646 739:-2.5337834 740:-2.3515916 741:-1.6976552 742:-1.4565035 743:-1.2178182 744:-0.79862434 745:-0.62960216 746:-0.75377676 747:-0.63562734 748:-0.56061547 749:-0.45725962 750:0.37490605 751:1.5669133 752:1.9915151 753:1.3245288 754:-0.026770329 755:-1.6883025 756:-2.4569377 757:-2.3390094 758:-1.811927 759:-1.5241409 760:-1.2026 761:-0.98839442 762:-0.72785098 763:-0.65743211 764:-0.63294578 765:-0.62866678 766:-0.49887462 767:-0.62505527 768:-0.82232852 769:-1.669549 770:-2.1340654 771:-1.9381315 772:-1.3411397 773:-2.2507733 774:-1.5978249 775:-2.6033488 776:-2.0358743 777:-1.129739 778:0.73440677 779:2.8923131 780:3.5199813 781:1.911467 782:0.96176559 783:0.77839651 784:0.17728055 785:-0.78788631 786:-1.8449823 787:-2.1767045 788:-1.6225644 789:-1.3050071 790:-2.0067578 791:0.099103307 792:-2.2128717 793:-2.1530349 794:-1.0459937 795:1.199786 796:3.3641064 797:3.6448431 798:2.6627041 799:1.638006 800:1.314271 801:1.0251206 802:-0.29649395 803:-1.5394999 804:-2.1149552 805:-1.2965411 806:-0.88252009 807:-1.2826147 808:1.6823214 809:-2.2947531 810:-1.578455 811:0.081775884 812:2.2344844 813:3.9649263 814:3.688317 815:3.2524179 816:2.5656871 817:1.4516419 818:0.93063478 819:0.00073837995 820:-1.3686628 821:-2.3275798 822:-0.74838744 823:-0.14794411 824:1.3514562 825:2.794649 826:-1.3054839 827:-0.18552369 828:1.5596248 829:2.8877196 830:3.6537249 831:3.7635052 832:3.553075 833:3.3039178 834:1.4774006 835:1.3419818 836:0.6214901 837:-1.2582797 838:-2.3734911 839:-0.26578037 840:-0.17565913 841:2.6799478 842:3.5902739 843:-1.2649955 844:0.19037951 845:1.7665919 846:2.4790255 847:3.3768613 848:3.6230045 849:3.4791256 850:3.7988864 851:1.9362416 852:1.3243164 853:0.125988 854:-1.8746065 855:-2.5067913 856:-1.4966238 857:0.41012675 858:3.3636719 859:3.66677 860:-1.9634535 861:-0.027580274 862:1.3456502 863:2.0400519 864:2.7896518 865:2.9986619 866:3.5343441 867:3.9672748 868:1.7474279 869:1.3352389 870:-0.19690785 871:-1.8665717 872:-2.6566117 873:-2.5811776 874:0.54600618 875:2.7550912 876:-0.13092421 877:-2.1645854 878:-0.89576236 879:0.69933869 880:1.7923784 881:2.3622686 882:2.6462505 883:3.5122135 884:4.0255238 885:1.6784093 886:1.0847403 887:0.14192273 888:-0.1170045 889:-1.0291146 890:-1.3359654 891:0.37090228 892:-1.0078668 893:-1.9248735 894:-1.8084961 895:-0.94611732 896:0.54995741 897:1.1745566 898:1.9449643 899:2.4626018 900:3.5926515 901:3.8742926 902:1.3297206 903:0.86657536 904:0.54685068 905:0.60306705 906:-0.042804367 907:0.02668095 908:-0.072004523 909:-1.552677 910:-1.7556713 911:-1.6027959 912:-0.7530375 913:0.46241689 914:0.66271801 915:1.398278 916:2.1553663 917:3.3778345 918:3.3330733 919:-0.31877178 920:-0.32732173 921:-0.3283087 922:0.11313995 923:0.31647996 924:1.3264251 925:1.35079 926:-0.59181467 927:-0.91670087 928:-1.7355502 929:-0.61248896 930:-0.58438666 931:-1.493687 932:-1.4023479 933:-0.96540596 934:-0.82140109 935:-0.59094083 936:-0.4549501 937:-0.48384479 938:-0.58414543 939:-0.23839686 940:0.022849737 941:0.44843859 942:0.062920093 943:-1.1337875 944:-1.4298685 945:-2.0460097 946:-0.48062459 947:-0.40090967 948:-1.1960298 949:-1.5366415 950:-0.9868811 951:-0.78462198 952:-0.62022573 953:-0.56733967 954:-0.58524881 955:-0.69330283 956:-0.55969099 957:-0.097976497 958:0.031977562 959:-0.77856197 960:-1.5711358 961:-0.88471824 962:-2.6547972 963:-0.19413056 964:-0.13666443 965:-0.89839816 966:-1.5155923 967:-0.98280914 968:-0.60064106 969:-0.47057679 970:-0.74413096 971:-0.68463941 972:-0.76306624 973:-0.83193452 974:-0.3831078 975:-0.57757182 976:-1.0500552 977:-1.4282572 978:0.6857611 979:-0.5211328 980:0.25511579 981:0.15126396 982:-0.63308014 983:-1.2863457 984:-0.98906434 985:-0.51541052 986:-0.41651911 987:-0.84184305 988:-0.79871289 989:-0.86287146 990:-0.61756841 991:-0.47514443 992:-0.77370975 993:-1.2862253 994:-1.402163 995:2.0702353 996:0.59525507 997:0.10892076 998:0.28246575 999:-0.19565087 1000:-1.2391144 1001:-0.87833461 1002:-0.51663302 1003:-0.40274975 1004:-0.89389897 1005:-0.83582069 1006:-0.75978981 1007:-0.5095693 1008:-0.36937895 1009:-0.64167524 1010:-1.3809032 1011:-1.4336821 1012:2.0141141 1013:1.5989066 1014:-0.49605997 1015:0.7465854 1016:0.88743123 1017:-0.20826613 1018:-0.48130932 1019:-0.4593522 1020:-0.38803305 1021:-0.90803807 1022:-0.8174148 1023:-0.62405542 1024:-0.4932483 1025:-0.1974007 1026:-0.72376032 1027:-1.3526759 1028:-1.4204512 1029:0.64411963 1030:3.445081 1031:-0.20323437 1032:0.67096301 1033:1.7042714 1034:-0.19209697 1035:-0.41498733 1036:-0.41450469 1037:-0.42151445 1038:-0.97843586 1039:-0.99120555 1040:-0.80123094 1041:-0.77023225 1042:-0.63305435 1043:-1.1016917 1044:-1.3815414 1045:-1.2436916 1046:-0.098447157 1047:3.0382247 1048:0.37444036 1049:0.13756134 1050:1.1108874 1051:0.21303505 1052:-0.43666647 1053:-0.62726636 1054:-0.5793494 1055:-0.93685942 1056:-1.0573733 1057:-0.95198488 1058:-0.93747058 1059:-0.94736267 1060:-1.2663706 1061:-1.2244742 1062:-0.79553615 1063:0.062313405 1064:1.4886352 1065:0.82894398 1066:0.097361858 1067:0.83678846 1068:0.56618972 1069:-0.36622031 1070:-0.60884039 1071:-0.62819987 1072:-0.12336086 1073:-0.23434938 1074:1.1681547 1075:0.79327485 1076:-0.25544489 1077:2.0228298 1078:0.96642187 1079:0.451138 1080:0.34572738 1081:-0.71213701 1082:-1.4870876 1083:-0.68300642 1084:-0.69142011 1085:-0.96091147 1086:-0.98092959 1087:-0.61267573 1088:-0.32040361 1089:-0.75373378 1090:-0.76517714 1091:0.38154693 1092:0.087947916 1093:-0.14081578 1094:1.7086261 1095:1.5215497 1096:0.55277632 1097:0.43536504 1098:-0.64860222 1099:-1.2186211 1100:-0.43362392 1101:-0.46449598 1102:-0.77470456 1103:-0.99591151 1104:-0.59107746 1105:-0.25569613 1106:-0.65577346 1107:-0.76458595 1108:0.20260697 1109:0.24334546 1110:-0.33510343 1111:1.0377112 1112:1.5624448 1113:0.74912169 1114:0.086913515 1115:-0.91386561 1116:-0.90918926 1117:-0.36492956 1118:-0.22867667 1119:-0.42434927 1120:-0.96614244 1121:-0.43144737 1122:0.11074754 1123:-0.32299333 1124:-0.2354584 1125:0.2174258 1126:0.33852617 1127:-0.4300477 1128:0.13523853 1129:1.6981353 1130:1.2111439 1131:0.49064281 1132:-0.18442352 1133:-0.27738266 1134:-0.29952019 1135:-0.096394907 1136:0.19236034 1137:-0.64143545 1138:-0.43699512 1139:0.073116293 1140:-0.15013957 1141:-0.28060473 1142:0.048484027 1143:-0.28713376 1144:-0.96272714 1145:-0.80489014 1146:1.0858994 1147:0.54165046 1148:0.30735454 1149:0.58496763 1150:0.47409878 1151:0.066081707 1152:0.037031951 1153:0.50139714 1154:-0.23763063 1155:-0.25969671 1156:0.11021559 1157:-0.10281534 1158:-0.30301269 1159:0.67206861 1160:-0.47269245 1161:-1.6349281 1162:-1.1266954 1163:0.11500654 1164:-0.026119176 1165:0.32314087 1166:0.71830787 1167:0.35690437 1168:0.20749689 1169:0.0092091366 1170:0.55286295 1171:0.16457397 1172:0.45845652 1173:0.55130804 1174:-0.20405006 1175:-0.024568617 1176:1.0338431 1177:-0.5337857 1178:-2.274189 1179:-1.4377857 1180:-0.31216067 1181:0.27750218 1182:0.65617016 1183:0.17476743 1184:-0.044702496 1185:-0.41139911 1186:-0.27940622 1187:0.41555121 1188:0.76699055 1189:1.0489229 1190:0.77566725 1191:-0.044172665 1192:0.22524159 1193:0.9347247 1194:-0.1711664 1195:-1.9523871 1196:-1.020212 1197:0.5640904 1198:0.20225518 1199:-0.13211721 1200:-0.47371018 1201:-0.21420519 1202:-0.5394715 1203:-0.50962578 1204:0.20060421 1205:1.5134622 1206:1.3201048 1207:0.78347046 1208:0.45208418 1209:0.42373398 1210:0.66573601 1211:0.19902483 1212:-1.2128179 1213:-0.60777566 1214:0.83177941 1215:0.14229224 1216:-0.53460719 1217:-0.61008913 1218:-0.40794639 1219:-0.47705185 1220:-0.4850141 1221:0.23614997 1222:1.7391184 1223:1.2029922 1224:0.93882752 1225:-0.53977475 1226:-1.0097182 1227:-0.35682273 1228:0.49058516 1229:0.67486227 1230:1.0437869 1231:0.97498486 1232:0.78002342 1233:0.21820557 1234:0.34289866 1235:-0.27901334 1236:-0.90660575 1237:-0.72787833 1238:-0.33434494 1239:-0.21783832 1240:-0.19463367 1241:-0.18859772 1242:-0.75259539 1243:-1.3713877 1244:-0.54166449 1245:0.42307753 1246:0.80947662 1247:0.82722974 1248:0.88138688 1249:0.55425428 1250:0.24926662 1251:0.015820714 1252:-0.77969464 1253:-1.2664673 1254:-0.79170181 1255:-0.3548505 1256:-0.28727563 1257:-0.21629241 1258:-0.27068145 1259:-0.56195449 1260:-0.99028417 1261:-0.41193617 1262:0.53466198 1263:0.77187077 1264:0.79177513 1265:0.22799127 1266:-0.4851518 1267:-0.81319421 1268:-1.0996648 1269:-1.0845788 1270:-1.2213474 1271:-0.71963238 1272:-0.3152181 1273:-0.27981984 1274:-0.23989997 1275:-0.25015823 1276:-0.62135007 1277:-1.1901559 1278:-0.42428778 1279:1.0050423 1280:1.1277911 1281:1.0949842 1282:-0.43419642 1283:-1.4040739 1284:-1.3477792 1285:-1.2132874 1286:-0.70667818 1287:-1.0467284 1288:-0.61652703 1289:-0.41414248 1290:-0.31615499 1291:-0.26327434 1292:-0.25674171 1293:-0.76193471 1294:-1.2753262 1295:0.015234702 1296:1.0546508 1297:1.3300623 1298:0.62760912 1299:-1.1414894 1300:-1.3269344 1301:-1.0837861 1302:-0.8598014 1303:-0.62249334 1304:-0.86944585 1305:-0.6463632 1306:-0.46180154 1307:-0.31149817 1308:-0.27674686 1309:-0.27220182 1310:-0.65356455 1311:-0.48716177 1312:0.65401745 1313:1.5935401 1314:1.8005846 1315:-0.46753161 1316:-2.1807513 1317:-1.4595976 1318:-1.0080733 1319:-0.85922321 1320:-0.75039478 1321:-0.72712989 1322:-0.59781541 1323:-0.47032088 1324:-0.33752399 1325:-0.30173143 1326:-0.2990738 1327:-0.22342701 1328:0.83683274 1329:2.0834505 1330:1.7918481 1331:0.76774426 1332:-2.1789112 1333:-2.171218 1334:-1.5396645 1335:-1.2052112 1336:-1.0381691 1337:-0.86405069 1338:-0.63904448 1339:-0.50913208 1340:-0.45447946 1341:-0.375834 1342:-0.33082178 1343:-0.32659109 1344:0.28369621 1345:1.0805668 1346:2.4115639 1347:1.6315187 1348:-0.44462136 1349:-2.2052734 1350:-2.0002008 1351:-1.6037814 1352:-1.224627 1353:-1.0178748 1354:-0.86163308 1355:-0.68045137 1356:-0.5044382 1357:-0.43702083 1358:-0.39779137 1359:-0.37477301 1360:-0.37175213 1361:0.68770773 1362:1.0472429 1363:2.2235045 1364:1.0381628 1365:-0.73783562 1366:-1.8186205 1367:-1.9031278 1368:-1.6445524 1369:-1.2129132 1370:-1.004059 1371:-0.87347362 1372:-0.6856521 1373:-0.56545701 1374:-0.45803433 1375:-0.4220279 1376:-0.387727 1377:-0.41288532 1378:-0.82337953 1379:-0.65165984 1380:-1.0803176 1381:-1.1509755 1382:-1.5402129 1383:-0.27364533 1384:2.8614904 1385:0.31375675 1386:-0.59028512 1387:-0.54000668 1388:-0.69097755 1389:-2.1815985 1390:-2.0808354 1391:-1.4366756 1392:-0.71098677 1393:0.40601951 1394:1.287078 1395:-0.89657088 1396:-0.94859037 1397:-1.130275 1398:-1.1411176 1399:-1.4959838 1400:-0.47837289 1401:3.2741327 1402:0.64228397 1403:-0.2503427 1404:-0.32600254 1405:-0.36402485 1406:-2.0888406 1407:-2.1229316 1408:-1.3716966 1409:-0.72000458 1410:0.15655179 1411:0.58890298 1412:-0.85038588 1413:-1.0070975 1414:-1.1443172 1415:-1.0992292 1416:-1.4579201 1417:-0.58235229 1418:3.8337821 1419:2.427784 1420:0.41607564 1421:0.37939058 1422:-0.15942334 1423:-2.0258615 1424:-2.1649583 1425:-1.3171102 1426:-0.6756115 1427:-0.13403208 1428:-0.091266746 1429:-0.83679672 1430:-1.007177 1431:-1.1309609 1432:-0.88873483 1433:-1.1580281 1434:-0.79117421 1435:3.1562327 1436:3.4087453 1437:1.1908104 1438:1.8310502 1439:-0.048373604 1440:-2.0936332 1441:-2.1413802 1442:-1.1444785 1443:-0.64745459 1444:-0.40756511 1445:-0.21550048 1446:-0.81035101 1447:-0.94970485 1448:-0.95250344 1449:-0.64816623 1450:-0.77228994 1451:-1.0891858 1452:1.4280284 1453:3.4748896 1454:0.99302519 1455:2.7057058 1456:0.0083003085 1457:-2.2452478 1458:-2.0851375 1459:-1.0262119 1460:-0.74401488 1461:-0.58221766 1462:-0.39926369 1463:-0.56763914 1464:-0.70712613 1465:-0.70170084 1466:-0.45812615 1467:-0.49376355 1468:-1.0682613 1469:-0.2293625 1470:3.1358342 1471:0.76516062 1472:2.2107242 1473:0.076159722 1474:-2.10849 1475:-2.0545896 1476:-1.218397 1477:-0.94037858 1478:-0.58284448 1479:-0.31739771 1480:-0.079937648 1481:-0.4402501 1482:-0.58531606 1483:-0.3668871 1484:-0.45481886 1485:-0.81397118 1486:-1.0710076 1487:1.5622163 1488:0.14098894 1489:-0.079175855 1490:0.71712881 1491:-0.72015341 1492:-1.5459379 1493:-1.2465049 1494:-1.0221126 1495:-0.59703676 1496:-0.323481 1497:0.35838799 1498:0.054800577 1499:-0.04669689 1500:-0.22478575 1501:-0.59308462 1502:-0.44178252 1503:-0.84859658 1504:-0.70575909 1505:-0.88407854 1506:-1.8897431 1507:1.8924829 1508:1.7610173 1509:0.17957111 1510:-0.76590343 1511:-0.89711789 1512:-0.54492065 1513:-0.38662875 1514:0.71828641 1515:0.58867053 1516:0.16764078 1517:-0.25152477 1518:-0.4879233 1519:-0.074837998 1520:-0.65532681 1521:-1.3332744 1522:-0.89201733 1523:-1.4002796 1524:1.9995581 1525:2.7457949 1526:1.3338773 1527:0.19952045 1528:-0.48541973 1529:-0.43942232 1530:-0.3727832 1531:-0.35705349 1532:-0.37479027 1533:-0.5945192 1534:-0.76517164 1535:-1.2691173 1536:-1.5232805 1537:-1.0125623 1538:-2.2195831 1539:0.12702875 1540:0.22213551 1541:-0.16086905 1542:-0.91779653 1543:-0.57708063 1544:-0.23016474 1545:0.08455691 1546:0.8644331 1547:0.59714547 1548:-0.34777947 1549:-0.36003156 1550:-0.57229238 1551:-0.67417602 1552:-0.41794157 1553:-1.5348579 1554:-0.72771368 1555:-1.5287104 1556:-0.43824478 1557:-0.20943619 1558:1.9345965 1559:0.73780981 1560:-0.62331669 1561:-0.42641319 1562:-0.28271519 1563:-0.049025254 1564:-0.060394159 1565:-0.46137785 1566:-0.40283295 1567:-0.61465324 1568:-0.7558216 1569:0.86042391 1570:-0.87076066 1571:-0.32572856 1572:-0.39414647 1573:-1.0510528 1574:-1.6465632 1575:1.4735181 1576:4.9986667 1577:1.4144186 1578:-0.50901107 1579:-0.37707631 1580:-0.25724136 1581:-0.12788617 1582:-0.59512912 1583:-0.6000369 1584:-0.82852004 1585:-1.046263 1586:0.7353041 1587:-0.71225511 1588:0.55345755 1589:1.938299 1590:1.4364103 1591:-1.3597094 1592:-0.9120672 1593:4.1129143 1594:5.5366263 1595:0.26348282 1596:-0.45918175 1597:-0.38247775 1598:-0.44489846 1599:-0.62497023 1600:-0.76567712 1601:-0.9552171 1602:-1.2194149 1603:0.0089817574 1604:-0.70803721 1605:1.2319989 1606:1.2376657 1607:1.1378236 1608:-1.4647101 1609:-1.7666809 1610:-0.23434778 1611:1.8274634 1612:0.46065171 1613:-0.57751966 1614:-0.69687394 1615:-0.67210424 1616:-0.64505227 1617:-0.74951863 1618:-0.85660986 1619:-1.1205421 1620:-0.43312109 1621:-0.51625384 1622:1.8628919 1623:0.75806952 1624:2.0558888 1625:-0.73929995 1626:-1.5420253 1627:-1.3071622 1628:-0.98229816 1629:-0.82992347 1630:-0.71098531 1631:-0.75923379 1632:-0.72744834 1633:-0.75030915 1634:-0.90385505 1635:-0.95759987 1636:-1.172521 1637:-0.82264295 1638:-1.3461723 1639:1.2074963 1640:0.58472802 1641:0.92746009 1642:-0.74504014 1643:-1.4483701 1644:-1.4908735 1645:-1.1093709 1646:-0.90761142 1647:-0.77826229 1648:-0.6419476 1649:-0.69759366 1650:-1.1112531 1651:-1.3433266 1652:-1.4053416 1653:-1.4015373 1654:-1.3960983 1655:-1.4000559 1656:0.33390103 1657:0.20606597 1658:0.34397103 1659:-1.0205281 1660:-1.5599275 1661:-1.6684766 1662:-1.3078261 1663:-1.1539946 1664:-0.92378979 1665:-0.73654063 1666:-0.89482579 1667:-1.3298221 1668:-1.3732038 1669:-1.5915611 1670:-1.523844 1671:-1.3818415 1672:-1.0540113 1673:-0.099008997 1674:0.11088467 1675:0.11040593 1676:-0.98636964 1677:-1.7938516 1678:-1.6097589 1679:-1.4631682 1680:-1.3649518 1681:-0.92989683 1682:-0.76383862 1683:-0.89834998 1684:-0.14749689 1685:-0.32388762 1686:-0.2423936 1687:-0.38857241 1688:-0.56088199 1689:-0.13257962 1690:0.63919517 1691:0.44209877 1692:-0.0051106919 1693:0.37890703 1694:0.03317701 1695:-0.23010747 1696:-0.43528373 1697:-0.24912293 1698:-0.17986178 1699:-0.10400176 1700:0.014368305 1701:0.01361354 1702:-0.1377499 1703:-0.25715359 1704:-0.4054166 1705:-0.57256989 1706:-0.20140289 1707:0.697759 1708:0.45363299 1709:-0.2433898 1710:0.22418562 1711:-0.0073267964 1712:-0.25092011 1713:-0.35900056 1714:-0.29647323 1715:-0.21097793 1716:-0.19147055 1717:-0.20633124 1718:0.15552013 1719:0.054057996 1720:-0.17552025 1721:-0.32071304 1722:-0.54131084 1723:-0.42361194 1724:0.77341494 1725:0.8186441 1726:-0.5001192 1727:0.088208279 1728:-0.05566084 1729:-0.21131737 1730:-0.35031698 1731:-0.29660063 1732:-0.24004566 1733:-0.21463088 1734:-0.228992 1735:0.21241939 1736:0.11531658 1737:-0.067894891 1738:-0.19535758 1739:-0.42937532 1740:-0.45686658 1741:0.63023989 1742:1.0788551 1743:-0.35496931 1744:0.1533768 1745:-0.093220982 1746:-0.22805804 1747:-0.36445562 1748:-0.29249043 1749:-0.25764258 1750:-0.24449506 1751:-0.25660824 1752:0.20450158 1753:0.13400786 1754:-0.028407172 1755:-0.13481174 1756:-0.40899417 1757:-0.39172847 1758:0.61428443 1759:1.3618454 1760:-0.39445173 1761:0.27109576 1762:-0.059420369 1763:-0.22746598 1764:-0.33638168 1765:-0.28974787 1766:-0.29582715 1767:-0.26863237 1768:-0.26881958 1769:0.19177044 1770:0.22277166 1771:0.039175844 1772:-0.055115327 1773:-0.25331319 1774:-0.19432799 1775:0.51691476 1776:1.3314236 1777:-0.54089867 1778:0.5334175 1779:-0.096512801 1780:-0.28836109 1781:-0.31877023 1782:-0.29833307 1783:-0.28136922 1784:-0.22857394 1785:-0.17274854 1786:0.44700099 1787:0.34064867 1788:0.27911647 1789:0.067178229 1790:-0.065584857 1791:-0.05767248 1792:0.27560049 1793:0.45395482 1794:-0.73443369 1795:0.86327108 1796:0.31211941 1797:-0.37193352 1798:-0.32691545 1799:-0.30188831 1800:-0.28836388 1801:-0.21633226 1802:-0.19559931 1803:0.72982988 1804:0.57843051 1805:0.50234915 1806:0.29564554 1807:0.14911715 1808:0.1503239 1809:0.25736311 1810:-0.21024576 1811:-0.85315942 1812:0.59153877 1813:0.91384247 1814:-0.15095485 1815:-0.32517469 1816:-0.33677858 1817:-0.31578379 1818:-0.25729998 1819:-0.27022632 1820:1.3148452 1821:1.0529403 1822:0.6725777 1823:0.55026017 1824:0.30708405 1825:0.50728609 1826:0.31891989 1827:-0.38475084 1828:-0.89994483 1829:0.33945448 1830:1.1872284 1831:0.041771194 1832:-0.16656626 1833:-0.21558241 1834:-0.29264823 1835:-0.26468088 1836:-0.24876418 1837:-0.71595484 1838:-0.82635771 1839:-1.1260327 1840:-1.3108422 1841:-1.1434956 1842:-1.3509682 1843:-0.7585336 1844:-0.70714923 1845:-0.60553524 1846:-0.12868822 1847:-0.16793935 1848:-0.43146764 1849:-0.38950984 1850:-0.39246965 1851:-0.50417336 1852:-0.31475029 1853:-0.24482104 1854:-0.75859455 1855:-0.81606935 1856:-1.246329 1857:-1.1608696 1858:-1.1780175 1859:-1.136554 1860:-1.0113229 1861:-1.0813962 1862:-0.87830255 1863:0.0026530683 1864:0.35012398 1865:-0.068596704 1866:-0.09288038 1867:-0.49440783 1868:-0.54439973 1869:-0.35063982 1870:-0.30402062 1871:-0.71566012 1872:-0.67834719 1873:-1.0296012 1874:-0.78499299 1875:-0.59818192 1876:-0.84986687 1877:-1.2588415 1878:-1.2826592 1879:-1.1558272 1880:0.048093853 1881:0.81737858 1882:0.31607656 1883:-0.082142541 1884:-0.62856872 1885:-0.50855984 1886:-0.40035701 1887:-0.37107028 1888:-0.58594996 1889:-0.68705896 1890:-0.69064377 1891:-0.37441712 1892:-0.19801397 1893:-0.51157711 1894:-0.12192302 1895:-0.15532119 1896:-1.2387767 1897:0.073941569 1898:0.71273285 1899:0.10152019 1900:-0.42447723 1901:-0.56259925 1902:-0.40500985 1903:-0.33241296 1904:-0.33839623 1905:-0.60459973 1906:-0.77185455 1907:-0.85059382 1908:-0.4055481 1909:0.14904071 1910:0.84311184 1911:1.6897376 1912:0.34125373 1913:-0.79100501 1914:-0.96422303 1915:-0.4143398 1916:-0.26076018 1917:-0.63770142 1918:-0.76734816 1919:-0.45356931 1920:-0.32417078 1921:-0.31082084 1922:-0.42952916 1923:-0.55269312 1924:-0.79260528 1925:-0.012978617 1926:1.7284333 1927:1.8742514 1928:1.6007358 1929:0.62450911 1930:-0.02741993 1931:-0.89371323 1932:-0.57930432 1933:-0.49540792 1934:-0.79665267 1935:-0.84710004 1936:-0.57709116 1937:-0.41377716 1938:-0.39983538 1939:-0.7375493 1940:-0.78217908 1941:-0.41890337 1942:1.5618204 1943:2.4876903 1944:1.0921548 1945:1.1335389 1946:0.073434153 1947:0.31170031 1948:-0.85421709 1949:-0.78162856 1950:-0.5525982 1951:-0.84508546 1952:-0.87184661 1953:-0.62441713 1954:-0.47228616 1955:-0.44636823 1956:-0.4577895 1957:-0.45478105 1958:0.62564254 1959:1.923081 1960:0.76902647 1961:0.39113864 1962:0.38350781 1963:-1.0740306 1964:-0.4533716 1965:-0.83500091 1966:-1.0984078 1967:-1.0570061 1968:-1.057248 1969:-0.95843343 1970:-0.65043837 1971:-0.52752703 1972:-0.49863128 1973:0.27099139 1974:0.46335088 1975:1.4578745 1976:0.93597798 1977:0.46478706 1978:0.39540685 1979:-0.051477136 1980:-1.5698091 1981:-0.72437324 1982:-0.83176229 1983:-1.184334 1984:-1.3757711 1985:-1.3463834 1986:-1.1053635 1987:-0.78344688 1988:-0.57918103 1989:-0.46157133 1990:1.482397 1991:0.9454452 1992:-0.13462735 1993:-0.85381782 1994:-0.54173249 1995:-0.043155969 1996:-1.0601329 1997:-0.36366212 1998:0.09814974 1999:-0.13594716 2000:0.10181486 2001:0.045416221 2002:-0.59193268 2003:0.12684656 2004:0.25835228 2005:-0.24124679 2006:-0.321559 2007:1.0135192 2008:0.48532697 2009:-0.33096469 2010:-0.48994229 2011:-0.25678895 2012:-0.38922997 2013:-1.2663451 2014:-0.44056603 2015:0.56681455 2016:0.044351585 2017:0.19852279 2018:-0.17238531 2019:-0.53921531 2020:0.48374739 2021:0.99597387 2022:0.090695725 2023:-0.10269034 2024:-0.13669129 2025:-0.46557643 2026:-0.52323985 2027:-0.39358262 2028:-0.40479642 2029:-0.18863318 2030:-1.010512 2031:-0.7066516 2032:0.8565314 2033:0.21626459 2034:-0.023973917 2035:-0.62496862 2036:-0.71729811 2037:0.42486142 2038:1.1547791 2039:0.51308951 2040:0.35687997 2041:-0.27808812 2042:-0.44234041 2043:-0.19316911 2044:-0.16018101 2045:-0.4748907 2046:-0.13073077 2047:-0.73818949 2048:-0.7688082 2049:1.9048197 2050:1.1090616 2051:0.092334805 2052:-0.86456517 2053:-1.296109 2054:-0.073591368 2055:0.61454235 2056:0.65039072 2057:0.61433922 2058:0.19373681 2059:0.066200413 2060:0.029875804 2061:-0.24734409 2062:-0.6862547 2063:-0.71826792 2064:-1.0662047 2065:-0.93135363 2066:1.6898996 2067:1.1807181 2068:-0.16868418 2069:-1.0238402 2070:-1.5776021 2071:-0.35798395 2072:0.25937789 2073:0.52058713 2074:0.58010511 2075:0.84797537 2076:0.54438805 2077:0.024966912 2078:-0.091694974 2079:-0.31051665 2080:-0.58190197 2081:-0.84665611 2082:-0.96151019 2083:1.2161296 2084:0.86804054 2085:-0.41809477 2086:-0.98214165 2087:-1.9055136 2088:-0.49634438 2089:0.21836581 2090:0.33888099 2091:0.3806458 2092:1.4406992 2093:1.0757106 2094:0.58382819 2095:0.84059104 2096:0.59311826 2097:0.60403283 2098:-0.047451422 2099:-0.57061583 2100:1.1125796 2101:0.81742642 2102:-0.64519382 2103:-1.6168398 2104:-1.9705532 2105:-0.083689089 2106:0.24149688 2107:0.17932524 2108:0.33561123 2109:1.8030542 2110:1.6362044 2111:1.5159412 2112:1.4119392 2113:1.4459746 2114:1.7099753 2115:0.57286139 2116:-0.22913087 2117:0.89435976 2118:0.66593382 2119:-1.0803349 2120:-1.992771 2121:-1.5257446 2122:-0.10408418 2123:0.10982928 2124:0.23479135 2125:0.43326034 2126:2.07701 2127:2.0897297 2128:1.9378898 2129:1.6910226 2130:1.8967595 2131:1.9106058 2132:1.4076414 2133:0.41002321 2134:0.81595538 2135:0.46491109 2136:-1.1476401 2137:-1.4714003 2138:-1.1355147 2139:-0.18206061 2140:0.13754405 2141:0.33054734 2142:0.56410868 2143:-0.3209756 2144:-0.42001918 2145:-0.28524141 2146:-0.39719165 2147:-0.4858321 2148:-0.58451449 2149:-0.79428107 2150:-1.1236886 2151:-0.55246679 2152:-1.6565958 2153:-0.38434042 2154:-1.6552178 2155:-0.77341664 2156:-0.014150364 2157:-0.028403036 2158:-0.30660873 2159:-0.4590594 2160:-0.44441344 2161:-0.420953 2162:-0.37531682 2163:-0.41101736 2164:-0.4653992 2165:-0.3941949 2166:-0.58506291 2167:-0.89437213 2168:-0.78122602 2169:-1.0407167 2170:-0.059670234 2171:-1.7023573 2172:-0.98432589 2173:-0.16058006 2174:-0.36097408 2175:-0.45229954 2176:-0.5118383 2177:-0.50982004 2178:-0.54647297 2179:-0.5984626 2180:-0.60551703 2181:-0.72228542 2182:-0.097901642 2183:0.12113884 2184:-0.94085024 2185:-1.8126911 2186:-0.31338546 2187:0.22114542 2188:-1.8192555 2189:-1.0424393 2190:-0.31767229 2191:-0.67431823 2192:-0.53677815 2193:-0.51427351 2194:-0.47856908 2195:-0.55820025 2196:-0.65921574 2197:-0.68150871 2198:-0.89137954 2199:-0.0033930065 2200:0.99134168 2201:-0.12012085 2202:-0.33967208 2203:1.393307 2204:0.66314023 2205:-1.6035457 2206:-1.1680332 2207:-0.78275819 2208:-0.87652916 2209:-0.57282402 2210:-0.55220277 2211:-0.47341073 2212:-0.53715797 2213:-0.63731469 2214:-0.64692761 2215:-0.85257849 2216:-0.032716205 2217:1.4465487 2218:-0.26781088 2219:0.83667972 2220:1.4435724 2221:0.4713239 2222:-0.95395564 2223:0.328412 2224:1.8056236 2225:-0.061684718 2226:-0.55849983 2227:-0.51189538 2228:-0.54015759 2229:-0.60045548 2230:-0.72125854 2231:-0.7813439 2232:-1.2113716 2233:-0.81933015 2234:0.21750704 2235:-1.0432606 2236:1.8986318 2237:1.6527165 2238:0.58688895 2239:-1.6560184 2240:-0.91883405 2241:0.89941254 2242:1.1411612 2243:-0.42156311 2244:-0.47768919 2245:-0.53259128 2246:-0.68682875 2247:-0.83497033 2248:-0.94490088 2249:-1.3354239 2250:-1.3252554 2251:-1.6760589 2252:-1.0288946 2253:1.5362517 2254:1.5770171 2255:0.69695194 2256:-1.3070013 2257:-1.248045 2258:-1.3759298 2259:-0.93592698 2260:-0.83087452 2261:-0.61973601 2262:-0.79690053 2263:-0.91560936 2264:-1.1230285 2265:-1.0659234 2266:-1.3244308 2267:-1.5167829 2268:-2.1801879 2269:-0.8508768 2270:1.1481675 2271:1.4758704 2272:0.74957427 2273:-1.2330297 2274:-1.2297952 2275:-1.3028775 2276:-1.467931 2277:-1.1796118 2278:-0.85339764 2279:-0.7764681 2280:-0.98310206 2281:-1.2035449 2282:-1.0047065 2283:-1.2572037 2284:-1.4526738 2285:-1.9650044 2286:-0.68854842 2287:0.90567495 2288:0.97752827 2289:0.67255132 2290:-1.2363019 2291:-1.3913607 2292:-1.0580196 2293:-1.3145404 2294:-1.3680824 2295:-1.0873443 2296:0.049818545 2297:-0.014537826 2298:0.40841503 2299:0.33932015 2300:-1.1135928 2301:-2.5138988 2302:-1.3048971 2303:-0.34123591 2304:0.20778079 2305:-0.34830433 2306:-1.1938614 2307:-1.2239742 2308:-0.34401687 2309:-0.14862133 2310:-0.29050943 2311:-0.42199498 2312:-0.38230681 2313:0.57488547 2314:0.26190809 2315:0.52742432 2316:0.35045804 2317:-1.1222897 2318:-2.2748953 2319:-1.5018228 2320:-0.6215273 2321:0.52348602 2322:-0.55372813 2323:-1.7251478 2324:-1.0604526 2325:-0.14598584 2326:0.0027706459 2327:-0.4157503 2328:-0.45602686 2329:-0.41257527 2330:1.1102957 2331:0.74057978 2332:0.11171882 2333:-0.220341 2334:-1.118385 2335:-2.2153013 2336:-2.1388449 2337:-1.3229688 2338:0.20507029 2339:-1.3523864 2340:-2.0479859 2341:-1.3625735 2342:-0.2939259 2343:0.11475638 2344:-0.49187557 2345:-0.44987657 2346:-0.30539255 2347:1.5600864 2348:1.1251937 2349:0.41057892 2350:-0.1090628 2351:-1.7448692 2352:-2.4922376 2353:-2.2049046 2354:0.3876721 2355:0.79392789 2356:-1.2226236 2357:-1.7368318 2358:-1.3155602 2359:-0.052320961 2360:-0.0072548467 2361:-0.17520304 2362:-0.26577275 2363:-0.24659216 2364:1.720738 2365:1.2590874 2366:0.58514414 2367:-0.81929771 2368:-2.1782728 2369:-2.6447496 2370:-1.8699833 2371:0.96392096 2372:0.66349219 2373:-1.8328145 2374:-1.3364106 2375:-0.36584563 2376:0.0076376149 2377:-0.0072550765 2378:0.038622787 2379:-0.13994207 2380:-0.12473059 2381:2.3809975 2382:1.9756234 2383:1.3016539 2384:-0.79488505 2385:-2.437765 2386:-2.0321537 2387:-0.45356291 2388:1.3772892 2389:1.2008582 2390:-1.3895342 2391:-0.83870179 2392:0.40341188 2393:0.44781795 2394:0.56708751 2395:0.15268769 2396:0.079130527 2397:0.0074980778 2398:2.6293937 2399:2.471538 2400:1.7599744 2401:0.57804532 2402:-1.1121236 2403:-0.43083247 2404:0.8263539 2405:1.7345792 2406:1.1688834 2407:-0.8146154 2408:-1.33405 2409:0.40216438 2410:1.5596121 2411:1.2427398 2412:0.59156477 2413:0.43006906 2414:0.2744739 2415:2.0212229 2416:2.0470859 2417:1.6529091 2418:1.4393099 2419:1.1859697 2420:0.63307156 2421:1.5751671 2422:1.8253009 2423:0.63029618 2424:-0.66006112 2425:-1.0265771 2426:0.83775085 2427:1.7917163 2428:1.2699866 2429:0.92859591 2430:0.60089451 2431:0.41300653 2432:1.6947342 2433:1.7472854 2434:1.7850811 2435:1.9345974 2436:1.188493 2437:0.42392996 2438:1.6769133 2439:1.3022098 2440:0.074593308 2441:-0.35927058 2442:-0.57059663 2443:0.3423032 2444:0.84032662 2445:1.0069193 2446:0.97348289 2447:0.55679343 2448:0.48158042 2449:-0.41959459 2450:-0.41752771 2451:-0.5019993 2452:-0.64181514 2453:-0.56952493 2454:-0.90332372 2455:-0.84921778 2456:-0.6434362 2457:-1.4618802 2458:-0.065442731 2459:1.0814643 2460:0.49740278 2461:-0.10035348 2462:-0.47147119 2463:-0.36128726 2464:-0.042370706 2465:-0.050701735 2466:-0.46048974 2467:-0.46166106 2468:-0.55398921 2469:-0.62208992 2470:-0.60580171 2471:-0.87112871 2472:-0.89127834 2473:-0.99326858 2474:-1.2789555 2475:0.035103485 2476:1.2432008 2477:-0.1203282 2478:-0.39757829 2479:-0.39965751 2480:-0.30699301 2481:0.017705577 2482:-0.019926889 2483:-0.44672959 2484:-0.46239588 2485:-0.55863299 2486:-0.60467539 2487:-0.65938924 2488:-0.83820204 2489:-0.86361841 2490:-1.1065497 2491:-0.42061276 2492:0.0047667493 2493:1.4413916 2494:-0.48952321 2495:-0.48104337 2496:-0.39222643 2497:-0.26367917 2498:-0.038666843 2499:-0.060251389 2500:-0.44745008 2501:-0.48246131 2502:-0.57432281 2503:-0.62469753 2504:-0.68394104 2505:-0.7356777 2506:-0.74889533 2507:-0.66315975 2508:-0.14606738 2509:-0.38387409 2510:1.6270582 2511:-0.2476069 2512:-0.46852149 2513:-0.37481505 2514:-0.23718407 2515:-0.13923342 2516:-0.16863432 2517:-0.45348962 2518:-0.49308398 2519:-0.58124609 2520:-0.62034714 2521:-0.62235373 2522:-0.63873941 2523:-0.63787511 2524:-0.033416607 2525:0.17625864 2526:-0.69907968 2527:1.7067029 2528:0.61683682 2529:-0.42005232 2530:-0.32777765 2531:-0.24420958 2532:-0.21955118 2533:-0.22388076 2534:-0.47765123 2535:-0.49420679 2536:-0.54616926 2537:-0.53084922 2538:-0.46003462 2539:-0.47272136 2540:-0.47672418 2541:-0.073344379 2542:0.90297877 2543:-0.6921833 2544:1.9586398 2545:1.7830284 2546:-0.41509732 2547:-0.37606559 2548:-0.26519987 2549:-0.24386822 2550:-0.24103617 2551:-0.51374578 2552:-0.4966676 2553:-0.51449985 2554:-0.39945248 2555:-0.269174 2556:-0.38081374 2557:-0.35463703 2558:-0.1920036 2559:1.0351384 2560:-0.68790736 2561:0.55130951 2562:2.5955513 2563:-0.11753034 2564:-0.49496637 2565:-0.31235449 2566:-0.24470294 2567:-0.23463404 2568:-0.55115297 2569:-0.49442234 2570:-0.47762382 2571:-0.36746667 2572:-0.24431427 2573:-0.205912 2574:-0.21211377 2575:-0.28147162 2576:0.13363168 2577:-0.46002643 2578:-0.2440473 2579:2.2701575 2580:1.0473024 2581:-0.52865894 2582:-0.42112095 2583:-0.23105477 2584:-0.20694152 2585:-0.60461054 2586:-0.46943331 2587:-0.43872465 2588:-0.40021025 2589:-0.27406849 2590:-0.094841381 2591:-0.19173781 2592:-0.2287469 2593:-0.025062732 2594:0.038443631 2595:-0.32908183 2596:1.1582445 2597:1.62553 2598:-0.25587311 2599:-0.46330414 2600:-0.21372658 2601:-0.18355645 2602:-0.11252424 2603:-0.11937373 2604:-0.75349655 2605:-0.63227552 2606:-0.73791083 2607:-1.5766554 2608:-3.203105 2609:-2.865053 2610:-0.52078758 2611:-2.9405566 2612:-3.8613922 2613:-2.7903619 2614:-2.1138222 2615:-1.1711289 2616:-0.46117645 2617:-0.34397866 2618:-0.17819053 2619:-0.13634874 2620:-0.070037655 2621:-0.69253952 2622:-0.82287378 2623:-0.62753398 2624:-1.3157398 2625:-3.3577088 2626:-2.0387671 2627:0.70654155 2628:-2.257724 2629:-3.9227068 2630:-2.9913011 2631:-2.0472806 2632:-1.103438 2633:-0.46119079 2634:-0.24907652 2635:-0.21442436 2636:0.50403319 2637:-0.061149427 2638:-1.2206591 2639:-0.88480988 2640:-0.20041891 2641:-1.0535505 2642:-3.5495998 2643:-2.2232196 2644:1.4925177 2645:-2.1079787 2646:-3.8082952 2647:-2.8937644 2648:-1.9078885 2649:-1.0131046 2650:-0.46502079 2651:-0.26986994 2652:-0.20644327 2653:0.25903571 2654:-0.53036562 2655:-1.8182411 2656:-1.0166793 2657:0.7384602 2658:-0.620541 2659:-3.5273931 2660:-0.50215051 2661:2.5492311 2662:-0.32217462 2663:-2.8343238 2664:-2.3122381 2665:-1.6525342 2666:-1.0188654 2667:-0.59291159 2668:-0.41505822 2669:-0.21078869 2670:0.069766488 2671:-0.60411763 2672:-2.0148472 2673:-1.0836723 2674:1.1098809 2675:-0.075911335 2676:-2.5810681 2677:0.33420415 2678:2.6480601 2679:1.043588 2680:-1.5494984 2681:-1.8511522 2682:-1.3781801 2683:-0.92543557 2684:-0.67506115 2685:-0.32817083 2686:-0.24261025 2687:0.45170571 2688:-0.12023419 2689:-1.827106 2690:-1.2166851 2691:0.13417843 2692:-0.40614702 2693:-1.6299708 2694:1.0625546 2695:3.0295926 2696:2.1903318 2697:-0.32948797 2698:-1.1136366 2699:-0.94911472 2700:-0.64038591 2701:-0.54644646 2702:-0.32556208 2703:-0.13489422 2704:1.0839229 2705:0.35119427 2706:-1.8148453 2707:-1.5018341 2708:-0.43449599 2709:-0.42150306 2710:-0.36858514 2711:1.8293682 2712:3.064119 2713:3.380867 2714:0.74065148 2715:-0.16174131 2716:-0.24927091 2717:-0.19524861 2718:-0.20289232 2719:-0.21226301 2720:-0.12648293 2721:1.1965376 2722:0.25104536 2723:-1.7509841 2724:-1.4658864 2725:-0.59309167 2726:0.099859707 2727:0.58800053 2728:1.9062306 2729:2.5841855 2730:3.4256249 2731:1.6782212 2732:0.24489507 2733:0.1987138 2734:0.30695935 2735:0.22954644 2736:0.17071916 2737:0.23158553 2738:1.2059948 2739:0.0018322329 2740:-1.6530518 2741:-1.3857869 2742:-0.57449124 2743:0.21474897 2744:0.760211 2745:1.7185776 2746:2.3302798 2747:3.3291806 2748:2.1472326 2749:0.37459618 2750:0.24088254 2751:0.50442086 2752:0.42326012 2753:0.20030047 2754:0.20683992 2755:1.8617745 2756:2.2149833 2757:1.1446945 2758:-1.0601708 2759:-0.96231227 2760:0.88938505 2761:0.2790981 2762:-1.5296047 2763:-0.64727277 2764:-1.2251824 2765:-0.9238426 2766:-0.044608735 2767:0.39883172 2768:-0.65265882 2769:-0.23424073 2770:0.059066032 2771:0.077758645 2772:0.40890259 2773:0.84983077 2774:0.81200673 2775:-1.031386 2776:-1.0094697 2777:0.62339388 2778:0.56921328 2779:-1.3054804 2780:-0.00081405777 2781:-1.3315876 2782:-1.1219721 2783:0.16010102 2784:1.1596317 2785:-0.45901319 2786:-0.39073146 2787:-0.25542544 2788:-0.15721176 2789:-0.42823042 2790:-0.36604183 2791:-0.26093674 2792:-0.91878383 2793:-1.0130094 2794:-0.026477905 2795:1.0480519 2796:-1.1762598 2797:0.14408699 2798:-1.4379201 2799:-1.2815206 2800:0.03134587 2801:0.67337072 2802:-0.5881444 2803:-0.49049259 2804:-0.27635671 2805:0.0056364402 2806:-0.61813213 2807:-0.413017 2808:-0.6475283 2809:-1.0288236 2810:-1.0085648 2811:-0.073515209 2812:1.1988917 2813:-0.63104685 2814:0.4812648 2815:-1.1741707 2816:-1.411783 2817:-0.063706299 2818:0.12453062 2819:-0.69231474 2820:-0.52115712 2821:-0.23338959 2822:0.15438866 2823:-0.69912011 2824:-0.35437685 2825:-0.22150884 2826:-0.75979877 2827:-0.9177469 2828:-0.31863418 2829:0.59461307 2830:-0.54857917 2831:-0.30189329 2832:-1.1072283 2833:-1.5534471 2834:0.063547853 2835:-0.31250592 2836:-0.85267681 2837:-0.52786978 2838:-0.14056051 2839:0.11803725 2840:-0.91130869 2841:-0.30011513 2842:0.0443815 2843:-0.74218181 2844:-0.65138598 2845:-0.34926083 2846:0.15663095 2847:0.61334068 2848:-0.80275102 2849:-0.38237277 2850:-0.75063943 2851:-0.20673476 2852:-0.52138366 2853:-0.90104902 2854:-0.47022564 2855:-0.1368446 2856:-0.0078569143 2857:-0.96350227 2858:-0.22238199 2859:0.3306843 2860:-0.4742746 2861:-0.75308312 2862:-0.99081419 2863:-0.92702799 2864:2.6123803 2865:0.11549989 2866:1.5816707 2867:0.99528152 2868:-0.13497919 2869:-1.0114646 2870:-0.89889618 2871:-0.50210673 2872:-0.23389727 2873:-0.0050310819 2874:-0.66601104 2875:-0.19291263 2876:0.16424618 2877:-0.8345649 2878:-1.3706461 2879:-0.98299692 2880:-1.3549036 2881:2.6823761 2882:1.6563783 2883:2.1378005 2884:2.708828 2885:0.82278655 2886:-0.63957824 2887:-0.71271859 2888:-0.49289543 2889:-0.27921587 2890:-0.15877815 2891:-0.66921289 2892:-0.36808651 2893:-0.26154725 2894:-1.144075 2895:-1.5124683 2896:-0.86102601 2897:-1.5520505 2898:1.6182441 2899:2.0364775 2900:2.0476885 2901:2.9335822 2902:1.5254856 2903:-0.15461486 2904:-0.43780697 2905:-0.43224506 2906:-0.34447103 2907:-0.28810412 2908:-0.65442665 2909:-0.80456222 2910:-0.22704066 2911:1.1012804 2912:1.1220709 2913:0.24948323 2914:-1.5748888 2915:-2.5263463 2916:-1.3586676 2917:-1.9208149 2918:0.75929261 2919:-0.096535162 2920:-1.8125193 2921:-2.2422938 2922:-1.1715194 2923:0.85237341 2924:-0.032892621 2925:-0.2007555 2926:-0.64934304 2927:-0.83122514 2928:0.36723196 2929:1.1173841 2930:0.58681347 2931:-1.5258897 2932:-2.4143128 2933:-0.24865121 2934:-1.4820768 2935:1.0432874 2936:0.092574663 2937:-1.8369685 2938:-2.3619415 2939:-1.0190237 2940:0.97442971 2941:0.17475404 2942:-0.60309261 2943:-0.52109768 2944:-1.0993182 2945:-0.36339489 2946:0.30932884 2947:0.026078649 2948:-1.3358695 2949:-2.9352371 2950:1.1440836 2951:0.093562339 2952:1.5061616 2953:0.58277528 2954:-1.7269178 2955:-2.619672 2956:-0.90433131 2957:0.93967188 2958:0.62536673 2959:-0.78712647 2960:-1.0462491 2961:-1.2319915 2962:-0.62626644 2963:-0.18498923 2964:-0.20482284 2965:-1.005792 2966:-2.7628783 2967:1.8145243 2968:1.958838 2969:1.8168435 2970:0.76047717 2971:-1.5738162 2972:-2.6399062 2973:-0.86977396 2974:0.84878989 2975:0.79374924 2976:-1.3457491 2977:-1.4571809 2978:-1.4216478 2979:-0.89512486 2980:-0.31177641 2981:-0.22733866 2982:-0.97595704 2983:-3.3505126 2984:1.8601971 2985:1.8914497 2986:1.6686079 2987:0.62808407 2988:-1.3680929 2989:-2.0598234 2990:-0.66027545 2991:0.65658069 2992:0.68710977 2993:-1.2066375 2994:-1.454017 2995:-1.4348866 2996:-1.0060104 2997:-0.56659392 2998:-0.54200498 2999:-1.0596272 3000:-2.6503238 3001:1.5312918 3002:1.8872759 3003:0.13204688 3004:0.19240819 3005:-1.420161 3006:-1.3891958 3007:-0.34681634 3008:0.31149673 3009:0.53569793 3010:-1.4791731 3011:-1.4310947 3012:-1.1530543 3013:-0.75673916 3014:-0.84591594 3015:-0.9593441 3016:-1.1932436 3017:-1.8089599 3018:-0.22426301 3019:2.3340448 3020:-0.4271096 3021:-0.66555425 3022:-1.2285726 3023:-0.71291405 3024:-0.14840278 3025:0.16509785 3026:0.60326049 3027:-1.4004979 3028:-1.3310878 3029:-1.1443006 3030:-1.2149643 3031:-1.3383951 3032:-1.3963352 3033:-1.1799794 3034:-1.2832189 3035:-1.4348971 3036:1.9922431 3037:0.58155734 3038:-0.14686778 3039:1.03866 3040:0.64091918 3041:0.47157273 3042:0.42571426 3043:0.59564877 3044:-1.3409668 3045:-1.4016955 3046:-1.3818344 3047:-1.4273381 3048:-1.5568039 3049:-1.5132865 3050:-1.1019749 3051:-1.1102563 3052:-1.3757932 3053:0.74523153 3054:1.4288455 3055:0.71605494 3056:1.529266 3057:1.3505917 3058:0.92094048 3059:0.71474458 3060:0.72675396 3061:-0.026939908 3062:0.14348153 3063:0.27176013 3064:-0.30220399 3065:-0.46399497 3066:-0.21601396 3067:-0.37425949 3068:-1.2836234 3069:-0.80479443 3070:0.55374833 3071:0.36320066 3072:-0.63038116 3073:-1.2282571 3074:-1.2671473 3075:-0.88043117 3076:-0.74149268 3077:-0.72379511 3078:0.14150491 3079:0.015697334 3080:0.094650647 3081:-0.35062565 3082:-0.37216415 3083:0.15021105 3084:0.22398387 3085:-1.109791 3086:-0.55229828 3087:0.92967247 3088:0.68993627 3089:-0.71927338 3090:-1.3386644 3091:-1.4718427 3092:-0.96929638 3093:-0.87266294 3094:-0.92455659 3095:-0.050300519 3096:-0.19587946 3097:-0.25920559 3098:-0.39037709 3099:-0.28980711 3100:0.13375796 3101:0.19036731 3102:-1.0860399 3103:-0.81025291 3104:1.2564211 3105:0.76211223 3106:-0.76613365 3107:-1.3385323 3108:-1.630477 3109:-1.1276192 3110:-0.93778237 3111:-1.0513372 3112:-0.32188844 3113:-0.46762305 3114:-0.47255845 3115:-0.26312524 3116:-0.19321813 3117:0.0041947321 3118:0.51733683 3119:0.083225108 3120:0.049408423 3121:1.4896602 3122:0.50853661 3123:-0.54200641 3124:-1.3013832 3125:-1.7282533 3126:-1.2306206 3127:-0.93452344 3128:-0.9822035 3129:-0.41771455 3130:-0.52533206 3131:-0.65602197 3132:-0.1646566 3133:-0.093623007 3134:0.031394801 3135:1.2336995 3136:1.0260631 3137:-0.17864979 3138:0.83958482 3139:0.24554211 3140:-0.044784697 3141:-1.2585707 3142:-1.7107247 3143:-1.3077315 3144:-1.0095333 3145:-0.84764592 3146:-0.70924766 3147:-0.88381056 3148:-0.82460397 3149:-0.37672658 3150:-0.28786687 3151:-0.10266112 3152:1.26957 3153:1.4621263 3154:0.31534191 3155:0.15758021 3156:0.076845622 3157:0.27547301 3158:-0.93684882 3159:-1.5274889 3160:-1.4230584 3161:-0.99837364 3162:-0.64152446 3163:-0.60569316 3164:-0.87267191 3165:-1.1335658 3166:-0.96423792 3167:-0.76600883 3168:-0.54686408 3169:0.23298778 3170:1.2033021 3171:1.5274746 3172:0.4340731 3173:0.37615311 3174:0.62918699 3175:-0.7984279 3176:-1.4295447 3177:-1.4168867 3178:-0.89830094 3179:-0.33395836 3180:-0.88586009 3181:-0.96969343 3182:-1.2037948 3183:-1.3787532 3184:-1.2880992 3185:-0.8868527 3186:0.0073608303 3187:0.90637814 3188:2.1683948 3189:0.84229622 3190:0.565617 3191:0.48730575 3192:-0.69876701 3193:-1.2404168 3194:-1.151454 3195:-0.75856707 3196:-0.28156731 3197:-0.73485798 3198:-0.88075864 3199:-1.2415451 3200:-1.486339 3201:-1.4699639 3202:-1.107518 3203:-0.026549473 3204:0.65347971 3205:2.0373981 3206:1.3846025 3207:0.4474392 3208:0.2708676 3209:-0.72529517 3210:-1.193388 3211:-0.85771782 3212:-0.58272126 3213:-0.2040613 3214:0.55973862 3215:0.394593 3216:0.50260974 3217:-0.0013321511 3218:-0.60990599 3219:-0.54026663 3220:0.32000422 3221:0.0023979077 3222:-0.48518237 3223:-0.50612708 3224:-0.27855337 3225:0.15499376 3226:-0.33117266 3227:-0.51983346 3228:-0.51745059 3229:-0.51041401 3230:-0.48085588 3231:0.40211835 3232:0.33806085 3233:0.37688518 3234:0.0089375954 3235:-0.61462364 3236:-0.65257868 3237:0.21335402 3238:-0.31981842 3239:-0.40685651 3240:-0.55674261 3241:-0.56427323 3242:-0.16767384 3243:-0.48341177 3244:-0.58828584 3245:-0.52235001 3246:-0.52161705 3247:-0.49175615 3248:0.20173675 3249:0.15038705 3250:0.19877088 3251:0.09137262 3252:-0.52862778 3253:-0.74038499 3254:0.0026051083 3255:-1.202217 3256:-0.031645879 3257:-0.27478337 3258:-0.67099604 3259:-0.40640249 3260:-0.58542575 3261:-0.52298602 3262:-0.41878733 3263:-0.4809783 3264:-0.44653394 3265:0.43125083 3266:0.28540773 3267:0.16527795 3268:-0.10737273 3269:-0.57514847 3270:-0.72860895 3271:-0.075642924 3272:-0.72916343 3273:0.21831342 3274:0.28020323 3275:-0.27770262 3276:-0.22961704 3277:-0.4689633 3278:-0.3730993 3279:-0.28148017 3280:-0.33135052 3281:-0.24556317 3282:0.5786595 3283:0.53097962 3284:0.56418859 3285:0.0080275496 3286:-0.49461024 3287:-0.69652725 3288:0.31893325 3289:-0.74420536 3290:0.43553026 3291:0.74292329 3292:0.14335112 3293:-0.24437191 3294:-0.59166608 3295:-0.52611368 3296:-0.40583118 3297:-0.28190777 3298:-0.2439303 3299:1.3151272 3300:1.1701293 3301:1.0817162 3302:0.44926546 3303:-0.1530729 3304:-0.07520439 3305:0.9734644 3306:-0.9332893 3307:0.4945368 3308:1.0521182 3309:0.13087867 3310:-0.34054767 3311:-0.65269748 3312:-0.57661285 3313:-0.4909718 3314:-0.44233562 3315:-0.47279387 3316:2.0995732 3317:1.9128435 3318:1.720021 3319:1.1226774 3320:0.81396976 3321:1.4384101 3322:1.3311306 3323:-1.253193 3324:0.1479141 3325:0.5981252 3326:0.079061189 3327:-0.15372038 3328:-0.51396316 3329:-0.59200729 3330:-0.58282946 3331:-0.56862239 3332:-0.57281192 3333:2.6014406 3334:2.5666562 3335:2.5081029 3336:2.3959699 3337:2.9392881 3338:3.4533907 3339:0.25088869 3340:-1.9533209 3341:-0.67169257 3342:0.17878402 3343:-0.043686716 3344:-0.04222893 3345:-0.28475762 3346:-0.56293882 3347:-0.67014866 3348:-0.6840081 3349:-0.67956701 3350:3.0240309 3351:3.0399245 3352:3.1188942 3353:3.7366138 3354:3.9410934 3355:2.5669631 3356:-0.34400371 3357:-2.0341288 3358:-0.6356152 3359:0.0062533914 3360:-0.14436703 3361:-0.089720262 3362:-0.25266229 3363:-0.36897952 3364:-0.61570232 3365:-0.75678735 3366:-0.74952075 3367:-0.023458237 3368:0.16559596 3369:0.1704493 3370:-0.22288477 3371:-0.63431156 3372:-0.19480977 3373:-0.16676697 3374:-0.98721432 3375:-1.2192023 3376:-0.78570294 3377:-0.083389128 3378:0.84888975 3379:-0.4281747 3380:-0.80375823 3381:-0.69327097 3382:-0.54810742 3383:-0.46449423 3384:-0.053966981 3385:0.18673788 3386:0.2720911 3387:-0.084319167 3388:-0.54787352 3389:-0.42542975 3390:0.0028008055 3391:-1.1914475 3392:-1.2645659 3393:-0.73633184 3394:0.064346816 3395:0.28684506 3396:-0.48781358 3397:-0.61394207 3398:-0.66018961 3399:-0.54297811 3400:-0.46060214 3401:-0.11019957 3402:0.080965928 3403:0.15722448 3404:-0.1167009 3405:-0.26280346 3406:-0.57061673 3407:-0.032939325 3408:-1.8010928 3409:-0.45463292 3410:-0.70695563 3411:0.055243351 3412:-0.087874162 3413:-0.27878019 3414:-0.099137319 3415:-0.30548405 3416:-0.45994135 3417:-0.39312224 3418:-0.047852051 3419:0.094495097 3420:0.17015202 3421:-0.2298177 3422:-0.29302536 3423:-0.54850575 3424:-0.11809841 3425:-0.82441025 3426:0.4965777 3427:-0.4786848 3428:0.079375581 3429:-0.21373896 3430:-0.2157828 3431:-0.30488573 3432:-0.51829159 3433:-0.23687835 3434:-0.15740453 3435:-0.0089572704 3436:0.10660453 3437:0.16500998 3438:-0.24096087 3439:-0.57350645 3440:-0.25947816 3441:-0.084446872 3442:-0.092771704 3443:1.037239 3444:-0.30371108 3445:-0.19456039 3446:-0.29352485 3447:-0.051559892 3448:-0.22834434 3449:-0.35360881 3450:0.1948325 3451:0.030193101 3452:-0.053339008 3453:0.067340692 3454:0.23171587 3455:-0.015889669 3456:-0.24555384 3457:0.4455391 3458:-0.20852684 3459:0.097733413 3460:2.6505247 3461:-0.016025925 3462:-0.23906265 3463:-0.087784348 3464:0.077134979 3465:-0.1411323 3466:-0.077958845 3467:0.16108241 3468:-0.080693 3469:0.15043023 3470:0.30205295 3471:0.60114237 3472:0.48639303 3473:0.78261932 3474:1.8419176 3475:-0.87108043 3476:0.076683427 3477:2.2043954 3478:-0.036752602 3479:-0.060143797 3480:0.11734094 3481:-0.085502589 3482:-0.26735173 3483:-0.26091806 3484:-0.24819662 3485:-0.30186921 3486:0.65419772 3487:0.92201118 3488:1.4819601 3489:1.1321179 3490:1.1411304 3491:0.49455382 3492:-1.2037351 3493:-0.25046971 3494:0.80520833 3495:-0.14299182 3496:-0.0040836081 3497:0.2162892 3498:-0.029545017 3499:-0.34521933 3500:-0.3679208 3501:-0.43403909 3502:-0.46349245 3503:1.0920877 3504:1.443294 3505:1.5934413 3506:0.97952116 3507:0.77509167 3508:0.19355066 3509:-1.161197 3510:-0.04022741 3511:0.54105836 3512:-0.20481416 3513:-0.024106957 3514:0.49138038 3515:0.21901997 3516:-0.42911519 3517:-0.50855612 3518:-0.54631506 3519:-0.51785308 3520:2.6856141 3521:2.4542935 3522:1.0074852 3523:0.076012584 3524:-0.99367882 3525:-1.6039109 3526:-1.4055151 3527:-1.7335433 3528:-0.91444323 3529:-1.8482261 3530:-2.4349837 3531:-2.2492402 3532:-0.88747492 3533:1.8805192 3534:3.7250257 3535:3.2560842 3536:4.2000174 3537:2.2456379 3538:2.0936936 3539:1.0280979 3540:-0.46471018 3541:-1.6028717 3542:-1.7122876 3543:-1.4372044 3544:-1.8311049 3545:0.014013103 3546:-1.932337 3547:-2.5243057 3548:-2.1282554 3549:-0.80321605 3550:1.7596827 3551:3.1636769 3552:3.8868317 3553:4.7736311 3554:1.9432333 3555:2.0058317 3556:1.1546347 3557:-0.70539888 3558:-2.4411719 3559:-1.6939626 3560:-1.320803 3561:-1.8003923 3562:2.2684096 3563:-1.7410403 3564:-2.4071211 3565:-2.0886356 3566:-0.76762509 3567:1.7146185 3568:2.8382116 3569:4.1177566 3570:4.7959143 3571:1.9434023 3572:1.8606959 3573:1.055692 3574:-1.0100326 3575:-2.6255981 3576:-1.9142852 3577:-1.0106067 3578:0.5766729 3579:3.4342905 3580:0.40125646 3581:-2.3230428 3582:-1.7276337 3583:-0.092157113 3584:1.8094568 3585:2.6173869 3586:3.944517 3587:4.5801358 3588:2.4628893 3589:1.8976306 3590:0.80283988 3591:-1.3271174 3592:-3.0428636 3593:-2.2810122 3594:-1.0111745 3595:1.9123517 3596:3.3884703 3597:0.80479306 3598:-2.3043774 3599:-1.5040509 3600:0.029701772 3601:1.3262482 3602:3.1243147 3603:4.1897468 3604:4.5865715 3605:2.4963401 3606:1.9055786 3607:0.98536904 3608:-1.0297011 3609:-3.7158995 3610:-2.5192643 3611:-0.44324491 3612:2.1655192 3613:2.3815503 3614:-0.07107064 3615:-2.3958466 3616:-1.3880105 3617:-0.05960855 3618:1.2326964 3619:3.1198203 3620:3.751662 3621:4.1404166 3622:3.2736931 3623:2.5845625 3624:1.408304 3625:-0.10316356 3626:-2.6888833 3627:-2.4557777 3628:-0.83344277 3629:1.5694133 3630:-0.20336834 3631:-1.5322488 3632:-1.9506879 3633:-0.8395389 3634:1.3387674 3635:1.9469732 3636:2.6552792 3637:3.1038212 3638:3.6639976 3639:3.6049867 3640:3.0535334 3641:2.1597172 3642:1.0328493 3643:-0.079459097 3644:-0.96565812 3645:-0.24898173 3646:0.40943918 3647:-2.742045 3648:-2.8219527 3649:0.2070898 3650:0.53943691 3651:1.6988759 3652:2.3411865 3653:2.6504703 3654:2.9053092 3655:3.2467978 3656:3.4916291 3657:2.8891521 3658:2.3539888 3659:1.7292694 3660:1.3573836 3661:0.13146359 3662:0.87496164 3663:0.29580194 3664:-2.0526345 3665:-2.3106982 3666:1.1826708 3667:1.2235252 3668:1.4092778 3669:1.9305045 3670:2.8332604 3671:3.2937609 3672:3.4436721 3673:-0.72990725 3674:-0.87530264 3675:-0.83710856 3676:-1.0876564 3677:-0.95236699 3678:-1.0722659 3679:-0.47381818 3680:-0.035627825 3681:-0.33108136 3682:-0.91029124 3683:-0.83569433 3684:-1.1806359 3685:-0.14094535 3686:1.2535935 3687:0.15772248 3688:0.028495957 3689:1.2878895 3690:-0.77456125 3691:-0.99236511 3692:-1.1559366 3693:-1.1013949 3694:-0.79728184 3695:-0.98143992 3696:-0.20765633 3697:0.0029503944 3698:0.14457122 3699:-0.56267845 3700:-0.30724056 3701:-1.0372618 3702:0.23858854 3703:1.2023801 3704:0.30924051 3705:0.30091558 3706:1.5742507 3707:-0.86449359 3708:-1.0737197 3709:-1.1782349 3710:-0.83006391 3711:-0.38247169 3712:-0.89325331 3713:-0.23752813 3714:-0.22303685 3715:0.046220147 3716:-0.37206734 3717:-0.28728364 3718:-1.6032281 3719:-0.35945996 3720:-0.1934239 3721:-0.24869283 3722:0.36178966 3723:1.3407017 3724:-1.0497349 3725:-1.1009579 3726:-1.0434003 3727:-0.3387601 3728:-0.032433678 3729:-1.0418759 3730:-0.49678053 3731:-0.52385067 3732:0.29986654 3733:-0.082850567 3734:-0.36295308 3735:-1.9675211 3736:-1.4957123 3737:-0.85561089 3738:-0.30427776 3739:0.20872185 3740:0.66288017 3741:-1.0229502 3742:-1.0557835 3743:-0.83861646 3744:-0.30576588 3745:-0.71566051 3746:-1.3199643 3747:-0.43936638 3748:-1.0307695 3749:-0.033591401 3750:-0.37826816 3751:-1.0261298 3752:-1.9772697 3753:-1.6545838 3754:-0.47636382 3755:-0.14594328 3756:-0.039382855 3757:0.38479792 3758:-1.0044549 3759:-1.0136611 3760:-0.81238874 3761:-0.31205687 3762:-0.77217632 3763:-1.2217884 3764:-0.37189111 3765:-0.60419863 3766:0.30840161 3767:-0.4235821 3768:-0.99422511 3769:-0.77662608 3770:-0.70454294 3771:-0.060688035 3772:-0.3928012 3773:-0.10086447 3774:1.0181791 3775:-0.95789245 3776:-1.0634867 3777:-1.0927458 3778:-0.18047817 3779:-0.43131963 3780:-1.0455426 3781:-0.57636487 3782:0.17169792 3783:0.48598467 3784:0.18630153 3785:-0.087323587 3786:0.96019875 3787:1.6584229 3788:0.5203785 3789:-0.32589682 3790:0.22618021 3791:1.4480706 3792:-1.1896062 3793:-1.2031785 3794:-0.86120968 3795:-0.099199387 3796:-0.470038 3797:-0.76123473 3798:-0.22341163 3799:0.59084459 3800:-0.046212127 3801:1.5439478 3802:1.3058335 3803:2.1527958 3804:2.799647 3805:1.3889272 3806:0.28523568 3807:0.66800367 3808:1.3002295 3809:-1.2754261 3810:-0.99365865 3811:-0.34613377 3812:0.12067917 3813:-0.5007107 3814:-0.55423775 3815:0.10785244 3816:0.70960854 3817:-0.2284886 3818:2.0316142 3819:2.2155132 3820:2.6750768 3821:2.7878967 3822:1.7518619 3823:0.98974212 3824:0.98790142 3825:1.3590422 3826:-0.30948189 3827:-0.14147772 3828:0.1469872 3829:-0.28285587 3830:0.021047291 3831:0.25701765 3832:0.26259461 3833:-0.18830368 3834:-0.44123754 3835:-0.39147612 3836:-0.56647228 3837:-0.32538748 3838:0.23364709 3839:0.68390695 3840:0.84510874 3841:0.055594287 3842:-0.1295045 3843:-0.22094127 3844:-0.13398572 3845:-0.17806957 3846:-0.48708242 3847:0.080460512 3848:0.55852486 3849:0.75192484 3850:-0.12390028 3851:-0.4889821 3852:-0.69615986 3853:-0.70578036 3854:-0.19278425 3855:0.31618176 3856:0.45330439 3857:-0.004385809 3858:-0.3656648 3859:-0.30812469 3860:-0.083885609 3861:-0.22223883 3862:-0.57650349 3863:-0.68632995 3864:0.014393956 3865:0.49592605 3866:0.70124154 3867:-0.33766799 3868:-1.2457998 3869:-1.3435665 3870:-0.64624406 3871:0.010116948 3872:0.36649917 3873:0.16909395 3874:-0.37678546 3875:-0.42845557 3876:-0.30183463 3877:-0.23172429 3878:-0.42150563 3879:-0.81262336 3880:-0.86710248 3881:-0.0039114382 3882:0.33153839 3883:0.4836979 3884:0.032394838 3885:-0.69268505 3886:-0.75820139 3887:-0.19950733 3888:0.084085908 3889:0.08697353 3890:-0.12710787 3891:-0.27739306 3892:-0.45683202 3893:-0.44517839 3894:-0.25380844 3895:-0.55067145 3896:-0.88567416 3897:-0.80514239 3898:0.01188264 3899:0.20553883 3900:-0.26867104 3901:-0.14916268 3902:-0.07531192 3903:0.33361491 3904:0.030550597 3905:-0.24903843 3906:-0.10965258 3907:-0.42536303 3908:-0.26566636 3909:-0.4242248 3910:-0.48183062 3911:0.00046051513 3912:-0.3143025 3913:-0.69570365 3914:-0.34834575 3915:0.044885935 3916:0.094379058 3917:-0.19622912 3918:0.017289458 3919:0.93790843 3920:1.1979863 3921:0.57633824 3922:0.23859245 3923:-0.20021358 3924:-0.51022535 3925:-0.45273091 3926:-0.52951618 3927:-0.55290696 3928:0.0037847055 3929:-0.13288631 3930:-0.37694225 3931:-0.006932555 3932:0.3094828 3933:-0.044482503 3934:-0.37404152 3935:0.6133991 3936:0.96307589 3937:1.0764998 3938:0.78540296 3939:0.3913526 3940:-0.098090833 3941:-0.71453082 3942:-0.67373197 3943:-0.64855274 3944:-0.60959368 3945:0.29496739 3946:0.10902913 3947:-0.10004702 3948:0.23787107 3949:0.43516556 3950:0.047638315 3951:0.011600915 3952:0.63289723 3953:1.075819 3954:1.0219359 3955:0.81755827 3956:0.46144876 3957:0.14767789 3958:-0.61111203 3959:-0.79508272 3960:-0.81929596 3961:-0.89181446 3962:0.58421905 3963:0.34887535 3964:0.37788212 3965:0.39898583 3966:0.24298397 3967:-0.049887782 3968:0.026266205 3969:0.30558285 3970:0.90841067 3971:0.8289056 3972:0.71303878 3973:0.55034358 3974:-0.033002887 3975:-0.68007592 3976:-0.79723351 3977:-0.88236327 3978:-0.89245779 3979:-0.35221948 3980:-0.31872017 3981:-0.18590238 3982:-0.084264105 3983:-0.16328239 3984:-0.39084611 3985:0.14225814 3986:0.27156273 3987:-0.038405761 3988:0.41097974 3989:0.7257553 3990:0.96055154 3991:0.039593182 3992:-0.1325783 3993:-0.1451591 3994:-0.069794907 3995:-0.068250838 3996:-0.25558249 3997:-0.25577956 3998:-0.16972077 3999:-0.16750656 4000:-0.22380329 4001:-0.29259199 4002:0.010790921 4003:0.56596551 4004:-0.33564274 4005:0.42158611 4006:0.66688981 4007:0.4901634 4008:0.077041178 4009:-0.14695269 4010:-0.13240063 4011:-0.09914124 4012:-0.12308109 4013:-0.26196438 4014:-0.2011643 4015:-0.16510183 4016:-0.18470134 4017:-0.22606325 4018:-0.25952516 4019:-0.0069014141 4020:0.90256574 4021:-0.37331228 4022:0.29271188 4023:0.36058542 4024:-0.057500943 4025:0.062437076 4026:-0.15423813 4027:-0.14904699 4028:-0.12143241 4029:-0.14135917 4030:-0.22928071 4031:-0.21948977 4032:-0.2027851 4033:-0.20218995 4034:-0.23464432 4035:-0.24309126 4036:-0.054737207 4037:1.1429321 4038:-0.19265006 4039:0.14517111 4040:0.27102131 4041:-0.086168304 4042:-0.074457347 4043:-0.19359606 4044:-0.16244352 4045:-0.13510598 4046:-0.14297808 4047:-0.29862033 4048:-0.26722912 4049:-0.24059707 4050:-0.24815366 4051:-0.28987364 4052:-0.27450671 4053:-0.12023052 4054:1.0549291 4055:-0.068009963 4056:0.018691365 4057:0.40300205 4058:-0.10565437 4059:-0.20942189 4060:-0.20822039 4061:-0.17051766 4062:-0.14588092 4063:-0.12993616 4064:-0.26997065 4065:-0.27578405 4066:-0.24329731 4067:-0.23290031 4068:-0.2501683 4069:-0.24847919 4070:-0.095517636 4071:0.89978912 4072:-0.070181212 4073:-0.08739633 4074:0.46628048 4075:-0.29520747 4076:-0.25477247 4077:-0.19315815 4078:-0.16621558 4079:-0.15806575 4080:-0.13956904 4081:-0.13172191 4082:-0.22163442 4083:-0.2222685 4084:-0.20737513 4085:-0.22191801 4086:-0.2474966 4087:-0.1753961 4088:0.45691275 4089:-0.24947802 4090:-0.1389581 4091:0.756681 4092:-0.34076616 4093:-0.37854227 4094:-0.23438836 4095:-0.16976726 4096:-0.15799153 4097:-0.14724405 4098:-0.055649219 4099:-0.12372869 4100:-0.1888363 4101:-0.22629397 4102:-0.23914472 4103:-0.20286764 4104:-0.14584708 4105:0.21041036 4106:-0.26005391 4107:-0.33334488 4108:0.89015938 4109:0.081223259 4110:-0.4027785 4111:-0.31771835 4112:-0.20665497 4113:-0.17397433 4114:-0.16821663 4115:-0.01838374 4116:-0.036758927 4117:-0.1630473 4118:-0.2580409 4119:-0.1799307 4120:-0.14030144 4121:0.047496241 4122:0.13558197 4123:-0.1770295 4124:-0.39457281 4125:0.62716338 4126:0.37790684 4127:-0.16760857 4128:-0.39789494 4129:-0.23546136 4130:-0.17827729 4131:-0.15400077 4132:-0.12841578 4133:-0.27617565 4134:-0.42604319 4135:-1.094661 4136:-1.453021 4137:-1.2102829 4138:-0.18832305 4139:-1.1774002 4140:-0.80691935 4141:-1.5469595 4142:-0.42753459 4143:1.7322329 4144:3.0892673 4145:2.2272838 4146:-0.465872 4147:-0.45422303 4148:-0.44164208 4149:-0.44527821 4150:-0.51621227 4151:-0.6205861 4152:-1.2526939 4153:-1.4876823 4154:-1.0726717 4155:-0.5500061 4156:-1.1446537 4157:-0.48055768 4158:-1.3739986 4159:0.074841667 4160:1.635692 4161:3.1328716 4162:3.1744442 4163:-0.20461603 4164:-0.57259851 4165:-0.5438279 4166:-0.49877779 4167:-0.61464711 4168:-0.79019231 4169:-1.3211404 4170:-1.0768465 4171:-0.65179835 4172:-1.1340482 4173:-1.4682543 4174:-0.70982699 4175:-1.1960803 4176:0.083463958 4177:1.0531525 4178:3.061656 4179:3.0969076 4180:-0.08415501 4181:-0.42972922 4182:-0.80198763 4183:-0.57309849 4184:-0.66401217 4185:-0.83577755 4186:-1.2581234 4187:-1.1295563 4188:-0.78965105 4189:-0.95975921 4190:-1.0487967 4191:-0.21714969 4192:-0.28435814 4193:-0.20203842 4194:0.79556973 4195:2.3003795 4196:2.2407358 4197:-0.14184967 4198:-0.62129719 4199:-0.88586085 4200:-0.66818029 4201:-0.77706769 4202:-0.91840045 4203:-1.393253 4204:-1.4050229 4205:-0.68260699 4206:-0.34387482 4207:-0.17774937 4208:0.15427225 4209:0.43403231 4210:-0.72305967 4211:0.49524811 4212:1.2824718 4213:1.2063445 4214:-0.40884918 4215:-0.91985116 4216:-1.0655917 4217:-0.67223715 4218:-0.81173181 4219:-0.97542544 4220:-1.1712257 4221:-1.2227439 4222:-0.34048558 4223:0.27336755 4224:0.061122379 4225:0.74480615 4226:1.0141976 4227:-0.85400634 4228:0.10922452 4229:0.24704 4230:0.42036986 4231:-0.57811736 4232:-1.1300388 4233:-1.1612471 4234:-0.12397307 4235:-0.43163582 4236:-0.56170462 4237:-0.70710354 4238:-1.3074432 4239:-0.19616765 4240:2.0516316 4241:0.16322076 4242:0.93339136 4243:0.82989675 4244:-1.327808 4245:0.0039907939 4246:-0.19121237 4247:-0.41932591 4248:-0.9439648 4249:-1.0990654 4250:-1.2232319 4251:0.80609225 4252:0.47508555 4253:0.21493216 4254:-0.53227853 4255:-1.1369687 4256:1.065785 4257:2.6465097 4258:0.54923397 4259:0.68225983 4260:0.073882393 4261:-1.5735342 4262:-0.79282494 4263:-0.55564164 4264:-0.68114452 4265:-1.0705023 4266:-1.1223911 4267:-1.2483403 4268:1.0754646 4269:0.68954424 4270:0.20794578 4271:-0.59588545 4272:-0.54161009 4273:1.7269033 4274:2.2284978 4275:0.90797998 4276:0.776238 4277:0.42346014 4278:-1.4776248 4279:-0.86831107 4280:-0.62231466 4281:-0.79866935 4282:-1.1467365 4283:-1.2908239 4284:-1.2933381 4285:-0.32663433 4286:-0.43622979 4287:-0.96870736 4288:-0.71162336 4289:-0.5172092 4290:-1.2267659 4291:-1.2823951 4292:-1.0462191 4293:-0.22754948 4294:-0.77106237 4295:-1.3989277 4296:-0.45965012 4297:0.3882721 4298:-0.542626 4299:-0.23535703 4300:0.27729716 4301:0.72357955 4302:-0.2357079 4303:-0.40283378 4304:-0.75256755 4305:-0.59051012 4306:-0.56463777 4307:-1.0783076 4308:-1.3382863 4309:-1.095249 4310:0.10944848 4311:-0.8929462 4312:-1.7852249 4313:-0.78500299 4314:0.24323642 4315:-0.43592588 4316:-0.15154494 4317:0.63360575 4318:0.79311375 4319:-0.18898411 4320:-0.23833045 4321:-0.37749943 4322:-0.36165665 4323:-0.41726681 4324:-0.64690506 4325:-1.1411345 4326:-1.7534608 4327:0.27485818 4328:-1.2161449 4329:-2.0034301 4330:-0.83964059 4331:0.06328881 4332:-0.31315919 4333:0.17100132 4334:0.67609609 4335:0.80842268 4336:-0.25538259 4337:-0.20896218 4338:-0.10406786 4339:-0.12168988 4340:-0.063340563 4341:-0.31013811 4342:-0.806793 4343:-2.1475475 4344:0.74500276 4345:0.20986714 4346:-1.642066 4347:-1.2585583 4348:-0.29381247 4349:-0.47783608 4350:0.1192518 4351:0.57418508 4352:0.78235276 4353:-0.19808277 4354:-0.1473754 4355:-0.12040544 4356:-0.10992541 4357:0.07000538 4358:0.033159348 4359:-0.60534884 4360:-2.0118877 4361:0.5755323 4362:1.0213367 4363:-1.0810936 4364:-1.0261032 4365:0.17011589 4366:-0.35143765 4367:0.032841329 4368:0.62639477 4369:0.69505647 4370:-0.27934115 4371:-0.16079073 4372:-0.057467525 4373:-0.023996318 4374:-0.048865243 4375:0.045737844 4376:-0.4213612 4377:-0.88279831 4378:0.42540839 4379:1.4343125 4380:0.25631802 4381:-0.88694809 4382:-0.2833168 4383:-0.30789233 4384:0.2811155 4385:0.87116351 4386:0.99462252 4387:-0.27495602 4388:-0.20523568 4389:-0.011109103 4390:0.28520756 4391:0.06891669 4392:0.08380591 4393:-0.050727222 4394:0.01195366 4395:0.4465188 4396:1.8505921 4397:1.119769 4398:-0.28839091 4399:-0.5542828 4400:-1.1148171 4401:-0.089220281 4402:0.91827901 4403:0.98828795 4404:-0.48730839 4405:-0.34997698 4406:-0.048935037 4407:0.25816448 4408:0.2764352 4409:0.32104939 4410:0.2763824 4411:0.49200937 4412:0.40738299 4413:1.3112881 4414:1.2094686 4415:0.29674767 4416:-0.56864138 4417:-1.8309226 4418:-0.216565 4419:0.98611386 4420:0.87014785 4421:-0.63314072 4422:-0.47144451 4423:-0.15650497 4424:0.22038324 4425:0.17711425 4426:0.20735351 4427:0.46705259 4428:0.91443361 4429:0.60040412 4430:0.73400399 4431:0.93376037 4432:0.43902022 4433:-0.20723968 4434:-1.3882001 4435:-0.057598831 4436:0.80992065 4437:0.7596499 4438:-0.47489008 4439:-0.5994698 4440:-0.81774713 4441:-0.75873474 4442:-0.41045647 4443:0.11834962 4444:0.27644522 4445:2.1822684 4446:0.80240316 4447:1.1858339 4448:0.80837988 4449:-0.056107809 4450:-0.65977459 4451:0.2219357 4452:0.95680173 4453:1.1744328 4454:0.64751749 4455:-0.68418218 4456:-0.7516126 4457:-0.94038158 4458:-0.77126819 4459:-0.51805706 4460:-0.17431814 4461:-0.065709301 4462:1.704047 4463:0.94557591 4464:1.1075813 4465:1.4407341 4466:0.78519051 4467:-0.2646414 4468:0.26084109 4469:0.80058174 4470:1.0801896 4471:0.32889016 4472:-0.88929487 4473:-0.90975173 4474:-1.1156842 4475:-0.97028944 4476:-0.41403678 4477:-0.29290983 4478:-0.083790647 4479:1.3075199 4480:-0.097410843 4481:0.32919051 4482:0.88991209 4483:0.70036059 4484:0.25329919 4485:0.58097413 4486:0.60492816 4487:0.86720192 4488:0.3643844 4489:-1.0017905 4490:-1.1587908 4491:-1.1433454 4492:-1.2201742 4493:-0.66838938 4494:-0.60823116 4495:0.10085483 4496:1.4715379 4497:-0.52880721 4498:-0.31958917 4499:-0.20456081 4500:-0.010090453 4501:0.57673642 4502:0.92624137 4503:0.28478871 4504:0.28366124 4505:0.083166639 4506:-0.87087491 4507:-1.0067752 4508:-1.0607935 4509:-1.1901798 4510:-1.2628546 4511:-1.0855029 4512:0.041319913 4513:1.0804232 4514:-1.1100536 4515:-1.2329205 4516:-1.1640901 4517:-0.2353542 4518:0.960586 4519:0.85526203 4520:0.27250076 4521:-0.14268617 4522:-0.55216688 4523:-0.78024919 4524:-0.94192209 4525:-0.99528322 4526:-1.2920621 4527:-1.4504564 4528:-1.2019393 4529:-0.21380376 4530:0.038022972 4531:-1.5270617 4532:-0.94146877 4533:-0.94046968 4534:-0.060679566 4535:1.5661954 4536:1.2154724 4537:0.26625157 4538:-0.61517185 4539:-0.85443681 4540:-0.86897691 4541:-1.0757243 4542:-1.3677939 4543:-1.6104105 4544:-1.5616819 4545:-1.2014082 4546:-0.1845327 4547:-0.14566667 4548:-1.0203762 4549:-0.30487512 4550:-0.73884268 4551:-0.56328555 4552:0.41736043 4553:1.1591096 4554:0.10505163 4555:-0.77952574 4556:-1.0016949 4557:-1.0367658 4558:-1.1826862 4559:-1.4457102 4560:-1.6676582 4561:-1.5072063 4562:-1.1770299 4563:-0.34444039 4564:0.12264812 4565:-0.26567063 4566:0.25741001 4567:0.60094682 4568:-0.693737 4569:-0.38214503 4570:0.4684411 4571:-0.19188695 4572:-0.7434566 4573:-0.91464948 4574:-1.1357002 4575:-1.1649159 4576:-1.3005891 4577:-1.6080847 4578:-1.3401495 4579:-0.84906239 4580:-0.19179519 4581:0.49953935 4582:0.35432381 4583:0.49090618 4584:1.0513485 4585:-0.17190348 4586:-0.16080584 4587:0.38801842 4588:-0.4784709 4589:-0.79612336 4590:-0.91573709 4591:0.6843334 4592:0.68434752 4593:0.68422153 4594:0.68384343 4595:0.68266763 4596:0.67889021 4597:0.66017883 4598:0.69022418 4599:0.69144713 4600:0.75308376 4601:0.69995207 4602:0.6609459 4603:0.70287902 4604:0.6886543 4605:0.69190881 4606:0.69963687 4607:0.68397895 4608:0.68417439 4609:0.68379125 4610:0.68285485 4611:0.67951237 4612:0.66567391 4613:0.62732059 4614:0.54162431 4615:0.4090919 4616:-0.1328313 4617:-0.35648691 4618:0.40686189 4619:0.79285865 4620:0.95217558 4621:0.46709884 4622:0.5249994 4623:0.99287489 4624:0.74919945 4625:0.68385819 4626:0.68220057 4627:0.68051444 4628:0.6736739 4629:0.65630585 4630:0.63995107 4631:0.71806912 4632:0.48393716 4633:-0.031956268 4634:-0.48675839 4635:-0.83825036 4636:-0.46697826 4637:-0.0033654053 4638:-1.1486072 4639:-0.3287034 4640:2.5775589 4641:1.2897972 4642:0.68369822 4643:0.6819027 4644:0.67937782 4645:0.67189947 4646:0.66220556 4647:0.69427018 4648:0.69196275 4649:0.52966061 4650:0.27621796 4651:0.013769061 4652:-0.165952 4653:-0.87573263 4654:0.47106162 4655:0.16370152 4656:-0.77165814 4657:1.4615816 4658:1.5497043 4659:0.68344762 4660:0.6813768 4661:0.67986705 4662:0.67684644 4663:0.67545298 4664:0.67491313 4665:0.6143407 4666:0.49849803 4667:0.3377014 4668:0.28578355 4669:0.4763097 4670:0.42937241 4671:0.54236765 4672:1.3143127 4673:0.43424643 4674:0.9515267 4675:1.5382326 4676:0.68252759 4677:0.67887918 4678:0.68094959 4679:0.67864071 4680:0.67431357 4681:0.6464292 4682:0.59200269 4683:0.5215514 4684:0.34655597 4685:0.23720722 4686:0.73869058 4687:1.1538019 4688:0.87438848 4689:1.9183897 4690:1.5532653 4691:0.87659471 4692:1.5825441 4693:0.68173026 4694:0.67361809 4695:0.67383082 4696:0.67292223 4697:0.66240832 4698:0.62898474 4699:0.57199458 4700:0.43535216 4701:0.30069207 4702:0.19218687 4703:0.51695765 4704:2.668978 4705:1.9173053 4706:0.72719495 4707:1.2444448 4708:1.075867 4709:1.0302742 4710:0.67971735 4711:0.6679343 4712:0.66671473 4713:0.65954333 4714:0.64582608 4715:0.60411535 4716:0.48437961 4717:0.33885771 4718:0.16213087 4719:0.18484446 4720:0.22356098 4721:1.718701 4722:1.0712618 4723:0.097431699 4724:-0.56882264 4725:-0.51826961 4726:0.17923616 4727:0.68234455 4728:0.67773277 4729:0.67718361 4730:0.67534942 4731:0.66856526 4732:0.65422663 4733:0.61934311 4734:0.58138126 4735:0.57788849 4736:0.57255637 4737:0.6107539 4738:0.59223175 4739:0.32707474 4740:-0.038251394 4741:-0.23621966 4742:-0.7442933 4743:0.61381545 4744:0.23188885 4745:0.23076747 4746:0.22893545 4747:0.22447683 4748:0.21349599 4749:0.18511162 4750:0.15766311 4751:0.22325416 4752:0.015298145 4753:0.20423024 4754:0.30748391 4755:0.25059043 4756:0.23067758 4757:0.232645 4758:0.23251236 4759:0.23205889 4760:0.2321554 4761:0.22853305 4762:0.21441706 4763:0.1916721 4764:0.1512835 4765:0.052271533 4766:-0.90200911 4767:-0.17522293 4768:0.14629898 4769:-1.0820577 4770:-0.06009009 4771:0.5431026 4772:0.47365972 4773:0.23318417 4774:0.23062124 4775:0.2351965 4776:0.23338524 4777:0.23514031 4778:0.22507328 4779:0.20092206 4780:0.17166773 4781:0.10913617 4782:0.1866379 4783:-1.1384112 4784:-0.74160849 4785:-0.52253371 4786:-1.0705817 4787:-0.38272661 4788:0.26968963 4789:0.37741625 4790:0.2066336 4791:0.225831 4792:0.23806072 4793:0.23607912 4794:0.23749863 4795:0.22369807 4796:0.19861284 4797:0.15536023 4798:0.067323263 4799:0.5909862 4800:-0.95560135 4801:-1.2300278 4802:-0.95146421 4803:-0.92149635 4804:0.23617123 4805:0.42214886 4806:0.32814759 4807:0.20326469 4808:0.22429922 4809:0.23913979 4810:0.24685098 4811:0.23986151 4812:0.22017677 4813:0.18397933 4814:0.15208439 4815:0.1486958 4816:1.0160667 4817:-0.77674245 4818:-1.2192828 4819:-0.74474976 4820:-1.1199285 4821:-0.29284146 4822:0.2743716 4823:0.30094632 4824:0.20154054 4825:0.22384921 4826:0.24343546 4827:0.26696387 4828:0.2405015 4829:0.2153144 4830:0.17317095 4831:0.14200132 4832:0.15117259 4833:0.4336898 4834:-0.66674419 4835:-0.98642973 4836:-0.88484308 4837:-1.1904946 4838:0.18393842 4839:0.32978083 4840:0.22060964 4841:0.18791386 4842:0.21359086 4843:0.23755363 4844:0.26825862 4845:0.23911945 4846:0.2052997 4847:0.14516128 4848:0.10542433 4849:0.095875164 4850:-0.24436771 4851:-0.55053733 4852:-0.99425415 4853:-0.77373918 4854:-0.55658703 4855:0.73415728 4856:0.39968103 4857:0.24877839 4858:0.17411257 4859:0.2041395 4860:0.2347009 4861:0.27731442 4862:0.24449227 4863:0.18531832 4864:0.10969879 4865:0.069072995 4866:-0.088746215 4867:-0.6441258 4868:-0.33868601 4869:-0.61227505 4870:-0.52791064 4871:-0.080339702 4872:2.2640518 4873:0.66530382 4874:0.35997315 4875:0.2030811 4876:0.18334422 4877:0.23448441 4878:0.26489309 4879:0.23578887 4880:0.23995755 4881:0.21604823 4882:0.20348492 4883:0.15834534 4884:0.028857395 4885:0.01718352 4886:-0.33068356 4887:0.016117546 4888:0.26448852 4889:0.44428398 4890:0.31563555 4891:0.20496489 4892:0.18805147 4893:0.2069786 4894:0.23042573 4895:0.22663273 4896:0.22977719 4897:-0.061674946 4898:-0.061722274 4899:-0.061723345 4900:-0.061847989 4901:-0.062275584 4902:-0.063059155 4903:-0.098465114 4904:-0.67230493 4905:1.1887999 4906:-0.82670162 4907:-0.11150107 4908:-0.068130599 4909:-0.063027128 4910:-0.061867127 4911:-0.061725509 4912:-0.061699855 4913:-0.061671685 4914:-0.061785991 4915:-0.062174806 4916:-0.062909712 4917:-0.063574456 4918:-0.067045589 4919:-0.042195712 4920:-0.5228862 4921:-1.4389845 4922:1.2145582 4923:-1.6927042 4924:-0.59605314 4925:-0.12103648 4926:-0.082021912 4927:-0.064458123 4928:-0.062347623 4929:-0.0620714 4930:-0.061733798 4931:-0.061821846 4932:-0.062930172 4933:-0.06388965 4934:-0.066385388 4935:-0.073336649 4936:-0.0037289675 4937:-0.36233521 4938:-1.6969925 4939:-0.012639993 4940:-0.8349878 4941:-0.11546542 4942:0.10112911 4943:-0.065790205 4944:-0.064736372 4945:-0.063108602 4946:-0.062749208 4947:-0.061840955 4948:-0.061911969 4949:-0.063370064 4950:-0.064091106 4951:-0.069326899 4952:-0.086359461 4953:-0.028847052 4954:-0.02158291 4955:-0.78141226 4956:-0.039958899 4957:-0.056813626 4958:0.78552236 4959:0.32733496 4960:0.29977918 4961:-0.053707017 4962:-0.065011115 4963:-0.063487501 4964:-0.061996564 4965:-0.062768519 4966:-0.064857783 4967:-0.06885375 4968:-0.074651138 4969:-0.086811502 4970:-0.077512899 4971:-0.2073676 4972:-1.1380172 4973:-0.65275183 4974:-0.30737346 4975:-0.50907496 4976:-0.0534867 4977:0.1120697 4978:0.078334615 4979:-0.062344769 4980:-0.065333037 4981:-0.062217862 4982:-0.063305896 4983:-0.067147103 4984:-0.068867151 4985:-0.073190429 4986:-0.092114475 4987:-0.054668518 4988:-0.32749958 4989:-1.0416015 4990:-1.0668925 4991:-1.2536667 4992:-0.40738149 4993:-0.11549465 4994:-0.080941506 4995:-0.07528487 4996:-0.071285592 4997:-0.069177419 4998:-0.062789238 4999:-0.065509344 5000:-0.073145327 5001:-0.072466975 5002:-0.079804864 5003:-0.11318029 5004:-0.14271248 5005:-0.62994976 5006:-1.0224385 5007:-1.148234 5008:-1.1541317 5009:-0.41566104 5010:-0.14340841 5011:-0.092242312 5012:-0.083357112 5013:-0.077142152 5014:-0.072501334 5015:-0.06363126 5016:-0.067805339 5017:-0.08615965 5018:-0.087763555 5019:-0.11064804 5020:-0.1733698 5021:-0.31781829 5022:-1.2212948 5023:-1.8563045 5024:-1.8559449 5025:-1.3945219 5026:-0.68735146 5027:-0.22911215 5028:-0.12213598 5029:-0.092120869 5030:-0.074822514 5031:-0.075388932 5032:-0.065810669 5033:-0.061382845 5034:-0.075587801 5035:-0.080512934 5036:-0.095148743 5037:-0.13421699 5038:-0.19009101 5039:-0.47723755 5040:-1.3026318 5041:-1.8179119 5042:-1.6682578 5043:-0.28082002 5044:-0.16073701 5045:-0.082202915 5046:-0.048557084 5047:-0.04843323 5048:-0.059711691 5049:-0.066731552 5050:1.5386376 5051:1.5392662 5052:1.5399058 5053:1.5383306 5054:1.5394054 5055:1.5513657 5056:1.6264105 5057:1.6847434 5058:1.3571694 5059:1.6674396 5060:1.413551 5061:1.4516017 5062:1.5235363 5063:1.521111 5064:1.5210311 5065:1.5274539 5066:1.5350311 5067:1.5410601 5068:1.5460744 5069:1.5547813 5070:1.5398608 5071:1.568867 5072:1.7117061 5073:1.8769685 5074:1.0140656 5075:-0.52876863 5076:-0.25593716 5077:0.090894794 5078:0.64985638 5079:0.96674256 5080:1.1052755 5081:1.2472879 5082:1.4412801 5083:1.5065086 5084:1.5429234 5085:1.5493786 5086:1.5569924 5087:1.5346665 5088:1.5364031 5089:1.6777596 5090:1.7388961 5091:0.57184139 5092:-0.1546923 5093:-1.1805262 5094:-0.43076386 5095:0.37922358 5096:-0.21059393 5097:0.58449401 5098:0.958887 5099:1.3984161 5100:1.4858669 5101:1.5473202 5102:1.5513298 5103:1.5467877 5104:1.5238574 5105:1.5448348 5106:1.5570097 5107:1.4189514 5108:0.77141274 5109:0.28292968 5110:-0.30461996 5111:-0.85236434 5112:0.2727077 5113:0.53182674 5114:0.99119587 5115:1.0324022 5116:1.4441736 5117:1.503049 5118:1.544814 5119:1.5648667 5120:1.5432908 5121:1.5388507 5122:1.537387 5123:1.5068314 5124:1.396108 5125:1.0491239 5126:0.46083499 5127:0.58758939 5128:-0.59505038 5129:-0.33336932 5130:-0.039381264 5131:0.033267096 5132:0.59873836 5133:1.1834779 5134:1.4717476 5135:1.5457087 5136:1.5723365 5137:1.55505 5138:1.5317353 5139:1.4865231 5140:1.4695355 5141:1.3866741 5142:1.1671262 5143:0.44928526 5144:1.0987476 5145:-0.11452144 5146:-0.50666643 5147:-0.7764254 5148:-0.17190281 5149:-0.065515042 5150:0.93093936 5151:1.4896748 5152:1.5383693 5153:1.5500587 5154:1.5436792 5155:1.5038741 5156:1.4659925 5157:1.3651859 5158:1.2598976 5159:1.1098591 5160:0.28046955 5161:0.29011123 5162:0.82048547 5163:-0.37709874 5164:0.018861441 5165:-0.81524805 5166:0.15496285 5167:0.68817667 5168:1.4945326 5169:1.5384383 5170:1.5415227 5171:1.5229897 5172:1.4742091 5173:1.4130814 5174:1.2534681 5175:1.0034386 5176:0.88782124 5177:-0.03469696 5178:-1.1130688 5179:1.0500419 5180:-0.69956894 5181:-0.5292116 5182:-1.2981275 5183:0.24630641 5184:0.70959357 5185:1.1260756 5186:1.5353803 5187:1.5297043 5188:1.5296823 5189:1.5174312 5190:1.4820282 5191:1.4438232 5192:1.3876467 5193:1.3570338 5194:1.156429 5195:0.80507627 5196:0.880201 5197:-0.65804661 5198:-1.2748958 5199:-0.84218753 5200:0.87597168 5201:1.2216176 5202:1.3925592 5203:0.83162893 5204:0.83043878 5205:0.83477367 5206:0.8263066 5207:0.8421694 5208:0.90053838 5209:0.92188595 5210:0.82736143 5211:0.63094561 5212:0.83083122 5213:0.8502316 5214:0.84404266 5215:0.83176307 5216:0.83359187 5217:0.83427965 5218:0.83452051 5219:0.83479163 5220:0.80729806 5221:0.83840311 5222:0.88237919 5223:0.97608252 5224:1.2947041 5225:0.95215276 5226:0.3624562 5227:-0.18154971 5228:0.56354504 5229:0.45332833 5230:0.95829658 5231:0.81344207 5232:0.80302091 5233:0.81351009 5234:0.82405238 5235:0.82709258 5236:0.83345137 5237:0.80133593 5238:1.3292759 5239:1.8830555 5240:1.230924 5241:1.1024474 5242:-0.72163595 5243:-1.3985093 5244:-0.86000057 5245:-0.10820157 5246:0.37230333 5247:0.63644682 5248:0.75214172 5249:0.76961856 5250:0.78860471 5251:0.80898582 5252:0.81789726 5253:0.83155071 5254:0.93612658 5255:1.7598791 5256:1.1568209 5257:0.43759001 5258:0.43681806 5259:-0.31753355 5260:0.44135172 5261:0.092026419 5262:0.24098306 5263:0.53392525 5264:0.61296631 5265:0.74074563 5266:0.74733233 5267:0.77489108 5268:0.7998935 5269:0.81033777 5270:0.82885973 5271:0.8892488 5272:0.98057621 5273:0.7495828 5274:0.72168723 5275:0.51867819 5276:1.4241741 5277:1.6246358 5278:0.56635959 5279:0.47170107 5280:0.55924426 5281:0.60996747 5282:0.68968183 5283:0.72930116 5284:0.76396123 5285:0.78841654 5286:0.8032299 5287:0.82718451 5288:0.72705339 5289:0.50978065 5290:0.22915115 5291:0.18084486 5292:0.27448598 5293:1.7587118 5294:1.4190737 5295:0.78391967 5296:0.58775034 5297:0.55108751 5298:0.52627673 5299:0.65390507 5300:0.73003811 5301:0.75272908 5302:0.78000439 5303:0.79434728 5304:0.82662448 5305:0.7467749 5306:0.6002481 5307:-0.030682237 5308:0.082724155 5309:-0.12186781 5310:0.22133032 5311:1.5437313 5312:0.96729987 5313:0.27348553 5314:0.40164256 5315:0.4456057 5316:0.62293876 5317:0.73476284 5318:0.74067364 5319:0.76933808 5320:0.79234319 5321:0.8330266 5322:0.62375111 5323:0.63417831 5324:0.63630695 5325:0.83294675 5326:0.63868187 5327:-0.42096653 5328:-0.049353313 5329:0.57400778 5330:-0.1531435 5331:0.16870833 5332:0.35208945 5333:0.57702439 5334:0.7118677 5335:0.74641289 5336:0.75862673 5337:0.7889485 5338:0.82387262 5339:0.78931387 5340:0.81845019 5341:0.73046476 5342:0.85085128 5343:0.26093961 5344:-0.69558084 5345:-0.16334909 5346:0.7429576 5347:0.57621093 5348:0.59027027 5349:0.67931449 5350:0.74224914 5351:0.77810422 5352:0.79994241 5353:0.81223421 5354:0.81449828 5355:0.82568695 5356:-2.6567188 5357:-2.658218 5358:-2.6582494 5359:-2.658199 5360:-2.6683672 5361:-2.6790046 5362:-2.6903868 5363:-2.6676273 5364:-2.9531143 5365:-2.7284144 5366:-2.673452 5367:-2.6567764 5368:-2.6583975 5369:-2.6536089 5370:-2.654919 5371:-2.6561788 5372:-2.6569298 5373:-2.6522186 5374:-2.6697914 5375:-2.7009631 5376:-2.7414013 5377:-2.8263167 5378:-2.7879387 5379:-2.6853434 5380:-2.5594745 5381:-2.9446007 5382:-2.685625 5383:-2.7104881 5384:-2.6579557 5385:-2.6141775 5386:-2.599164 5387:-2.6202578 5388:-2.6394565 5389:-2.6552304 5390:-2.6389883 5391:-2.5262198 5392:-2.6279154 5393:-2.7158017 5394:-2.8780539 5395:-2.6551422 5396:-2.0957834 5397:-2.7370038 5398:-1.4002555 5399:-2.9830301 5400:-2.7174643 5401:-2.5377185 5402:-2.5012932 5403:-2.499213 5404:-2.5620384 5405:-2.5946481 5406:-2.6441774 5407:-2.6163649 5408:-2.4934915 5409:-2.5494262 5410:-2.6459403 5411:-2.9624333 5412:-2.1536299 5413:-0.60791054 5414:-1.0525838 5415:1.2122613 5416:-2.5106861 5417:-2.3979675 5418:-2.3352914 5419:-2.4269102 5420:-2.4365717 5421:-2.483457 5422:-2.5450222 5423:-2.633482 5424:-2.6285485 5425:-2.383348 5426:-2.4877157 5427:-2.5667138 5428:-2.9239082 5429:-0.31558046 5430:-0.14591353 5431:-0.039513057 5432:2.0474352 5433:-2.3364436 5434:-2.3326823 5435:-2.3385442 5436:-2.4649218 5437:-2.4165115 5438:-2.4293948 5439:-2.4900899 5440:-2.6183239 5441:-2.6268116 5442:-2.5674196 5443:-2.9419349 5444:-3.0524048 5445:-2.0833313 5446:-0.40608213 5447:-2.002596 5448:-0.0095006 5449:1.5931621 5450:-2.773149 5451:-2.3758036 5452:-2.4571207 5453:-2.4587254 5454:-2.4041725 5455:-2.4236782 5456:-2.4226223 5457:-2.5971353 5458:-2.5772887 5459:-2.0948263 5460:-2.8782644 5461:-3.3891376 5462:-2.3527618 5463:-0.6980822 5464:-1.4928778 5465:-1.0844798 5466:-0.60868401 5467:-3.1646923 5468:-2.6992846 5469:-2.4812036 5470:-2.4052636 5471:-2.3712109 5472:-2.3612374 5473:-2.3477574 5474:-2.568725 5475:-2.4404562 5476:-1.1847808 5477:-1.8531701 5478:-1.6918318 5479:-1.3751777 5480:-1.3556643 5481:-2.1752724 5482:-1.4079738 5483:-2.437376 5484:-2.3525127 5485:-2.8627 5486:-2.4329723 5487:-2.3961918 5488:-2.2704287 5489:-2.2552678 5490:-2.079546 5491:-2.4995451 5492:-2.658001 5493:-2.5586782 5494:-2.4729427 5495:-2.4766336 5496:-2.0541604 5497:-1.975617 5498:-3.3305026 5499:-2.5614212 5500:-3.8331047 5501:-2.9245968 5502:-2.7351514 5503:-2.6232963 5504:-2.6043593 5505:-2.5469902 5506:-2.5372437 5507:-2.4533453 5508:-2.6027097 5509:-0.03984459 5510:-0.039903179 5511:-0.040119677 5512:-0.039380047 5513:-0.037951497 5514:-0.0098951798 5515:0.13542961 5516:0.0006158704 5517:-0.22308591 5518:-0.38024114 5519:-0.20795633 5520:-0.10160931 5521:-0.063293572 5522:-0.045123683 5523:-0.040991461 5524:-0.041019917 5525:-0.040310972 5526:-0.040218631 5527:-0.041218255 5528:-0.043111084 5529:-0.045527503 5530:-0.03969813 5531:0.038024694 5532:0.2609921 5533:-0.88875204 5534:-1.0042927 5535:-1.1804015 5536:-1.9791824 5537:-0.9604855 5538:-0.28896953 5539:-0.11245135 5540:-0.061640448 5541:-0.057026893 5542:-0.045473177 5543:-0.040443927 5544:-0.042541071 5545:-0.045594866 5546:-0.051550279 5547:-0.050262863 5548:-0.019465584 5549:-0.20294173 5550:-1.1903328 5551:-1.5696627 5552:-0.60344869 5553:-1.0026994 5554:-0.19966716 5555:-0.39112802 5556:-0.13191489 5557:-0.083977995 5558:-0.064162366 5559:-0.04757664 5560:-0.040491143 5561:-0.043735534 5562:-0.049266976 5563:-0.05787783 5564:-0.059975923 5565:-0.098397154 5566:-0.22790006 5567:-0.54576255 5568:-0.85106798 5569:-1.7268953 5570:-0.57555297 5571:0.36193352 5572:-0.38621519 5573:-0.13205717 5574:-0.097682354 5575:-0.075118577 5576:-0.053168771 5577:-0.040841581 5578:-0.044067424 5579:-0.049191519 5580:-0.055559056 5581:-0.061369698 5582:-0.10794693 5583:-0.21432747 5584:-0.41122275 5585:0.51034743 5586:-1.5213629 5587:-0.60689269 5588:-0.8874141 5589:-0.2772202 5590:-0.18303694 5591:-0.11251199 5592:-0.091310341 5593:-0.055048472 5594:-0.041238548 5595:-0.04527754 5596:-0.05034509 5597:-0.05529297 5598:-0.060813194 5599:-0.078768624 5600:-0.18469351 5601:-0.3650103 5602:0.83163436 5603:-0.32953828 5604:-1.6225973 5605:-1.1771343 5606:0.022314518 5607:-0.060327985 5608:-0.10625152 5609:-0.10481765 5610:-0.05884381 5611:-0.042109908 5612:-0.048301166 5613:-0.054061103 5614:-0.059777922 5615:-0.050924402 5616:-0.087531666 5617:-0.19099042 5618:-0.37277803 5619:-0.57993561 5620:1.2986678 5621:-1.2969016 5622:-0.55693272 5623:0.69424039 5624:-0.11771898 5625:-0.1078088 5626:-0.12154739 5627:-0.06558919 5628:-0.045716863 5629:-0.055891391 5630:-0.057942716 5631:-0.067227795 5632:-0.080839728 5633:-0.14727236 5634:-0.25806035 5635:-0.49822296 5636:-1.245371 5637:0.49999237 5638:-1.3988683 5639:-0.90792868 5640:0.87276847 5641:-0.029902113 5642:-0.18828347 5643:-0.2115925 5644:-0.074753373 5645:-0.043171686 5646:-0.047332293 5647:-0.048363292 5648:-0.053780401 5649:-0.064163152 5650:-0.092989857 5651:-0.13986097 5652:-0.093416957 5653:0.024488643 5654:-0.80863416 5655:-1.5801853 5656:-1.1033731 5657:0.028410642 5658:0.072239292 5659:-0.16772177 5660:-0.18392121 5661:-0.070554223 5662:0.90885334 5663:0.91357076 5664:0.92348104 5665:0.95438118 5666:0.90234266 5667:0.93418945 5668:0.89704249 5669:0.87191993 5670:0.81087105 5671:0.8587463 5672:0.88811677 5673:0.90290537 5674:0.90453389 5675:0.9060003 5676:0.90678351 5677:0.90719199 5678:0.9074894 5679:0.90357712 5680:0.89637594 5681:1.0508509 5682:1.2497357 5683:0.83628641 5684:1.3612191 5685:0.88496222 5686:0.099890755 5687:0.18991009 5688:0.39194878 5689:0.65184896 5690:0.84002073 5691:0.8814921 5692:0.88931043 5693:0.89794946 5694:0.90361135 5695:0.90736263 5696:0.88627906 5697:0.81590119 5698:1.1614451 5699:1.690907 5700:0.64026383 5701:1.2270263 5702:0.77164856 5703:-0.27831263 5704:-0.35089826 5705:0.476218 5706:0.62241704 5707:0.8219811 5708:0.88216709 5709:0.90100522 5710:0.89275651 5711:0.90286342 5712:0.90967156 5713:0.89683624 5714:0.97436008 5715:1.0084169 5716:1.0912097 5717:0.35009487 5718:-0.16860487 5719:0.41849543 5720:-0.16888156 5721:0.38101161 5722:0.46145774 5723:0.6229999 5724:0.86478714 5725:0.90022212 5726:0.93428464 5727:0.89089284 5728:0.90226671 5729:0.90939793 5730:0.89924568 5731:0.87379169 5732:0.89002982 5733:0.41236876 5734:-0.19821894 5735:-0.81456799 5736:-0.023897799 5737:-0.8375987 5738:0.1226515 5739:0.82824283 5740:0.84328338 5741:0.86203942 5742:0.90901118 5743:0.95588724 5744:0.90115298 5745:0.90539345 5746:0.90896321 5747:0.89581346 5748:0.8740924 5749:1.0860566 5750:-0.077726082 5751:-0.1545454 5752:-1.0608254 5753:-0.53298322 5754:-0.67524063 5755:-0.14649266 5756:0.62069919 5757:0.78858526 5758:0.89660913 5759:0.88907257 5760:0.95852177 5761:0.92035041 5762:0.94456644 5763:0.91575858 5764:0.8696138 5765:0.9742832 5766:1.0750929 5767:-0.039430337 5768:-0.64182136 5769:-0.84789328 5770:-0.015690414 5771:0.52549952 5772:0.019336897 5773:0.18497348 5774:0.71317134 5775:0.8409147 5776:0.86726641 5777:0.95455953 5778:0.98340473 5779:1.0140266 5780:0.9248629 5781:0.86299021 5782:1.0153201 5783:1.5532338 5784:-0.39422014 5785:-1.0584046 5786:-0.58115002 5787:0.98670011 5788:0.26440917 5789:-0.77086091 5790:-0.47871906 5791:0.40609113 5792:0.75679352 5793:0.83585901 5794:0.94845738 5795:1.2057813 5796:1.0886264 5797:0.9344645 5798:0.92484065 5799:0.95259932 5800:0.9818313 5801:0.73843239 5802:0.53119761 5803:0.5658906 5804:0.93063893 5805:0.64917525 5806:0.43708282 5807:0.62581392 5808:0.73696941 5809:0.82351751 5810:0.87807517 5811:0.92464594 5812:1.0356812 5813:0.96590796 5814:0.92435223 5815:1.0336709 5816:1.0277848 5817:1.0270478 5818:1.0092394 5819:1.0030044 5820:1.0573009 5821:1.0853504 5822:0.99946213 5823:0.86426578 5824:0.99364389 5825:1.0238496 5826:1.0294566 5827:1.032902 5828:1.0336563 5829:1.0342405 5830:1.0343027 5831:1.0344121 5832:0.98872381 5833:0.75838692 5834:0.67098578 5835:0.40644233 5836:0.56563901 5837:0.58948409 5838:1.0336323 5839:0.3595122 5840:0.33812919 5841:0.58147993 5842:0.83891994 5843:0.95934893 5844:1.0058233 5845:1.0211476 5846:1.0304807 5847:1.0304928 5848:1.0335206 5849:0.91924512 5850:0.068750544 5851:-0.32411441 5852:-0.31916371 5853:-0.12233549 5854:-0.17254458 5855:-0.3217195 5856:-0.20558123 5857:0.063232847 5858:0.53513116 5859:0.82345081 5860:0.93951049 5861:0.99209323 5862:1.0144104 5863:1.0243295 5864:1.0256702 5865:1.0320352 5866:0.69166947 5867:-0.24030785 5868:-0.34674756 5869:0.085028642 5870:0.33668758 5871:1.650823 5872:-0.032592098 5873:0.33085095 5874:0.59534129 5875:0.8122625 5876:0.96391259 5877:0.95248756 5878:0.9810511 5879:1.0082037 5880:1.0173816 5881:1.0200148 5882:1.0308277 5883:0.54443292 5884:-0.27031453 5885:-0.11113505 5886:-0.028133932 5887:2.0102286 5888:2.2227311 5889:0.44475298 5890:0.83117312 5891:0.80238079 5892:0.8703862 5893:0.97112493 5894:0.96632613 5895:0.97808069 5896:1.0045643 5897:1.0139451 5898:1.0169443 5899:1.0290092 5900:0.10167974 5901:-0.12049652 5902:-0.069974665 5903:-0.0061138689 5904:2.3687599 5905:1.1748398 5906:0.5099168 5907:0.897637 5908:0.78299523 5909:0.84096614 5910:0.94581841 5911:0.97517534 5912:0.98619234 5913:1.0014802 5914:1.0116892 5915:1.0128355 5916:1.0284749 5917:-0.10414515 5918:0.23607203 5919:0.12459164 5920:-0.26351712 5921:0.91445941 5922:0.51463256 5923:0.71001081 5924:0.65394669 5925:0.65212654 5926:0.77480186 5927:0.91189944 5928:0.98203035 5929:0.99283374 5930:0.99650034 5931:1.0041397 5932:1.0049699 5933:1.0274391 5934:-0.25975608 5935:0.47264431 5936:0.90588013 5937:0.044455951 5938:-0.22294864 5939:-0.053589871 5940:0.38193649 5941:0.50684769 5942:0.62756923 5943:0.73346091 5944:0.88316038 5945:0.9629304 5946:0.98711048 5947:0.99058194 5948:0.99571846 5949:0.99309624 5950:1.0230372 5951:0.83192013 5952:0.53801435 5953:1.0257439 5954:0.1645708 5955:-0.0083828025 5956:0.51475055 5957:0.87186136 5958:0.92414329 5959:0.93055273 5960:0.9561681 5961:0.9923777 5962:1.0111901 5963:1.0191856 5964:1.0196885 5965:1.0192075 5966:1.0182415 5967:1.0287011 5968:-1.1330122 5969:-1.1338091 5970:-1.1347598 5971:-1.136777 5972:-1.1383538 5973:-1.139341 5974:-1.1318614 5975:-1.1513423 5976:-1.2010957 5977:-1.1651791 5978:-1.1418666 5979:-1.1426637 5980:-1.1374433 5981:-1.1365827 5982:-1.134329 5983:-1.1318782 5984:-1.1321182 5985:-1.1396933 5986:-1.1586628 5987:-1.1755025 5988:-1.1945066 5989:-1.218481 5990:-1.2236251 5991:-0.86608349 5992:-0.99187565 5993:-1.0141469 5994:-1.2447562 5995:-1.0977905 5996:-1.2570948 5997:-1.2164396 5998:-1.1982948 5999:-1.1736882 6000:-1.1243897 6001:-1.1306503 6002:-1.1480416 6003:-1.1965351 6004:-1.2283465 6005:-1.2397213 6006:-1.300394 6007:-1.2793171 6008:0.25156035 6009:1.0475496 6010:-1.6764095 6011:-1.0712718 6012:-0.75509911 6013:-1.2780852 6014:-1.3509932 6015:-1.3117718 6016:-1.2227095 6017:-1.1537473 6018:-1.1423871 6019:-1.1545825 6020:-1.2290914 6021:-1.2606655 6022:-1.2579973 6023:-1.3422388 6024:-1.3820105 6025:0.57879497 6026:2.8763894 6027:-0.73508634 6028:-0.8789411 6029:-0.044566408 6030:-1.2797046 6031:-1.4380328 6032:-1.3689889 6033:-1.2651659 6034:-1.2142878 6035:-1.1586664 6036:-1.1665913 6037:-1.2571377 6038:-1.274045 6039:-1.2444188 6040:-1.2923532 6041:-1.6155153 6042:-0.37937563 6043:3.3525065 6044:-1.5002544 6045:-0.67346957 6046:0.54321096 6047:-1.4383851 6048:-1.4244792 6049:-1.4245169 6050:-1.3560356 6051:-1.3553642 6052:-1.188281 6053:-1.1735642 6054:-1.2845004 6055:-1.2786596 6056:-1.2574666 6057:-1.1750204 6058:-1.6680629 6059:-1.6245997 6060:2.3724114 6061:-2.3366637 6062:-1.881314 6063:-1.6047284 6064:-1.2095307 6065:-1.382034 6066:-1.554513 6067:-1.5540574 6068:-1.4522226 6069:-1.1836998 6070:-1.150813 6071:-1.2673549 6072:-1.329911 6073:-1.2656106 6074:-1.2967933 6075:-1.6331621 6076:-2.6878207 6077:-1.7714849 6078:-3.0705828 6079:-2.6464684 6080:-1.6449144 6081:-0.71138875 6082:-1.3818254 6083:-1.5999057 6084:-1.7081622 6085:-1.4787732 6086:-1.1461382 6087:-1.1127279 6088:-1.1244511 6089:-1.2333334 6090:-1.2820303 6091:-1.4280014 6092:-1.821426 6093:-1.5273311 6094:-2.7222048 6095:-3.1098702 6096:-2.1282938 6097:0.0040735575 6098:0.44655987 6099:-0.99109606 6100:-1.6489837 6101:-1.8695067 6102:-1.4752888 6103:-1.17062 6104:-1.1121201 6105:-1.0435342 6106:-1.1237494 6107:-1.1919944 6108:-1.2322955 6109:-1.1767203 6110:-1.3359466 6111:-2.2698626 6112:-2.9358517 6113:-2.5287698 6114:-0.59652652 6115:-0.083617976 6116:-0.9563057 6117:-1.1231981 6118:-1.3341216 6119:-1.2700051 6120:-1.1708535 6121:-0.32500642 6122:-0.32505166 6123:-0.32511357 6124:-0.32745961 6125:-0.33260818 6126:-0.3681533 6127:-0.60717529 6128:-1.1641233 6129:2.0816819 6130:-0.16624614 6131:-0.34158014 6132:-0.32859083 6133:-0.3256055 6134:-0.32517371 6135:-0.32502914 6136:-0.32481596 6137:-0.32497278 6138:-0.32591756 6139:-0.32663111 6140:-0.32803392 6141:-0.34594437 6142:-0.38266734 6143:-1.192619 6144:-1.954656 6145:-1.5045272 6146:0.16484601 6147:0.20060556 6148:0.38496275 6149:-0.3282601 6150:-0.33309415 6151:-0.32718618 6152:-0.32583817 6153:-0.32501766 6154:-0.32507602 6155:-0.32642016 6156:-0.33139509 6157:-0.33282375 6158:-0.35278077 6159:-0.18807657 6160:-0.60328179 6161:-1.8663652 6162:-0.778375 6163:-1.6573427 6164:-1.4489553 6165:0.096498543 6166:0.44898643 6167:-0.32205035 6168:-0.32877582 6169:-0.32654525 6170:-0.32553475 6171:-0.32498982 6172:-0.32852688 6173:-0.33554298 6174:-0.33825896 6175:-0.35946777 6176:-0.22213607 6177:-0.54730636 6178:-1.4286462 6179:-0.16624456 6180:-0.52447578 6181:-1.8792726 6182:-0.43648076 6183:0.0021572117 6184:-0.13154397 