svm_type c_svc
kernel_type linear
nr_class 5
total_sv 29
rho 0.141283 -1.42535 -0.813127 -0.510086 -0.868666 -0.611273 -0.430922 -0.535785 0.23808 0.249468
label 3 2 4 6 9
probA -3.81033 -2.63449 -1.80636 1.18311 -2.37319 -0.962635 2.71497 -4.74489 0.632408 1.01296
probB 1.10628 -0.0409129 0.0757438 -3.01804 -0.186385 0.0222906 -2.87444 1.41082 -2.34804 -1.22995
nr_sv 11 5 9 3 1
SV
0.000133192781024633 0 2.056223029221483e-05 7.282121712544978e-05 1:7 2:13 3:11 4:3 5:10 6:8 7:1 9:10 11:2 12:2 13:10 14:11 15:2 16:7 18:2 19:11 20:6 21:8 22:7 23:10 24:1 25:7 26:1 27:11 28:13 29:2 30:2 33:3 34:4 35:8 36:5 37:13 38:41 39:11 40:12 41:3 42:3 43:8 44:2 45:18 46:4 47:14 48:8 49:7 50:16 51:3 52:4 53:10 54:13 56:3 57:1 58:17 59:6 60:3 61:16 62:9 63:10 64:13 65:17 66:2 68:4 69:6 70:11 71:19 72:2 73:9 74:4 75:4 76:5 77:15 78:6 79:2 81:22 82:12 83:5 84:4 85:12 86:1 87:6 88:2 89:5 90:1 92:6 93:4 94:21 95:15 96:4 97:3 98:7 99:8 100:14 101:5 102:10 103:4 104:3 105:3 106:14 107:23 108:7 109:7 110:11 111:6 112:6 113:5 114:4 115:11 116:27 117:1 118:26 119:40 120:2 121:4 122:5 123:16 124:2 125:8 126:6 127:5 128:13 129:10 130:6 131:6 132:9 133:7 134:3 135:7 136:6 137:8 138:4 139:7 140:1 141:2 142:3 143:9 144:7 146:3 147:10 148:1 149:3 150:22 151:3 152:5 153:12 154:2 155:19 156:9 157:2 158:17 159:2 160:5 161:14 162:11 163:2 167:4 168:3 169:8 170:11 171:6 172:3 173:4 174:39 176:4 177:7 178:7 179:10 180:2 181:3 182:3 183:12 184:7 185:9 186:12 187:8 188:4 189:2 190:4 191:14 192:1 193:6 194:7 195:9 196:5 197:10 198:3 199:3 200:10 201:11 202:9 203:3 204:2 205:10 206:3 207:18 208:5 209:25 210:10 211:2 212:13 213:11 214:21 215:7 216:4 217:15 218:12 219:10 220:6 221:1 222:5 223:5 224:6 225:6 227:8 229:3 230:10 231:32 232:9 233:5 234:11 235:3 236:3 237:3 238:2 239:29 240:4 241:3 243:17 244:6 245:4 246:3 247:3 248:7 249:6 250:8 252:8 253:4 254:16 255:7 256:11 257:16 258:2 259:4 260:4 261:14 262:7 263:12 264:3 265:5 266:6 267:9 268:6 269:15 270:1 271:5 272:20 273:1 274:6 276:9 277:3 278:26 280:19 281:15 282:2 283:3 284:2 285:10 286:1 287:16 288:4 289:3 291:6 292:6 293:6 294:1 295:1 296:2 297:4 298:1 299:11 300:8 301:40 302:9 304:9 305:23 306:4 307:12 308:5 309:18 310:1 311:6 312:4 313:3 314:10 316:17 317:4 318:4 319:3 320:8 321:11 322:9 323:7 324:10 325:17 326:7 327:1 328:4 329:9 330:1 331:5 332:4 333:7 334:5 335:2 337:10 338:6 339:7 340:13 341:9 342:7 343:2 344:3 345:16 346:4 347:14 348:11 349:1 350:13 351:9 352:3 353:8 354:2 355:4 356:2 357:10 358:2 359:5 360:22 361:3 362:12 363:8 364:3 366:8 367:5 368:26 369:7 370:27 371:3 372:4 373:29 374:4 375:3 376:10 377:8 378:2 379:15 380:3 381:7 382:9 383:2 384:2 385:1 386:13 387:1 389:3 390:18 391:23 392:4 393:1 394:4 395:3 396:18 397:4 398:20 399:2 400:4 
0 0 8.596313717397721e-06 0 1:6 2:15 3:1 4:2 5:7 6:5 7:2 8:1 9:14 11:4 12:1 13:2 14:9 15:2 16:7 17:2 18:15 19:5 21:5 22:5 23:13 24:2 25:2 27:12 28:5 29:3 30:8 31:10 33:4 34:7 35:15 37:3 38:11 39:5 40:26 41:7 43:3 44:2 45:3 46:9 47:22 48:13 49:6 50:1 51:10 52:12 53:3 54:12 55:29 56:19 57:10 58:13 59:1 60:4 61:7 62:29 63:10 64:5 65:1 67:16 68:14 69:44 70:11 71:22 72:1 73:1 74:1 75:4 76:4 77:11 78:27 79:1 80:3 81:6 83:35 84:4 85:4 86:3 87:3 88:3 89:29 90:13 91:23 92:3 93:4 94:7 95:3 96:19 97:9 98:1 99:14 100:6 101:1 102:10 103:4 104:2 106:1 107:13 108:2 110:7 112:7 114:11 115:11 116:6 117:7 118:23 119:34 121:8 123:17 124:1 125:1 126:17 127:7 128:2 129:3 130:15 131:11 133:1 134:16 135:3 136:3 137:5 139:2 141:1 142:7 143:15 144:1 147:5 148:4 149:26 150:10 151:1 152:14 153:12 155:6 156:6 157:4 158:11 160:35 161:8 162:17 163:2 166:2 167:10 168:4 169:9 170:4 171:17 174:24 175:2 176:18 177:10 178:8 179:8 181:19 182:4 183:5 185:4 186:3 187:8 188:7 189:11 190:1 191:11 192:11 193:5 195:15 196:3 197:32 198:4 199:1 200:7 201:6 202:10 203:6 204:6 205:10 206:5 207:5 209:18 210:4 211:1 213:47 214:29 215:10 216:1 217:5 218:2 219:6 220:5 222:7 223:3 224:1 225:25 226:2 227:4 228:8 229:7 231:13 232:3 233:20 234:18 235:17 236:9 238:5 239:2 240:1 241:4 243:9 244:8 245:1 246:2 247:5 248:4 249:21 250:6 251:10 253:6 254:3 255:10 256:6 257:24 258:1 259:1 260:2 261:8 262:4 263:4 264:9 265:9 266:22 267:11 268:3 269:4 270:5 271:7 272:9 274:3 275:1 276:11 277:1 278:9 279:5 280:5 281:1 283:1 284:2 285:33 286:7 287:15 288:13 289:15 290:11 291:2 292:5 293:5 294:4 295:4 296:3 297:2 299:16 301:10 302:4 303:12 305:18 306:11 307:6 308:32 309:11 311:13 312:30 313:3 314:27 316:10 317:2 318:26 320:7 321:2 322:3 323:12 324:18 325:6 326:8 327:6 328:21 329:10 331:6 332:5 334:9 335:13 336:4 337:6 338:18 339:5 341:3 342:2 343:7 344:10 345:13 346:13 347:10 348:8 349:4 350:3 351:12 352:32 354:4 355:3 357:1 358:4 359:15 360:8 361:4 362:3 363:3 365:2 367:5 368:12 370:9 371:2 372:6 373:10 374:7 376:3 377:7 378:2 379:10 380:1 381:6 382:10 383:6 385:4 386:4 387:7 389:3 390:17 391:20 392:10 393:1 394:9 395:13 396:11 397:6 398:5 399:2 400:15 
3.457003539080087e-05 0 0 2.597340305339032e-05 1:9 2:16 3:7 4:4 5:8 6:3 7:6 8:1 9:5 11:3 13:3 14:22 15:1 16:9 17:5 18:22 19:19 20:14 21:10 22:5 23:12 25:3 27:5 28:6 29:5 30:4 31:5 32:3 33:4 34:1 35:15 37:6 38:35 39:4 40:9 41:4 42:3 43:5 44:10 45:14 46:10 47:14 48:20 50:21 51:4 52:12 53:4 54:16 55:4 56:7 57:5 58:14 59:4 60:3 61:5 62:40 63:5 64:5 65:14 67:6 68:3 69:23 70:18 71:24 74:7 75:4 76:5 77:10 78:15 79:2 80:3 81:6 82:7 83:10 84:2 85:1 86:4 87:6 88:8 89:12 90:13 91:2 92:6 93:9 94:7 95:9 96:2 97:1 98:4 99:10 100:4 101:3 102:7 103:2 105:6 106:13 107:19 108:7 109:5 110:26 111:6 112:7 113:3 114:13 115:13 116:12 117:6 118:20 119:35 120:6 121:4 122:2 123:21 124:1 125:10 126:6 127:2 128:9 129:14 130:9 131:3 132:4 133:3 134:4 135:4 136:5 137:17 138:3 139:7 141:1 142:2 143:2 144:2 146:4 147:9 148:5 149:5 150:11 151:3 152:7 153:10 154:2 155:9 156:2 157:3 158:12 159:1 160:14 161:7 162:10 163:4 165:1 166:2 167:4 168:5 169:8 170:5 171:7 172:1 173:8 174:17 175:3 176:6 177:7 178:9 179:7 180:3 181:11 182:8 183:18 184:6 185:6 186:16 187:4 188:3 189:6 190:2 191:18 192:7 193:3 194:4 195:13 196:9 197:25 198:3 199:5 200:2 201:9 202:8 203:5 204:5 205:8 206:12 207:14 208:2 209:30 210:6 211:7 212:17 213:15 214:19 215:2 216:2 217:9 218:10 219:3 220:1 221:1 222:9 223:2 224:4 225:22 227:5 228:4 229:9 230:14 231:10 232:4 233:14 234:3 235:6 236:4 237:5 238:2 239:14 240:3 241:5 243:14 244:8 245:2 246:5 247:8 248:2 249:8 250:2 251:11 252:3 253:3 254:9 255:10 256:13 257:30 259:1 260:2 261:17 262:5 263:1 264:10 265:1 266:17 267:3 268:6 269:16 271:5 272:15 273:5 274:3 275:2 276:9 277:1 278:23 279:1 280:10 281:12 282:2 283:4 284:2 285:7 286:6 287:6 288:13 289:15 290:6 291:4 293:5 294:5 296:9 299:10 300:2 301:17 302:5 303:10 304:2 305:10 306:9 307:3 308:11 309:14 310:2 311:10 312:8 313:9 314:12 315:1 316:21 317:4 318:9 319:3 320:9 321:6 322:7 323:6 324:37 325:2 326:9 328:12 329:6 330:3 331:12 332:6 333:4 334:14 335:12 337:7 338:6 339:1 340:12 341:9 342:4 343:2 344:6 345:12 346:11 347:10 348:6 349:3 350:2 351:9 352:8 353:3 354:4 355:4 356:1 357:6 358:1 359:4 360:14 361:2 362:10 363:10 364:7 367:2 368:26 369:14 370:17 372:20 373:17 374:6 375:6 376:11 377:18 378:1 379:13 380:2 381:16 382:6 383:3 384:1 385:5 386:8 387:2 388:15 389:3 390:11 391:18 392:15 393:2 394:4 395:10 396:8 397:5 398:9 399:5 400:7 
2.295090593517161e-05 0 3.337881059072749e-06 0 1:4 2:8 3:2 4:5 5:8 6:2 7:2 9:12 13:14 14:22 15:2 16:9 17:5 18:12 19:18 20:3 21:1 22:12 23:9 24:1 25:2 26:4 27:2 28:7 29:1 30:3 31:4 32:6 33:4 34:3 35:8 36:4 37:5 38:33 39:6 40:18 41:4 42:1 43:9 44:8 45:11 46:4 47:36 48:8 49:3 50:10 51:2 52:10 53:9 54:4 55:4 56:5 57:3 58:12 59:3 60:2 61:13 62:37 63:2 64:23 65:10 67:10 68:2 69:20 70:19 71:17 72:1 73:1 74:3 75:3 76:5 77:10 78:17 79:3 80:5 81:15 82:2 83:27 84:7 85:11 86:7 87:3 88:3 89:38 90:4 91:3 92:6 93:2 94:10 95:9 96:5 97:8 99:5 100:7 101:8 102:5 103:5 104:2 105:2 106:7 107:11 108:4 109:1 110:14 111:3 112:4 113:3 114:4 115:22 116:14 117:3 118:22 119:35 120:1 121:4 122:2 123:7 124:1 125:7 126:13 127:3 128:7 129:10 130:13 131:9 132:8 133:1 134:17 135:2 136:6 137:6 138:1 139:5 142:7 143:14 144:4 145:1 146:6 147:4 148:3 149:18 150:12 151:4 152:10 153:8 154:5 155:13 156:6 157:2 158:8 159:3 160:4 161:12 162:1 163:7 166:1 167:6 168:5 169:4 170:6 171:9 172:1 173:1 174:26 175:6 176:4 177:4 178:1 179:9 180:3 181:3 182:3 183:13 184:7 185:6 186:18 187:10 188:1 189:9 191:15 192:4 193:15 194:1 195:5 196:6 197:31 198:5 199:6 200:10 201:3 202:13 203:5 204:2 205:16 206:5 207:14 208:1 209:30 210:3 211:3 212:4 213:34 214:30 215:8 216:4 217:9 218:9 219:17 220:5 221:1 222:13 224:2 225:13 226:2 227:8 228:12 229:13 230:4 231:5 232:2 233:15 234:17 235:7 236:3 237:3 239:15 240:2 241:9 243:12 244:1 245:1 246:3 247:1 248:8 249:2 250:7 251:15 252:6 253:4 254:13 255:3 256:16 257:33 258:1 259:1 260:4 261:8 262:7 263:11 264:8 265:6 266:16 267:1 268:1 269:16 271:3 272:20 273:2 274:9 275:5 276:23 277:2 278:9 279:3 280:14 281:10 282:6 283:4 284:2 285:8 286:7 287:24 288:17 289:12 290:9 291:10 292:4 293:11 294:12 295:1 296:2 297:6 298:1 299:17 300:3 301:17 302:4 303:6 304:1 305:11 306:3 307:3 308:4 309:2 311:5 312:13 313:6 314:34 316:4 317:4 318:19 320:26 321:4 322:7 323:5 324:10 325:14 326:8 327:2 328:14 329:2 330:5 331:4 332:5 333:5 334:1 335:3 336:2 337:1 338:10 339:9 340:14 341:3 342:2 343:3 344:5 345:7 346:11 347:18 348:7 349:4 350:5 351:7 352:8 353:5 354:6 355:5 356:5 357:2 359:6 360:8 361:9 362:11 363:5 366:2 367:7 368:13 369:9 370:9 371:4 372:4 373:17 374:17 375:1 376:2 377:10 378:5 379:13 380:4 381:14 382:14 383:16 384:1 385:2 386:5 387:5 388:6 389:3 390:11 391:19 392:6 394:7 395:1 396:8 397:3 398:4 399:8 400:4 
9.455665847994297e-05 0 0 0 1:3 2:21 3:9 4:2 5:11 6:7 8:1 9:11 11:4 12:5 13:10 14:22 15:1 16:6 17:4 18:11 19:9 20:3 21:6 22:3 23:17 25:8 26:3 27:5 28:6 29:2 30:9 31:4 32:3 33:2 34:4 35:11 36:3 37:4 38:31 39:5 40:7 41:1 42:2 43:13 44:7 45:9 46:7 47:22 48:5 49:2 50:5 51:4 52:4 53:8 54:13 55:6 56:3 57:14 58:13 59:2 60:1 61:10 62:26 63:5 64:9 65:5 67:5 69:7 70:14 71:24 72:1 73:1 74:8 75:3 76:7 77:9 78:5 79:2 81:22 82:1 83:7 84:5 85:9 86:1 87:9 88:4 89:6 90:7 91:7 92:7 93:4 94:11 95:8 96:3 97:8 98:3 99:10 100:10 101:6 102:12 103:2 104:1 105:3 106:14 107:18 108:8 109:1 110:16 111:7 112:7 113:13 114:7 115:18 116:12 117:6 118:27 119:51 120:4 121:3 122:4 123:8 124:7 125:7 126:7 127:6 128:8 129:5 130:3 131:7 132:3 133:4 134:7 135:3 136:10 137:8 138:2 139:12 140:1 141:2 142:4 143:9 144:2 145:1 146:3 147:7 148:3 149:9 150:17 151:6 152:9 153:10 154:2 155:13 156:3 158:7 159:3 160:10 161:13 162:4 165:1 166:2 167:4 168:1 169:1 170:8 171:17 172:3 173:3 174:20 175:1 176:3 177:5 178:4 179:7 180:4 181:5 182:2 183:9 184:8 185:4 186:11 187:13 188:2 189:2 190:3 191:7 192:5 193:6 194:4 195:8 196:7 197:14 198:8 199:8 200:7 201:10 202:14 203:7 204:12 205:10 206:9 207:9 208:2 209:29 210:2 211:8 212:9 213:28 214:40 215:3 216:6 217:6 218:4 219:7 220:3 221:2 222:9 223:6 224:2 225:13 226:2 227:9 228:2 229:2 230:5 231:13 232:5 233:12 234:10 235:9 236:7 237:7 238:4 239:11 240:4 241:8 243:9 244:5 245:3 246:9 247:11 248:5 250:7 251:9 252:2 253:5 254:4 255:10 256:16 257:32 258:3 260:1 261:14 262:11 263:10 264:12 265:6 266:17 267:9 268:9 269:11 270:1 271:4 272:12 273:1 274:8 276:12 277:2 278:25 279:6 280:14 281:7 282:2 283:1 284:7 285:6 286:8 287:16 288:4 289:10 290:4 291:12 292:3 293:7 294:6 295:2 296:2 297:5 298:1 299:12 301:29 302:9 303:10 304:2 305:15 306:14 307:11 308:6 309:14 310:4 311:12 312:3 313:3 314:24 315:2 316:23 317:1 318:14 319:5 320:10 321:5 322:5 323:7 324:11 325:20 326:15 327:3 328:14 329:2 330:1 331:3 332:7 333:2 334:6 335:10 336:1 337:9 338:15 339:10 340:8 341:6 342:3 343:8 344:6 345:9 346:15 347:30 348:10 349:6 350:2 351:6 352:7 353:6 355:1 356:1 357:1 358:6 359:11 360:9 361:6 362:15 363:10 364:4 365:1 367:9 368:20 369:6 370:18 371:2 372:4 373:16 374:9 375:4 376:3 377:15 378:1 379:16 380:9 381:4 382:6 383:6 384:3 385:1 386:8 387:10 388:5 389:3 390:14 391:21 392:12 393:2 394:7 396:8 397:7 398:2 399:5 400:6 
8.786118804441445e-05 8.086197774233463e-05 1.834353291874479e-05 8.733665888453739e-06 1:5 2:18 3:1 4:1 5:4 6:7 7:4 8:2 9:17 11:2 12:4 13:6 14:9 15:3 16:12 17:2 18:12 19:15 20:7 21:2 22:9 23:14 24:8 25:3 26:3 27:8 28:11 29:3 30:8 31:4 32:4 33:12 34:2 35:8 37:5 38:27 39:4 40:8 41:6 43:5 44:12 45:14 46:9 47:29 48:3 49:11 50:5 51:1 52:6 53:6 54:25 55:4 56:1 57:14 58:7 59:6 60:6 61:13 62:14 63:6 64:6 65:8 67:4 68:2 69:4 70:6 71:24 72:5 73:2 74:9 75:4 76:7 77:13 78:3 79:3 80:1 81:16 83:9 84:1 85:16 86:8 87:10 88:1 89:9 90:7 91:3 92:15 93:8 94:8 95:3 96:4 97:6 98:2 99:11 100:6 101:4 102:4 103:3 104:2 105:1 106:8 107:19 108:5 110:12 111:2 112:5 113:7 114:10 115:17 116:6 117:6 118:23 119:27 120:3 121:3 123:16 124:3 125:12 126:9 127:3 128:10 129:4 130:5 131:8 132:5 133:3 134:5 135:1 136:6 137:13 138:1 139:8 140:2 142:14 143:2 144:6 146:4 147:12 148:6 149:7 150:15 151:4 152:9 153:11 154:4 155:7 156:9 157:6 158:10 159:5 161:18 162:8 163:3 166:6 167:5 168:20 169:7 170:10 171:11 172:2 173:9 174:18 175:1 176:3 177:10 178:12 179:5 180:3 181:1 182:7 183:9 184:3 185:8 186:6 187:12 188:2 189:6 190:1 191:14 192:10 193:3 194:1 195:7 196:19 197:14 198:10 199:14 200:14 201:9 202:13 203:10 204:9 205:15 206:7 207:9 209:20 210:3 211:7 212:5 213:14 214:32 215:2 216:20 217:16 218:10 219:12 220:4 222:13 223:5 225:8 226:4 227:5 228:4 229:6 230:5 231:11 232:6 233:10 234:14 235:16 236:7 237:3 238:3 239:16 240:10 241:14 243:7 244:8 246:2 247:5 248:4 250:8 251:7 252:8 253:7 254:6 255:6 256:2 257:18 258:3 259:3 260:3 261:11 262:11 263:11 264:10 265:12 266:15 267:6 268:4 269:6 270:9 271:14 272:17 273:1 274:5 276:6 277:6 278:11 279:4 280:13 281:5 282:1 283:1 284:7 285:1 286:7 287:19 288:5 289:15 290:6 291:17 292:12 293:7 294:4 295:2 296:4 297:5 298:1 299:14 300:2 301:21 302:10 303:14 304:8 305:8 306:7 307:4 308:9 309:7 311:11 312:9 313:5 314:20 316:8 317:7 318:9 319:2 320:10 321:1 322:4 324:18 325:11 326:8 327:4 328:5 329:5 330:1 331:6 332:3 333:4 334:6 335:16 336:5 337:12 338:10 339:20 340:5 341:10 342:3 343:6 344:14 345:16 346:16 347:8 348:12 349:5 350:7 351:10 352:1 353:2 354:1 355:4 356:3 357:3 358:10 359:8 360:12 361:7 362:16 363:8 364:7 365:5 367:21 368:12 369:3 370:7 371:4 372:6 373:9 374:16 375:4 376:6 377:5 378:4 379:11 380:10 381:9 382:7 383:3 384:1 385:1 386:6 387:3 388:2 389:5 390:10 391:17 392:8 393:1 394:6 395:4 396:15 397:10 398:9 399:6 400:13 
0 0.0001151482979505209 3.087224151089583e-05 0 1:9 2:19 3:3 4:3 5:6 6:5 8:3 9:9 10:2 11:4 12:3 13:8 14:23 15:2 16:11 17:3 18:11 19:17 20:7 21:9 22:6 23:16 24:1 25:3 26:2 27:11 28:7 30:4 31:5 32:1 33:5 34:3 35:11 36:2 37:5 38:20 39:2 40:16 41:4 42:4 43:6 44:6 45:19 46:17 47:7 48:7 49:4 50:7 51:5 52:12 53:3 54:10 55:10 56:7 57:15 58:11 59:3 60:3 61:9 62:40 63:5 64:5 65:4 67:2 68:5 69:13 70:25 71:27 72:2 73:3 74:11 75:2 76:6 77:10 78:17 79:2 80:1 81:10 82:3 83:19 84:3 85:5 86:2 87:5 88:8 89:10 90:30 91:9 92:9 93:9 94:15 95:3 96:6 97:13 98:5 99:9 100:4 101:2 102:10 103:7 104:1 106:11 107:12 108:5 109:3 110:8 111:4 112:11 113:3 114:1 115:14 116:3 117:12 118:24 119:42 120:4 121:4 122:6 123:13 124:3 125:6 126:11 127:4 128:5 129:1 130:18 131:7 132:3 133:2 134:13 135:2 136:7 137:11 138:3 139:5 141:2 142:5 143:20 144:3 146:1 147:8 148:2 149:22 150:21 151:4 152:19 153:21 154:3 155:6 156:4 157:2 158:6 159:2 160:22 161:10 162:7 163:3 164:2 165:2 166:2 167:6 168:4 169:7 170:13 171:11 172:4 173:3 174:13 175:1 176:7 177:6 178:4 179:3 181:9 182:7 183:7 184:3 185:5 186:1 187:9 188:5 189:7 190:4 191:14 192:8 193:8 194:3 195:5 196:4 197:22 198:6 199:7 200:4 201:8 202:4 203:6 204:9 205:7 206:10 207:4 209:29 210:3 211:4 212:8 213:45 214:25 215:7 216:4 217:6 218:10 219:10 221:3 222:5 224:1 225:19 227:4 228:6 229:12 230:8 231:8 232:5 233:16 234:12 235:12 236:6 237:1 238:2 239:4 240:4 241:6 243:6 244:4 245:3 246:6 247:5 248:10 249:2 250:4 251:6 252:5 253:7 254:3 255:11 256:2 257:42 258:4 259:5 260:1 261:12 262:6 263:7 264:3 265:6 266:21 267:5 268:7 269:11 271:6 272:11 274:3 275:1 276:10 277:1 278:8 279:2 280:11 281:3 282:4 283:2 284:6 285:7 286:8 287:9 288:7 289:16 290:7 291:5 292:1 293:14 294:11 295:3 296:10 297:3 299:13 300:2 301:30 302:5 303:15 304:2 305:17 306:5 307:6 308:13 309:13 310:1 311:7 312:6 313:6 314:55 316:15 317:6 318:28 319:2 320:10 321:2 322:4 323:4 324:28 325:6 326:11 327:1 328:12 329:6 330:1 331:13 332:8 333:4 334:3 335:9 336:3 337:2 338:13 339:10 340:5 341:10 342:5 343:14 344:4 345:7 346:16 347:6 348:4 349:6 350:3 351:3 352:16 353:1 354:3 355:4 356:1 357:3 359:6 360:5 361:2 362:6 363:7 364:12 365:1 367:6 368:9 369:4 370:19 371:3 372:3 373:10 374:11 375:3 376:2 377:5 378:2 379:5 380:1 381:7 382:11 383:12 384:1 385:3 386:12 387:3 388:5 389:2 390:11 391:14 392:10 394:5 395:7 396:2 397:7 398:13 399:4 400:5 
6.616463825980787e-05 0 1.456064808495064e-05 0 1:8 2:11 3:7 4:6 5:13 6:5 7:1 8:2 9:15 10:2 11:2 12:3 13:10 14:16 15:3 16:8 17:6 18:19 19:11 20:4 21:6 22:4 23:9 25:6 27:6 28:9 29:5 30:5 31:4 32:2 33:1 34:4 35:6 36:1 37:6 38:29 39:2 40:19 41:18 42:3 43:10 44:11 45:15 46:10 47:16 48:9 49:4 50:13 51:8 52:15 53:1 54:13 55:3 56:19 57:11 58:10 59:4 60:2 61:8 62:14 63:5 64:7 65:11 67:7 69:36 70:10 71:17 72:5 73:6 74:2 75:2 76:4 77:15 78:19 79:4 80:2 81:13 82:4 83:23 84:2 85:4 86:4 87:7 88:2 89:19 90:15 91:1 92:13 93:5 94:6 95:14 96:20 97:6 98:3 99:18 100:9 101:9 102:10 103:8 104:2 105:5 106:8 107:11 108:4 109:5 110:8 111:4 112:6 113:1 114:8 115:14 116:13 117:6 118:12 119:31 120:3 121:4 122:3 123:12 124:2 125:4 126:5 127:12 128:9 129:12 130:39 131:4 132:5 133:2 134:2 135:6 136:8 137:17 138:3 139:3 141:1 143:18 144:2 146:2 147:5 148:5 149:8 150:14 151:2 152:3 153:6 154:5 155:13 156:5 157:6 158:12 159:1 160:1 161:4 162:6 163:7 164:2 166:4 167:2 168:5 169:2 170:5 171:4 172:1 173:2 174:18 176:8 177:6 178:5 179:2 180:3 181:12 182:3 183:11 184:1 185:5 186:11 187:13 189:7 190:2 191:11 192:4 193:3 194:1 195:3 196:5 197:39 198:5 199:7 200:5 201:8 202:8 203:6 204:6 205:13 206:6 207:13 208:2 209:22 210:6 211:3 212:11 213:21 214:14 215:10 216:2 217:4 218:3 219:6 220:3 221:1 222:7 223:2 224:3 225:37 226:1 227:13 228:5 229:3 230:7 231:4 232:2 233:13 234:13 235:8 236:3 237:7 238:6 239:20 240:1 241:11 242:1 243:7 244:2 245:2 246:7 247:7 248:5 249:10 250:6 251:10 252:3 253:2 254:5 255:6 256:9 257:21 259:5 260:2 261:11 263:9 264:8 265:4 266:11 267:3 268:6 269:8 271:7 272:12 273:2 274:7 275:3 276:4 277:3 278:19 279:4 280:8 281:7 282:1 283:2 284:6 285:14 286:8 287:8 288:5 289:8 290:10 291:10 292:2 293:2 294:4 295:1 296:7 297:5 298:1 299:15 300:1 301:25 302:6 303:8 304:3 305:19 306:2 307:4 308:5 309:17 310:3 311:9 312:22 313:13 314:13 315:1 316:17 317:5 318:10 320:4 321:11 322:9 323:4 324:23 325:9 326:7 327:3 328:22 329:1 330:3 331:13 332:6 333:2 334:10 335:8 336:1 337:4 338:10 339:14 340:15 341:9 342:4 343:7 344:8 345:10 346:21 347:12 348:3 349:3 350:5 351:6 352:10 353:4 354:6 355:3 356:1 357:5 358:3 359:5 360:12 361:7 362:5 363:10 364:1 366:2 367:9 368:26 369:7 370:12 371:5 372:18 373:14 374:9 375:1 376:5 377:12 378:1 379:9 380:9 381:6 382:11 383:23 384:1 385:3 386:11 387:6 388:5 390:8 391:21 392:8 394:5 395:4 396:12 397:3 398:9 399:9 400:7 
0.0001690078411015165 8.347487821515859e-05 0 4.502133202720237e-05 1:10 2:15 3:4 4:2 5:4 6:6 8:1 9:8 10:3 11:2 12:4 13:9 14:14 15:3 16:5 18:6 19:14 20:3 21:7 22:13 23:12 24:1 25:2 26:3 27:6 28:17 29:2 30:7 31:7 32:4 33:6 34:7 35:17 36:2 37:8 38:27 39:10 40:4 41:2 42:6 43:12 45:19 46:8 47:19 48:4 49:13 50:5 51:7 52:1 53:5 54:10 55:2 57:14 58:17 59:5 60:10 61:12 62:22 63:5 64:17 65:21 68:1 69:3 70:12 71:17 72:5 73:9 74:7 75:3 76:7 77:13 78:3 79:2 81:19 82:6 83:5 85:21 86:2 87:2 88:2 89:1 90:3 91:3 92:9 93:6 94:15 95:11 96:8 97:11 98:5 99:4 100:15 101:10 102:6 103:3 104:1 105:1 106:17 107:10 108:5 109:5 110:11 111:8 112:8 113:6 114:2 115:12 116:19 117:12 118:14 119:42 120:3 121:9 122:9 123:15 124:4 125:14 126:19 127:10 128:9 129:7 130:2 131:5 132:5 133:6 134:2 136:7 137:9 138:8 139:7 141:9 142:10 143:14 144:3 146:1 147:5 148:2 149:10 150:16 151:6 152:7 153:12 154:5 155:9 156:1 157:4 158:13 159:4 160:2 161:22 162:15 163:1 166:2 167:7 168:8 169:4 170:14 171:10 172:3 173:1 174:23 176:7 177:10 178:18 179:9 180:10 181:1 182:4 183:14 184:2 185:11 186:10 187:15 188:3 189:9 190:4 191:11 192:9 193:6 194:1 195:8 196:5 197:8 198:5 199:6 200:7 201:9 202:14 203:2 204:4 205:10 206:4 207:14 208:5 209:36 210:4 211:4 212:6 213:19 214:29 215:1 216:4 217:15 218:4 219:7 220:6 221:5 222:4 223:4 224:4 227:4 229:8 230:9 231:15 232:9 233:5 234:17 235:13 236:3 238:2 239:21 240:6 241:9 243:6 244:9 245:8 247:4 248:5 250:3 252:7 253:9 254:12 255:2 256:7 257:33 258:5 259:1 260:3 261:13 262:8 263:15 264:6 265:6 266:24 267:3 268:11 269:16 270:1 271:5 272:8 273:3 274:13 276:11 277:1 278:24 279:1 280:8 281:13 282:7 283:7 284:6 285:2 286:7 287:22 289:8 290:1 291:7 292:2 293:9 294:11 295:1 296:6 297:9 299:14 300:1 301:31 302:10 303:7 305:10 306:4 307:7 308:8 309:8 310:2 311:4 312:1 313:1 314:20 316:12 317:1 318:8 319:2 320:8 321:5 322:9 323:8 324:4 325:20 326:7 327:1 328:3 329:2 330:1 331:8 332:7 333:2 334:6 335:2 336:4 337:10 338:7 339:12 340:6 341:18 342:5 344:7 345:24 346:12 347:16 348:10 349:3 350:6 351:6 352:2 353:6 354:7 355:8 356:1 357:3 358:4 359:6 360:12 361:4 362:13 363:9 364:5 365:4 366:1 367:9 368:23 369:5 370:17 371:2 372:6 373:12 374:9 375:5 376:6 377:7 378:3 379:10 380:7 381:5 382:3 383:2 385:4 386:9 387:7 388:12 389:3 390:21 391:18 392:5 393:2 394:5 395:3 396:8 397:11 398:7 399:8 400:5 
6.518414054785014e-05 4.862426136661227e-05 6.89620771307887e-05 8.056299563283371e-05 1:4 2:12 3:6 5:2 6:14 7:1 8:1 9:18 10:2 11:10 13:3 14:12 15:2 16:14 17:3 18:6 19:16 20:3 21:2 22:1 23:9 24:3 25:7 26:2 27:17 28:11 29:3 30:7 31:7 32:5 33:6 34:3 35:7 36:7 37:7 38:27 39:6 40:15 41:6 42:2 43:9 44:5 45:7 46:9 47:7 48:9 49:18 50:6 51:5 52:13 53:8 54:6 55:5 56:6 57:6 58:7 59:4 60:2 61:9 62:26 63:10 64:4 65:4 67:4 68:3 69:11 70:11 71:22 72:5 74:3 75:1 76:7 77:19 78:8 79:3 80:1 81:1 82:3 83:13 84:6 85:17 86:4 87:2 88:3 89:8 90:7 91:5 92:4 93:9 94:19 95:7 96:10 97:10 99:9 100:11 101:7 102:6 103:5 104:1 105:1 106:4 107:9 108:4 109:5 110:7 111:3 112:7 113:11 114:13 115:14 116:16 117:16 118:7 119:40 120:2 122:6 123:17 124:1 125:4 126:16 127:4 128:7 129:4 130:10 131:7 132:1 133:8 134:11 135:2 136:7 137:15 138:2 139:14 140:7 141:1 142:2 143:4 144:16 146:2 147:5 148:13 149:7 150:12 151:8 152:19 153:10 154:4 155:9 156:8 157:4 158:18 159:4 160:4 161:5 162:12 163:1 165:2 166:2 167:3 168:7 169:2 170:10 171:11 172:2 173:6 174:20 175:1 176:5 177:3 178:12 179:15 180:3 181:5 182:1 183:3 184:8 185:6 186:6 187:6 188:6 189:5 190:4 191:5 192:7 193:11 194:4 195:21 196:9 197:15 198:5 199:11 200:9 201:6 202:8 203:5 204:3 205:9 206:7 207:5 209:15 210:1 211:4 212:7 213:27 214:23 215:4 216:9 217:6 218:6 219:7 220:2 221:4 222:6 223:12 224:6 225:16 226:1 227:10 228:5 229:3 230:2 231:15 232:18 233:13 234:22 235:7 236:16 237:1 238:11 239:5 240:3 241:4 243:6 244:17 245:1 246:2 247:1 248:3 249:8 250:3 251:8 252:7 253:4 254:6 255:7 256:8 257:25 258:3 259:11 260:3 261:15 262:7 263:8 264:6 265:11 266:24 267:11 268:6 269:11 270:6 271:7 272:13 274:9 276:4 277:5 278:12 279:7 280:10 281:7 282:7 283:1 284:4 285:1 286:6 287:15 288:8 289:14 290:4 291:5 292:6 293:7 294:6 295:5 296:5 297:3 298:3 299:12 300:1 301:33 302:5 303:15 304:7 305:13 306:9 307:5 308:2 309:14 311:8 312:7 313:6 314:18 316:12 317:7 318:15 320:8 321:14 322:1 323:10 324:10 325:11 326:6 327:8 328:5 329:5 331:15 332:5 333:2 334:4 335:9 336:3 337:5 338:8 339:12 340:3 341:14 342:6 343:1 344:13 345:9 346:22 347:12 348:5 349:4 350:12 351:11 352:11 353:3 354:3 355:7 356:2 357:1 358:3 359:4 360:22 361:2 362:9 363:10 364:7 365:3 366:2 367:8 368:15 369:9 370:9 371:5 372:7 373:14 374:11 375:3 376:1 377:2 378:3 379:10 380:2 381:3 382:13 383:1 384:1 385:5 386:13 387:5 388:1 389:6 390:19 391:9 392:8 393:3 394:3 395:12 396:17 397:6 398:15 399:8 400:9 
6.489491859354179e-05 0.0002854380550814657 9.565682120670292e-05 0 1:4 2:18 3:7 5:1 6:10 7:3 8:1 9:10 11:7 12:1 13:6 14:35 15:1 16:8 17:1 18:2 19:9 20:7 21:7 22:6 23:24 24:2 25:5 26:1 27:7 28:12 29:3 30:2 31:3 32:1 33:3 34:4 35:8 37:10 38:34 39:6 40:3 41:1 42:2 43:2 44:3 45:24 46:5 47:12 48:5 49:6 50:2 51:3 52:2 53:11 54:16 55:9 57:10 58:25 59:7 60:4 61:10 62:40 63:4 64:2 65:2 67:5 70:22 71:29 72:2 74:6 75:5 76:6 77:11 78:2 79:5 80:1 81:17 82:3 83:5 85:1 86:4 87:4 88:6 89:3 90:5 91:11 92:11 93:3 94:24 95:6 96:2 97:23 99:12 100:7 101:2 102:6 103:5 106:7 107:12 108:1 109:4 110:20 111:3 112:2 113:7 114:2 115:16 116:13 117:9 118:24 119:57 120:2 121:4 123:11 124:2 125:6 126:13 127:3 128:4 129:1 130:1 131:9 132:4 133:5 134:16 135:10 136:5 137:6 138:4 139:11 142:4 143:17 144:1 146:2 147:7 148:1 149:15 150:16 151:16 152:18 153:8 154:9 155:14 156:6 157:3 158:6 159:2 160:6 161:14 162:7 163:4 166:2 167:6 168:7 169:5 170:9 171:16 172:1 173:4 174:37 175:4 176:6 177:8 178:6 179:1 180:1 182:4 183:12 184:7 185:13 186:7 187:11 188:3 189:12 190:1 191:11 192:3 193:4 195:9 196:6 197:12 198:7 199:9 200:6 201:12 202:5 203:5 204:3 205:14 206:4 207:12 208:1 209:33 210:5 211:4 212:5 213:42 214:45 215:3 216:4 217:5 218:9 219:12 220:6 221:2 222:13 223:5 224:1 225:4 226:1 227:3 228:2 229:6 230:1 231:22 232:5 233:6 234:28 235:15 236:10 237:2 238:5 239:11 240:3 241:8 243:16 244:7 245:3 247:5 248:3 249:2 250:9 251:4 252:1 253:3 254:10 255:7 256:18 257:39 258:1 259:1 260:1 261:15 262:9 263:5 264:5 265:2 266:31 267:10 268:2 269:5 271:5 272:22 274:7 276:9 277:2 278:15 279:5 280:14 281:4 282:1 283:1 284:5 285:1 286:2 287:18 288:14 289:18 290:1 291:13 292:1 293:12 294:11 295:4 296:7 297:8 298:1 299:6 300:1 301:45 302:7 303:6 304:5 305:12 306:8 307:9 308:12 309:12 310:3 311:4 312:2 313:1 314:33 315:2 316:18 317:2 318:15 319:4 320:14 321:1 322:4 323:8 324:9 325:14 326:10 327:1 328:2 329:1 331:2 332:8 333:4 334:3 335:6 336:3 337:14 338:25 339:10 340:10 341:6 342:3 343:5 344:6 345:9 346:20 347:14 348:6 349:3 350:6 351:6 353:3 355:5 356:3 357:4 358:2 359:4 360:9 361:9 362:11 363:12 364:8 366:4 367:7 368:21 369:5 370:18 371:2 372:5 373:14 374:6 375:2 376:3 377:12 378:1 379:15 380:4 381:1 382:4 384:1 385:1 386:6 387:11 388:3 389:1 390:9 391:20 392:14 393:1 394:4 395:10 396:7 397:10 398:5 399:5 400:4 
-0.0001674668979248049 4.870437265898278e-05 4.064044242681378e-05 2.278846287315018e-05 1:4 2:7 3:4 4:2 7:4 8:1 9:13 11:2 12:1 13:3 14:16 15:6 16:2 17:9 18:13 19:14 20:13 21:1 22:6 23:14 24:4 25:5 26:3 27:2 28:10 30:2 31:5 32:3 33:8 34:3 35:7 36:7 37:5 38:22 39:6 40:3 41:3 42:9 43:8 44:7 45:8 46:10 47:14 48:3 49:7 50:20 51:7 53:6 54:5 55:1 56:4 57:13 58:17 59:3 60:3 61:8 62:27 63:8 64:8 65:21 66:1 67:17 68:3 69:7 70:12 71:19 72:14 73:19 74:20 75:4 76:5 77:6 78:2 79:8 80:11 81:13 82:20 83:15 84:3 85:13 86:18 87:8 88:6 89:19 90:4 91:5 92:12 93:5 94:11 95:10 96:13 97:5 98:12 99:9 100:9 101:8 102:10 103:5 104:3 105:6 106:17 107:18 108:9 109:13 110:10 111:27 112:7 113:9 114:2 115:18 116:13 117:7 118:16 119:24 120:5 121:3 122:9 123:3 124:6 125:2 126:7 127:9 128:8 129:7 130:8 131:5 132:4 133:7 134:3 135:6 136:5 137:11 138:10 139:7 141:7 142:7 143:12 144:6 145:1 146:3 147:4 148:2 149:9 150:16 151:5 152:13 153:12 154:4 155:10 156:5 157:5 158:9 159:3 160:3 161:14 162:6 163:1 165:1 166:1 167:4 168:4 170:3 171:9 172:6 173:4 174:17 175:1 176:2 177:3 178:4 179:16 180:14 181:4 182:5 183:11 184:10 185:6 186:4 187:10 188:2 189:11 190:8 191:13 192:7 193:11 194:7 195:10 196:9 197:6 198:2 199:10 200:10 201:6 202:14 203:3 204:12 205:11 206:4 207:6 208:7 209:15 210:9 211:7 212:14 213:23 214:30 215:2 216:8 217:10 218:4 219:10 220:8 221:4 222:5 223:9 224:3 225:3 226:1 227:8 228:6 229:7 230:7 231:6 232:2 233:6 234:9 235:8 236:7 237:2 238:3 239:13 240:3 241:5 243:7 244:7 245:5 246:2 247:5 248:2 250:6 251:20 252:9 253:2 254:9 255:5 256:4 257:36 258:4 259:3 260:2 261:10 262:11 263:5 264:4 265:8 266:13 267:6 268:11 269:8 270:6 271:3 272:5 273:5 274:5 276:8 277:4 278:17 280:5 281:12 282:6 283:11 284:1 285:2 286:2 287:14 288:11 289:13 290:7 291:6 292:1 293:9 294:2 295:3 296:2 297:10 299:9 300:7 301:28 302:6 303:4 304:4 305:14 306:5 307:3 308:5 309:10 310:12 311:4 312:3 313:4 314:18 315:1 316:13 317:2 318:12 319:6 320:9 321:6 322:3 323:2 324:8 325:7 326:4 327:6 329:4 330:1 331:9 332:3 333:13 334:6 335:11 336:2 337:12 338:7 339:17 340:5 341:9 342:3 344:6 345:17 346:9 347:16 348:8 349:5 350:9 351:7 352:1 353:5 354:9 355:3 356:2 357:4 358:6 359:3 360:12 361:3 362:4 363:9 364:7 365:4 366:1 367:3 368:6 369:13 370:9 371:5 372:6 373:14 374:7 375:3 376:9 377:7 378:3 379:8 380:9 381:13 382:4 383:4 384:7 385:2 386:16 387:11 388:11 390:22 391:14 392:4 393:7 394:9 395:2 396:10 397:5 398:4 399:15 400:7 
-0.0001595055853541394 3.649354055786568e-05 4.821684183673719e-05 3.519620960614191e-05 1:1 2:21 3:3 4:1 5:10 6:7 7:3 8:1 9:15 12:7 13:7 14:28 15:2 16:16 17:6 18:7 19:18 20:4 21:12 22:5 23:12 25:26 26:5 27:2 28:7 29:3 30:1 32:3 33:3 34:1 35:13 36:4 37:3 38:29 39:5 40:36 41:5 42:1 43:8 44:13 45:16 46:2 47:11 48:16 49:1 50:1 51:1 52:6 53:5 54:10 55:4 56:2 57:5 58:16 59:4 60:4 61:13 62:17 63:1 64:13 67:4 69:2 70:13 71:8 72:5 73:1 74:11 75:8 76:3 77:8 78:3 79:6 81:13 83:11 84:3 85:2 86:12 87:9 88:2 89:6 90:8 91:2 92:11 93:2 94:17 95:5 96:2 97:8 99:18 100:11 101:5 102:16 103:3 105:2 106:11 107:20 108:4 109:4 110:14 111:1 112:7 113:1 114:10 115:32 116:9 117:4 118:16 119:39 120:1 121:2 122:1 123:7 124:3 125:6 126:19 127:2 128:3 130:3 131:13 133:7 134:4 135:6 136:14 137:20 139:16 142:3 143:2 144:2 146:2 147:12 148:3 149:8 150:20 151:7 152:4 153:19 154:2 155:21 156:5 157:3 158:6 159:4 160:2 161:6 162:10 163:2 164:1 165:2 166:1 167:5 168:15 169:4 170:1 171:8 172:2 173:1 174:19 175:12 176:10 177:7 178:3 179:2 180:1 181:2 182:10 183:32 184:1 185:5 186:8 187:12 188:8 189:12 190:1 191:11 192:6 193:1 195:3 196:8 197:12 198:4 199:4 200:13 201:17 202:19 203:15 204:4 205:24 206:6 207:9 208:6 209:19 210:11 211:5 212:1 213:12 214:26 215:10 216:14 217:7 218:7 219:2 222:17 223:3 224:2 225:4 226:2 227:14 228:2 229:3 230:1 231:13 232:3 233:24 234:17 235:6 236:5 237:21 238:1 239:18 240:2 241:2 243:13 244:11 245:3 246:12 247:8 248:4 250:11 251:19 252:7 254:13 255:4 256:14 257:17 258:4 259:2 260:5 261:15 262:5 263:11 264:11 265:5 266:9 267:2 268:2 269:8 271:6 272:18 273:1 274:6 276:7 277:1 278:21 279:3 280:15 281:3 282:3 283:1 284:1 285:1 286:2 287:9 288:12 289:12 290:1 291:22 292:2 293:6 294:7 295:1 296:1 297:11 299:12 301:56 302:1 304:2 305:14 306:6 307:9 308:11 309:25 310:1 311:3 312:2 313:12 314:15 316:20 317:1 318:4 320:20 321:2 322:13 323:3 324:12 325:3 326:7 327:4 328:4 329:2 330:2 331:6 332:7 333:1 334:8 335:5 336:1 337:12 338:11 339:3 340:13 341:12 342:4 343:11 344:2 345:22 346:13 347:22 348:9 349:1 350:8 351:10 352:4 353:6 354:1 355:4 356:11 357:3 358:3 359:3 360:6 361:10 362:11 363:10 364:5 365:2 367:4 368:27 370:10 371:3 372:24 373:12 374:15 375:2 376:3 377:23 379:10 380:10 381:4 382:2 383:20 384:1 386:16 387:9 389:6 390:5 391:20 392:10 394:4 395:2 396:8 397:4 398:7 399:1 400:9 
-0.000170023065077689 0.0001760816628753954 0.0001064012507877058 3.095306993563157e-05 1:4 2:17 3:7 4:1 6:4 7:3 9:17 10:4 11:1 12:1 13:2 14:6 15:7 16:6 17:7 18:10 19:9 20:2 21:2 22:6 23:25 24:2 25:3 26:2 27:4 28:20 30:8 31:1 32:1 33:15 34:2 35:22 37:2 38:28 39:7 40:4 41:3 42:4 43:4 44:6 45:18 46:16 47:7 48:9 49:5 50:13 51:5 52:6 53:6 54:7 55:9 56:4 57:6 58:13 59:9 61:10 62:23 63:4 64:6 65:3 67:10 68:1 69:2 70:12 71:16 72:13 74:4 75:10 76:7 77:12 78:5 79:5 81:21 82:7 83:5 85:2 86:9 87:4 88:1 89:3 90:3 91:6 92:17 93:9 94:9 95:7 96:2 97:20 98:1 99:2 100:8 101:1 102:5 103:15 105:2 106:20 107:10 108:4 109:3 110:7 111:1 112:12 113:6 114:2 115:17 116:5 117:27 118:8 119:49 120:2 121:1 123:15 124:3 125:6 126:21 127:7 128:3 129:4 130:2 131:4 132:1 133:6 134:6 135:3 136:12 137:12 138:3 139:10 143:16 144:4 146:3 147:5 148:2 149:12 150:22 151:8 152:6 153:14 154:8 155:14 156:6 157:4 158:10 159:8 160:11 161:14 162:8 166:1 167:18 168:4 169:9 170:11 171:11 173:10 174:39 175:3 176:1 177:6 178:3 179:5 180:1 182:5 183:11 184:2 185:7 186:4 187:12 188:3 189:3 190:3 191:20 192:7 193:4 194:2 195:1 196:3 197:14 198:2 199:7 200:7 201:6 202:13 203:4 204:1 205:18 206:13 207:1 208:2 209:19 210:2 211:4 212:5 213:29 214:41 215:6 216:8 217:6 218:12 219:15 220:6 221:7 222:4 223:3 224:3 225:21 227:3 228:2 229:6 230:4 231:13 232:3 233:7 234:19 235:18 236:10 237:4 238:2 239:13 240:6 241:7 243:8 244:2 245:1 246:3 247:7 248:1 249:3 250:10 251:14 252:7 253:1 254:9 255:7 256:11 257:44 259:2 260:1 261:13 262:14 263:11 264:7 265:5 266:47 267:8 268:6 269:13 271:9 272:7 274:7 276:13 277:3 278:6 279:10 280:10 281:7 282:1 283:3 284:2 285:6 286:7 287:25 288:33 289:3 290:1 291:6 292:1 293:14 294:3 296:8 297:7 299:15 300:1 301:37 302:2 303:14 304:3 305:14 306:2 307:8 308:2 309:13 311:1 312:5 313:11 314:13 315:3 316:21 317:4 318:13 320:8 321:3 322:7 323:5 324:10 325:8 326:2 327:3 328:2 329:4 331:9 332:10 334:4 335:3 336:2 337:13 338:13 339:14 340:5 341:11 342:11 344:21 345:8 346:30 347:15 348:6 349:2 350:5 351:8 352:3 353:4 354:3 355:2 357:2 358:4 359:6 360:4 361:21 362:18 363:3 364:5 365:1 366:2 367:12 368:19 369:5 370:22 371:3 372:6 373:11 374:5 375:1 376:3 377:12 379:3 380:5 381:3 382:6 383:1 384:2 385:1 386:15 387:13 388:2 389:1 390:8 391:31 392:3 394:4 395:10 396:10 397:4 398:14 399:6 400:10 
-0.0001372137956952406 4.240235189481013e-05 2.007096807814994e-05 6.946699012707732e-05 1:4 2:13 3:10 5:3 6:7 7:2 8:1 9:16 10:1 11:3 13:6 14:7 15:7 16:3 18:5 19:12 20:13 21:3 22:5 23:11 24:2 25:1 26:2 27:2 28:18 30:6 31:6 32:6 33:6 34:6 35:9 36:7 37:7 38:29 39:4 40:4 41:4 42:11 43:6 44:5 45:10 46:5 47:26 48:2 49:12 50:19 51:6 52:5 53:2 54:6 57:13 58:15 59:4 60:4 61:7 62:10 63:6 64:16 65:18 68:1 69:2 70:9 71:10 72:6 73:17 74:2 75:3 76:12 77:11 78:2 79:8 81:9 82:14 84:2 85:8 86:3 87:4 88:5 91:2 92:2 93:13 94:17 95:10 96:2 97:8 98:14 99:5 100:19 101:7 102:7 103:6 104:3 105:9 106:17 107:8 108:6 109:16 110:8 111:15 112:8 113:6 114:9 115:14 116:12 117:2 118:8 119:35 120:3 121:1 122:17 123:7 124:7 125:10 126:9 127:23 128:17 129:10 130:4 131:9 132:7 133:8 134:6 136:5 137:10 138:12 139:10 140:1 141:11 142:3 143:19 144:11 145:1 146:6 147:1 149:3 150:21 151:3 152:8 153:9 154:6 155:11 156:10 157:3 158:7 159:3 160:3 161:4 162:12 163:5 166:1 167:8 168:2 169:5 170:3 171:5 172:19 173:3 174:25 175:1 176:7 177:9 178:6 179:10 180:8 181:2 182:4 183:20 184:8 185:11 186:5 187:16 188:2 189:3 190:7 191:11 192:4 193:15 194:5 195:7 196:3 197:5 198:5 199:6 200:8 201:8 202:8 203:3 204:8 205:14 206:7 207:10 208:19 209:16 210:16 212:14 213:22 214:19 215:3 216:5 217:9 218:11 219:13 220:5 221:3 222:1 223:4 224:4 225:3 227:9 229:2 230:22 231:16 232:1 233:2 234:17 235:10 236:2 237:1 238:5 239:23 240:7 241:8 243:11 244:5 245:13 246:2 247:2 248:1 250:9 251:3 252:8 253:2 254:16 255:1 256:8 257:23 258:2 259:2 260:1 261:11 262:10 263:10 264:3 265:10 266:17 267:6 268:9 269:18 270:3 271:5 272:19 273:4 274:5 276:7 277:2 278:17 279:5 280:12 281:6 282:2 283:8 286:6 287:13 288:4 289:3 290:1 291:10 292:1 293:12 294:1 295:3 296:1 297:5 298:1 299:16 300:7 301:23 302:18 303:8 304:3 305:20 306:4 307:8 308:6 309:22 310:2 311:3 313:1 314:7 316:7 317:2 318:6 319:2 320:9 321:10 322:6 323:7 324:5 325:13 326:13 327:1 329:6 330:6 331:7 332:5 333:7 334:2 335:2 336:2 337:6 338:12 339:8 340:17 341:18 342:10 343:3 344:10 345:8 346:14 347:22 348:15 349:4 350:4 351:5 352:2 353:7 354:7 355:1 356:1 357:3 358:1 359:3 360:20 361:12 362:9 363:14 364:5 365:5 366:2 367:16 368:21 369:18 370:14 371:6 372:7 373:17 374:4 375:6 376:14 377:11 378:7 379:10 380:3 381:16 382:5 383:2 384:3 385:1 386:13 387:3 388:11 389:1 390:20 391:14 392:6 393:2 394:8 395:1 396:12 397:7 398:4 399:8 400:9 
-0.0001041737633258053 0 0 5.728355583265948e-05 1:8 2:19 3:13 4:1 5:1 6:10 8:2 9:9 13:14 14:11 15:5 16:10 17:1 18:4 19:14 20:9 21:7 22:9 23:4 24:4 25:13 26:1 27:5 28:24 29:1 30:3 32:1 33:1 34:10 35:14 36:2 37:8 38:25 39:13 40:5 41:3 42:3 43:14 44:3 45:9 46:8 47:34 48:5 49:7 50:28 51:1 52:2 53:16 54:18 55:4 57:15 58:16 59:8 61:12 62:12 63:5 64:25 65:12 66:1 67:5 69:3 70:12 71:20 72:7 73:6 74:8 75:6 76:17 77:10 78:1 79:5 81:10 82:7 83:4 84:5 85:13 86:3 87:4 89:5 90:1 91:3 92:7 93:1 94:20 95:6 96:3 97:3 99:12 100:16 101:3 102:10 103:5 105:5 106:23 107:14 108:15 109:8 110:13 111:2 112:16 113:10 114:3 115:14 116:23 117:5 118:12 119:22 120:1 121:1 122:4 123:13 124:2 125:8 126:12 127:10 128:8 129:12 130:1 131:4 132:13 133:7 134:7 135:5 136:5 137:9 138:8 139:3 142:1 143:9 144:6 146:4 147:4 149:6 150:45 151:8 152:13 153:13 154:4 155:12 156:11 157:2 158:6 159:11 160:6 161:18 162:8 163:1 164:1 168:4 169:8 170:5 171:10 172:8 173:2 174:30 175:1 176:4 177:4 178:5 179:4 180:3 182:1 183:20 184:7 185:3 186:16 187:14 189:3 190:2 191:14 192:6 193:10 194:5 195:5 196:5 197:4 198:2 199:6 200:5 201:16 202:19 203:3 204:10 205:15 206:11 207:16 208:3 209:15 210:14 211:7 212:15 213:7 214:21 215:2 216:12 217:10 218:13 219:4 220:5 222:11 223:5 224:2 226:1 227:11 228:4 229:3 230:6 231:18 232:2 233:1 234:13 235:3 236:6 237:2 238:3 239:15 240:4 241:10 243:12 244:5 245:2 246:1 247:6 248:2 250:6 251:1 252:8 253:4 254:18 255:2 256:12 257:8 258:4 259:1 261:9 262:9 263:5 264:5 265:5 266:11 267:12 268:10 269:25 270:1 271:1 272:14 273:2 274:11 275:2 276:3 277:3 278:36 280:7 281:12 282:4 283:3 284:4 286:6 287:7 288:13 289:2 290:1 291:6 292:3 293:2 294:3 296:4 297:6 299:19 300:3 301:25 302:8 303:9 304:4 305:39 306:1 307:7 308:4 309:23 310:1 311:6 313:1 314:3 315:3 316:18 317:3 318:6 319:2 320:11 321:4 322:8 323:3 324:14 325:14 326:1 327:4 329:5 331:17 332:23 333:7 334:3 335:1 336:3 337:8 338:9 339:10 340:10 341:12 342:10 343:1 344:4 345:12 346:14 347:29 348:3 349:3 350:6 351:4 353:5 354:8 355:3 356:1 357:7 358:2 359:4 360:25 361:3 362:5 363:16 364:8 365:1 367:14 368:29 369:12 370:13 371:2 372:7 373:29 374:14 375:2 376:3 377:9 378:3 379:17 380:4 381:4 382:1 383:3 386:25 387:10 388:5 389:3 390:10 391:11 392:9 393:3 394:12 395:1 396:13 397:2 398:8 399:7 400:1 
-0.0001953691136976867 -0.0001017429284159478 2.364824960607219e-05 2.391433021950473e-05 1:3 2:17 3:3 4:4 5:6 6:16 7:4 9:9 11:2 12:1 13:5 14:18 15:1 16:11 18:4 19:13 20:2 21:5 22:9 23:19 24:6 25:5 26:1 27:7 28:7 29:4 30:6 31:7 32:8 33:7 34:3 35:28 36:3 37:4 38:26 39:3 40:9 41:3 42:2 43:10 44:2 45:22 46:8 47:30 48:6 49:5 50:5 51:3 52:5 53:5 54:7 55:8 56:2 57:14 58:10 59:8 60:2 61:12 62:37 63:7 64:5 65:2 67:1 68:3 69:8 70:20 71:26 72:9 74:6 75:7 76:8 77:15 78:9 79:1 81:12 82:4 83:4 84:1 85:10 87:4 88:7 89:2 90:4 91:5 92:7 93:3 94:14 95:4 96:5 97:14 99:7 100:17 101:2 102:10 103:7 104:2 106:3 107:15 108:7 109:6 110:5 111:6 112:5 113:8 114:8 115:16 116:7 117:8 118:17 119:61 120:2 121:3 122:3 123:19 124:1 125:3 126:18 127:6 128:6 129:10 130:9 131:8 132:4 133:4 134:9 135:4 136:2 137:13 138:2 139:8 142:5 143:15 144:5 146:1 147:15 148:2 149:9 150:9 151:5 152:15 153:18 154:4 155:19 156:6 157:1 158:1 159:3 160:8 161:10 162:7 166:6 167:7 168:1 169:8 170:24 171:12 172:3 173:7 174:35 175:2 176:4 177:10 178:4 179:7 180:2 181:3 182:3 183:9 184:3 185:17 186:2 187:11 188:6 189:3 190:1 191:11 192:10 193:5 194:3 195:3 196:1 197:10 198:10 199:12 200:9 201:2 202:7 203:1 204:4 205:15 206:10 207:3 208:2 209:19 210:2 211:3 212:5 213:28 214:37 215:1 216:11 217:9 218:6 219:11 220:6 221:1 222:15 223:5 224:6 225:3 226:1 227:2 229:7 230:3 231:17 232:5 233:5 234:26 235:13 236:7 237:1 238:5 239:12 240:12 241:8 243:6 244:6 245:2 246:1 247:9 248:1 249:5 250:5 251:1 252:6 253:9 254:3 255:2 256:11 257:49 258:4 259:3 260:2 261:12 262:10 263:7 264:3 265:4 266:45 267:6 269:2 271:7 272:23 274:5 276:11 278:7 279:9 280:16 281:5 282:2 283:1 284:4 285:4 286:11 287:19 288:6 289:16 290:4 291:12 292:2 293:19 294:4 295:1 296:14 297:7 298:3 299:13 300:3 301:49 302:3 303:21 304:4 305:19 306:5 307:9 308:10 309:12 311:7 312:2 313:3 314:28 316:9 317:2 318:17 319:3 320:14 321:1 322:8 323:8 324:12 325:11 326:13 327:5 328:7 329:2 331:8 333:2 334:6 335:5 336:2 337:10 338:13 339:22 340:4 341:3 342:5 343:3 344:7 345:4 346:27 347:11 348:3 349:4 350:5 351:4 352:7 353:2 354:2 355:6 357:2 359:15 360:9 361:1 362:12 363:6 364:4 365:1 366:1 367:16 368:15 370:17 371:3 372:8 373:12 374:10 376:2 377:6 378:7 379:21 380:4 381:1 382:3 383:3 384:2 385:3 386:1 387:6 388:3 389:2 390:11 391:17 392:13 393:1 394:7 395:2 396:8 397:8 398:5 399:5 400:2 
-4.545725505432029e-05 -3.939939233230791e-05 4.802911639559069e-07 6.708694454851958e-06 1:4 2:17 3:4 4:1 6:7 7:2 9:8 11:5 12:1 13:6 14:13 15:2 16:13 17:1 18:4 19:11 20:4 21:1 22:7 23:24 24:5 25:4 26:1 27:1 28:16 29:2 30:5 31:5 32:4 33:8 34:4 35:18 36:1 37:6 38:28 39:8 40:1 42:2 43:4 44:3 45:26 46:10 47:17 48:4 49:2 50:12 51:6 52:2 53:5 54:8 55:17 56:2 57:16 58:16 59:5 60:1 61:6 62:14 63:4 64:2 65:3 67:2 69:3 70:10 71:18 72:5 73:3 74:10 75:4 76:7 77:10 81:17 82:5 83:2 85:9 87:6 89:2 90:6 91:11 92:7 93:3 94:11 95:13 96:1 97:19 98:2 99:13 100:4 101:1 102:6 103:5 105:5 106:6 107:19 108:5 109:2 110:10 111:1 112:7 113:7 114:8 115:21 116:7 117:9 118:15 119:53 121:5 122:2 123:14 124:2 125:3 126:16 127:6 128:6 129:6 131:5 132:2 133:2 134:20 135:9 136:5 137:6 138:3 139:8 140:1 141:3 142:4 143:23 144:4 145:2 146:4 147:6 148:1 149:9 150:14 151:4 152:8 153:16 154:1 155:14 156:6 157:3 158:6 159:6 160:20 161:14 162:3 163:1 164:2 165:1 166:4 167:10 168:5 169:9 170:16 171:11 172:6 173:4 174:40 175:2 176:4 177:12 178:8 179:7 180:2 181:1 182:4 183:14 184:5 185:15 186:13 187:18 188:2 189:5 190:3 191:14 192:3 193:5 194:2 195:8 196:3 197:3 198:4 199:11 200:9 201:9 202:14 203:2 204:5 205:16 206:9 207:8 208:8 209:32 210:3 211:8 212:4 213:65 214:51 215:2 216:4 217:6 218:5 219:17 220:1 221:1 222:2 224:3 225:2 226:4 227:10 228:2 229:8 230:2 231:16 232:2 233:3 234:11 235:10 236:4 237:1 238:2 239:16 240:5 241:8 243:4 244:4 245:1 247:5 250:2 251:3 252:6 253:5 254:6 255:2 256:6 257:73 258:2 259:4 261:11 262:12 263:11 264:3 266:27 267:4 268:6 269:11 271:4 272:14 273:3 274:1 276:22 277:4 278:19 279:9 280:22 281:8 282:1 283:1 284:5 285:2 286:7 287:34 288:6 289:19 290:1 291:7 292:1 293:19 294:9 296:12 297:6 299:20 300:3 301:32 302:4 303:8 304:5 305:10 306:5 307:9 308:14 309:15 311:5 313:4 314:51 315:3 316:17 317:3 318:19 319:1 320:7 321:4 322:4 323:6 324:5 325:14 326:24 328:4 329:5 331:2 332:3 333:2 334:2 335:1 336:4 337:20 338:35 339:13 340:4 341:7 342:2 343:3 344:18 345:6 346:18 347:16 348:7 349:2 350:4 351:4 353:1 354:3 355:3 357:5 358:5 359:12 360:9 361:6 362:14 363:5 364:5 366:3 367:13 368:21 369:8 370:18 371:3 372:5 373:18 374:11 375:1 376:6 377:5 378:1 379:10 380:8 381:3 382:1 384:1 386:10 387:5 388:4 390:8 391:21 392:7 394:2 395:2 396:5 397:11 398:7 399:2 400:3 
-0.0001053818561466725 -0 0 0 1:5 2:22 3:3 5:1 6:6 7:4 8:4 9:8 11:3 12:4 13:7 14:15 15:1 16:12 18:3 19:6 20:3 21:6 22:19 23:20 24:4 25:5 26:1 27:5 28:11 29:2 30:17 31:4 32:1 33:9 34:9 35:21 36:1 37:5 38:35 39:6 40:6 42:1 43:6 44:1 45:26 46:9 47:24 48:5 49:1 50:3 51:4 52:1 53:6 54:10 55:5 56:3 57:17 58:8 59:5 60:5 61:7 62:29 63:11 64:7 65:2 68:2 69:4 70:19 71:31 72:1 73:1 74:7 75:11 76:6 77:7 79:2 81:15 82:3 83:3 85:8 87:6 88:2 90:3 91:4 92:10 93:4 94:13 95:2 96:5 97:18 98:2 99:16 100:8 101:3 102:6 103:7 105:2 106:7 107:20 108:4 109:6 110:9 111:1 112:5 113:5 114:7 115:24 116:10 117:8 118:25 119:43 120:1 121:5 122:1 123:9 125:6 126:12 127:4 128:5 129:7 131:3 132:2 133:2 134:12 135:3 136:3 137:4 139:8 141:1 142:5 143:23 144:4 145:1 146:3 147:4 148:3 149:16 150:15 151:5 152:5 153:21 154:6 155:11 156:7 157:1 158:5 159:2 160:9 161:20 162:9 163:1 165:1 166:1 167:11 168:3 169:3 170:13 171:15 172:2 173:1 174:39 175:1 176:2 177:7 178:6 179:7 181:3 182:10 183:7 184:8 185:20 186:5 187:10 188:3 189:6 190:1 191:20 192:6 193:3 195:3 196:6 197:6 198:9 199:22 200:13 201:10 202:10 203:5 204:5 205:7 206:2 207:7 209:44 210:5 211:9 212:1 213:59 214:43 215:1 216:5 217:9 218:15 219:18 220:1 221:1 222:9 223:2 224:2 225:4 227:2 229:13 230:3 231:11 232:4 233:1 234:21 235:8 236:10 238:4 239:8 240:6 241:4 243:8 244:1 245:1 247:4 248:4 249:11 250:7 251:2 252:2 253:1 254:4 255:1 256:10 257:37 258:1 260:1 261:19 262:15 263:4 264:5 266:32 267:3 268:1 269:6 270:3 271:6 272:18 274:3 276:11 277:13 278:8 279:9 280:19 281:3 282:1 283:3 284:13 285:2 286:5 287:22 288:4 289:13 290:2 291:7 292:3 293:25 294:7 295:1 296:12 297:8 299:13 300:1 301:48 302:3 303:16 304:9 305:10 306:9 307:9 308:9 309:16 311:8 312:3 313:1 314:33 315:1 316:13 318:24 319:1 320:8 321:3 322:2 323:4 324:10 325:21 326:12 328:3 329:4 331:7 332:1 333:3 334:3 335:4 336:1 337:7 338:18 339:21 340:7 341:2 342:10 343:8 344:4 345:12 346:28 347:8 348:12 349:6 350:9 351:7 352:3 353:4 355:5 356:1 357:7 358:4 359:7 360:8 361:3 362:15 363:6 364:8 366:4 367:16 368:27 369:12 370:24 372:1 373:21 374:15 375:2 376:1 377:2 378:2 379:20 380:12 382:4 383:2 385:1 386:9 387:7 388:2 389:1 390:5 391:16 392:12 394:5 395:3 396:5 397:6 398:8 399:4 400:2 
-0.0001323527410960776 -8.175174610944918e-05 6.465866786204848e-05 5.175377026764374e-05 1:7 2:17 3:5 4:3 5:1 6:10 7:3 8:5 9:10 11:1 13:3 14:8 15:1 16:11 17:1 18:4 19:18 20:1 21:3 22:8 23:15 24:4 25:2 26:4 27:8 28:10 29:1 30:9 31:8 32:5 33:12 34:6 35:12 36:1 37:2 38:34 39:8 40:5 41:1 43:5 44:6 45:21 46:24 47:16 48:6 49:4 50:6 51:10 52:1 53:4 54:12 55:7 56:6 57:12 58:4 59:3 60:7 61:14 62:20 63:7 64:6 65:7 66:1 67:1 68:3 69:4 70:9 71:15 72:3 73:4 74:6 75:6 76:3 77:10 78:4 79:1 81:11 82:4 83:2 85:6 87:5 88:5 89:4 90:24 91:11 92:3 93:4 94:12 95:4 96:5 97:12 98:1 99:13 100:7 101:2 102:5 103:5 105:1 106:3 107:12 108:7 109:2 110:2 112:13 113:3 114:1 115:17 116:11 117:32 118:8 119:40 120:5 121:4 122:2 123:9 124:2 125:1 126:24 127:1 128:5 129:6 131:2 132:2 133:5 134:18 135:4 136:6 137:18 138:1 139:9 141:1 142:1 143:13 144:1 145:2 146:3 147:4 148:1 149:5 150:26 151:9 152:17 153:11 154:8 155:9 156:6 157:7 158:13 160:7 161:16 162:12 163:1 165:2 166:2 167:6 168:2 169:5 170:12 171:17 173:10 174:30 175:1 176:9 177:4 178:7 179:5 180:3 182:3 183:9 184:4 185:18 186:4 187:3 188:5 189:7 190:1 191:12 192:23 193:3 194:1 195:11 196:5 197:5 198:12 199:19 200:5 201:5 202:7 203:6 204:8 205:10 206:7 207:3 208:2 209:14 210:4 211:12 212:4 213:56 214:29 215:3 216:6 217:6 218:2 219:18 220:4 222:6 223:4 224:5 225:3 227:9 228:1 229:6 230:3 231:25 232:5 233:10 234:17 235:14 236:13 237:1 238:4 239:7 240:12 241:11 243:10 244:11 245:3 246:6 248:2 249:2 250:5 251:8 252:2 253:7 254:8 255:13 256:3 257:27 258:3 259:7 261:10 262:6 263:9 264:4 265:2 266:32 267:5 268:5 269:15 271:3 272:14 273:1 274:8 276:13 277:6 278:15 279:8 280:12 281:5 282:3 283:2 284:9 285:3 286:2 287:21 288:8 289:13 290:3 291:9 292:1 293:17 294:5 295:6 296:12 297:5 298:1 299:13 300:3 301:28 302:1 303:35 304:18 305:8 306:7 307:9 308:5 309:8 310:2 311:13 312:1 313:6 314:36 316:10 317:8 318:13 320:12 321:7 322:11 323:2 324:19 325:16 326:7 327:2 328:4 329:4 331:9 332:6 333:2 334:20 335:38 336:5 337:17 338:18 339:10 340:5 341:9 342:6 344:13 345:5 346:17 347:9 348:3 349:2 350:4 351:12 352:1 353:9 354:3 355:2 357:8 358:1 359:5 360:5 362:8 363:7 364:7 367:11 368:16 369:7 370:19 371:1 372:8 373:17 374:8 375:3 376:4 377:11 379:11 380:7 382:10 383:2 386:6 387:9 388:1 390:2 391:15 392:4 393:2 394:4 395:30 396:8 397:9 398:14 399:2 400:6 
-0 -3.286685788470365e-07 6.331643651419995e-05 0 1:7 2:13 3:4 5:1 6:7 7:3 9:8 11:4 12:3 13:4 14:9 16:16 17:1 19:16 20:6 21:7 22:9 23:22 24:6 25:2 26:2 27:4 28:14 29:1 30:11 31:5 32:4 33:10 34:3 35:24 36:2 37:4 38:33 39:3 40:1 42:6 43:5 45:26 46:3 47:15 48:3 49:1 50:8 51:7 52:3 53:6 54:11 55:11 57:16 58:12 59:7 60:4 61:19 62:31 63:2 64:7 65:3 67:2 69:2 70:13 71:40 72:3 73:1 74:4 75:6 76:7 77:11 78:1 79:1 81:9 82:2 83:5 85:10 86:1 87:6 88:2 89:1 90:1 91:8 92:5 93:3 94:6 95:2 96:2 97:21 98:3 99:8 100:13 101:1 102:4 103:5 105:4 106:6 107:18 108:3 109:4 110:7 111:5 112:12 113:3 114:4 115:11 116:16 117:13 118:9 119:65 120:2 121:2 122:3 123:20 124:2 125:6 126:18 128:5 129:2 131:8 132:5 133:1 134:7 135:10 136:2 137:5 138:1 139:8 142:1 143:22 144:3 145:1 147:7 149:12 150:10 151:9 152:7 153:19 154:4 155:8 156:3 157:2 158:8 159:4 160:6 161:21 162:5 163:1 166:3 167:13 168:4 169:8 170:16 171:9 172:2 173:11 174:45 176:6 177:6 178:2 179:6 180:1 181:1 182:5 183:14 184:5 185:16 186:9 187:4 188:1 189:4 190:7 191:24 192:10 193:2 194:4 195:8 196:2 197:4 198:14 199:21 200:15 201:13 202:4 203:4 204:7 205:10 206:9 207:4 208:1 209:29 210:9 211:6 212:5 213:63 214:58 215:3 216:3 217:6 218:6 219:28 220:1 221:2 222:1 223:3 224:4 225:2 227:5 229:4 230:5 231:31 232:4 233:4 234:16 235:17 236:5 237:1 239:13 240:13 241:8 243:9 244:5 245:1 246:3 247:7 249:3 250:6 252:3 253:5 254:9 256:3 257:53 258:1 261:15 262:19 263:12 264:2 265:1 266:34 267:5 268:1 269:11 270:1 271:11 272:19 273:2 274:5 276:9 277:5 278:11 279:3 280:22 281:5 282:2 283:1 284:3 285:3 286:8 287:26 288:4 289:9 291:7 292:2 293:20 294:6 295:1 296:7 297:10 299:26 300:4 301:36 302:8 303:27 304:4 305:12 306:3 307:10 308:11 309:6 310:1 311:5 314:17 315:1 316:13 318:12 319:1 320:8 321:4 322:5 323:8 324:6 325:22 326:10 327:1 328:5 329:3 331:7 332:6 333:5 336:4 337:7 338:28 339:15 340:7 341:5 343:2 344:10 345:3 346:43 347:8 348:2 349:4 350:7 351:2 353:3 354:5 355:2 357:5 358:2 359:12 360:12 361:7 362:15 363:7 364:9 366:1 367:23 368:10 369:6 370:17 371:4 372:12 373:11 374:11 375:1 376:4 377:8 378:5 379:16 380:7 381:2 382:3 383:1 386:18 387:8 388:3 390:6 391:14 392:3 394:5 395:4 396:8 397:14 398:5 399:5 400:5 
-0.0001349865043613351 -8.045919255050214e-05 7.712672121541903e-05 4.034804580158562e-05 1:3 2:20 3:11 5:2 6:5 7:3 9:2 11:3 13:7 14:27 15:3 16:12 18:4 19:9 20:7 21:2 22:11 23:29 24:1 25:3 26:2 27:8 28:11 29:4 30:8 31:10 32:3 33:9 34:3 35:12 36:2 37:2 38:29 39:4 40:6 41:3 42:2 43:5 44:4 45:41 46:8 47:20 48:6 49:5 50:11 51:1 53:3 54:11 55:11 57:16 58:9 59:5 60:3 61:12 62:29 63:8 64:8 65:4 69:2 70:16 71:27 72:9 73:8 74:4 75:3 76:8 77:9 79:1 81:6 82:10 83:1 85:14 87:4 88:4 89:2 90:2 91:6 92:6 93:5 94:16 95:2 96:4 97:23 98:6 99:6 100:9 101:9 102:10 103:7 104:1 105:2 106:1 107:17 108:4 109:7 110:5 111:11 112:3 113:5 114:8 115:15 116:8 117:16 118:16 119:43 121:3 122:4 123:15 124:8 125:4 126:20 127:2 128:3 129:6 130:1 131:8 133:4 134:11 135:9 136:3 137:6 138:2 139:10 141:6 142:5 143:18 144:7 147:14 148:3 149:6 150:12 151:11 152:12 153:13 154:3 155:12 156:5 157:1 158:7 159:3 160:12 161:7 162:4 165:1 166:2 167:11 168:2 169:6 170:19 171:12 172:2 173:4 174:39 175:1 176:4 177:11 178:5 179:10 180:3 181:4 182:7 183:10 184:1 185:9 186:6 187:13 188:6 189:15 190:5 191:16 192:5 193:7 194:6 195:8 196:6 197:7 198:4 199:11 200:9 201:14 202:11 203:4 204:4 205:15 206:8 207:5 208:3 209:24 210:5 211:7 212:5 213:52 214:48 215:1 216:4 217:7 218:11 219:22 220:1 221:1 222:8 223:4 224:1 225:4 226:3 227:10 228:1 229:3 230:5 231:17 232:11 233:3 234:20 235:15 236:16 237:1 238:3 239:7 240:11 241:4 243:6 244:7 245:3 246:2 247:3 248:1 250:7 252:5 253:6 254:5 255:4 256:7 257:45 258:2 259:3 260:1 261:20 262:11 263:9 264:1 265:3 266:22 267:2 268:5 269:9 270:2 271:7 272:13 274:5 275:1 276:12 277:6 278:9 279:5 280:28 281:7 282:2 283:3 284:14 285:1 286:8 287:21 288:14 289:15 291:9 292:4 293:17 294:6 295:2 296:4 297:3 299:11 300:5 301:27 302:2 303:10 305:12 306:10 307:6 308:15 309:2 310:1 311:4 312:1 313:5 314:24 316:10 317:3 318:10 319:5 320:5 321:7 322:5 323:7 324:10 325:14 326:16 327:2 328:2 329:6 330:3 331:9 332:11 333:2 334:6 335:1 336:3 337:13 338:19 339:16 340:3 341:5 342:4 343:1 344:12 345:9 346:31 347:11 348:6 349:5 350:6 351:5 352:2 353:1 354:5 355:9 357:4 358:1 359:6 360:7 361:2 362:6 363:2 364:9 365:1 367:10 368:17 369:5 370:33 371:1 372:5 373:13 374:13 375:3 376:2 377:6 378:3 379:18 380:3 381:3 383:2 384:2 385:1 386:9 387:6 388:5 389:1 390:6 391:23 392:8 394:5 395:2 396:4 397:7 398:12 399:3 400:4 
-0 -0 6.313710191474681e-05 0 1:9 2:20 3:8 4:1 5:1 6:13 7:2 9:5 10:2 11:8 13:2 14:10 15:2 16:19 18:5 19:13 20:7 21:1 22:10 23:22 24:4 25:6 26:2 27:8 28:4 29:5 30:15 31:9 32:2 33:19 34:4 35:22 36:2 37:4 38:23 39:3 40:9 41:2 42:1 43:6 45:32 46:6 47:18 48:3 49:4 50:8 51:4 52:5 53:3 54:12 55:8 56:5 57:6 58:14 59:6 60:3 61:4 62:20 63:1 64:9 65:7 68:5 69:8 70:7 71:25 72:5 73:2 74:8 75:6 76:3 77:11 78:4 79:3 80:2 81:16 82:7 83:6 84:2 85:12 86:1 87:4 88:7 89:4 90:7 91:11 92:7 94:3 95:7 96:5 97:29 98:3 99:11 100:5 101:3 102:6 103:5 105:4 106:9 107:10 108:8 109:5 110:2 111:2 112:8 113:6 114:7 115:9 116:4 117:12 118:16 119:45 120:1 121:2 122:1 123:14 124:3 125:5 126:19 127:5 128:6 129:6 130:4 131:13 132:3 133:1 134:21 135:5 136:1 137:14 138:3 139:8 142:12 143:28 144:1 145:1 146:2 147:7 148:4 149:12 150:11 151:5 152:6 153:12 154:2 155:9 156:3 157:2 158:5 160:11 161:12 162:5 164:2 165:1 166:2 167:7 168:4 169:4 170:7 171:9 172:2 173:8 174:74 176:11 177:6 178:5 179:5 180:3 182:4 183:3 184:3 185:27 186:8 187:4 188:6 189:5 191:24 192:9 193:2 194:5 195:13 196:7 197:10 198:6 199:11 200:4 201:8 202:9 203:2 204:4 205:6 206:3 207:7 208:2 209:18 210:2 211:2 212:9 213:71 214:43 216:3 217:3 218:9 219:24 220:4 222:9 223:3 224:8 225:5 227:4 229:7 230:5 231:19 232:8 233:6 234:21 235:9 236:4 238:3 239:12 240:17 241:6 243:9 244:5 245:1 247:6 248:4 249:1 250:9 251:1 252:3 253:9 254:2 255:4 256:2 257:41 258:1 259:2 261:9 262:3 263:16 264:2 265:1 266:31 267:7 268:3 269:4 270:2 271:7 272:9 273:2 274:5 276:11 277:10 278:16 279:6 280:11 281:9 283:2 284:6 285:3 286:14 287:35 288:11 289:11 290:2 292:3 293:23 294:8 295:5 296:2 297:5 299:15 300:3 301:27 302:6 303:16 304:6 305:12 306:4 307:12 308:9 309:4 310:1 311:4 312:3 313:5 314:27 315:1 316:7 317:3 318:34 320:10 321:5 322:2 323:4 324:8 325:14 326:19 327:2 328:2 329:4 331:12 332:3 333:2 334:14 335:2 336:1 337:16 338:40 339:17 340:6 341:10 342:5 343:8 344:12 345:3 346:20 347:2 348:1 349:5 350:6 351:1 352:4 353:3 354:1 355:3 356:3 357:10 358:1 359:6 360:11 361:3 362:12 363:10 364:12 366:10 367:16 368:5 369:3 370:25 372:4 373:8 374:13 375:4 376:1 377:1 378:1 379:11 380:4 381:1 382:4 384:2 385:2 386:8 387:2 388:7 390:13 391:14 392:8 394:4 395:9 396:5 397:17 398:9 399:4 400:3 
-0 -0 3.282201184694512e-05 0 1:6 2:12 3:4 4:1 6:12 7:6 8:3 9:4 11:5 12:5 13:9 14:18 15:1 16:10 17:8 18:3 19:21 20:1 21:2 22:15 23:18 24:3 25:3 27:5 28:7 30:12 31:8 32:2 33:12 34:3 35:19 36:1 37:8 38:26 39:5 40:4 42:1 43:3 44:3 45:21 46:11 47:26 48:5 49:4 50:8 51:5 52:1 53:4 54:14 55:9 57:4 58:16 59:10 60:6 61:11 62:22 63:2 64:8 65:7 67:2 68:1 69:2 70:10 71:21 72:1 73:5 74:1 75:6 76:9 77:23 79:2 81:14 82:4 83:1 85:4 86:3 87:4 88:8 89:2 90:2 91:7 92:8 93:1 94:8 95:1 96:1 97:19 99:17 100:4 102:8 103:7 106:3 107:13 108:1 109:4 110:3 111:3 112:8 113:6 114:7 115:21 116:9 117:16 118:16 119:61 120:2 121:3 122:5 123:14 124:1 125:3 126:19 127:2 128:1 131:5 132:1 133:1 134:10 135:6 136:1 137:7 138:1 139:9 141:3 142:4 143:34 146:1 147:15 148:1 149:5 150:14 151:8 152:10 153:15 154:5 155:10 156:4 157:7 158:6 159:1 160:15 161:17 162:10 163:2 164:1 165:3 166:1 167:6 168:8 169:11 170:9 171:14 173:5 174:51 175:1 176:1 177:9 178:1 179:3 180:3 182:8 183:9 184:2 185:22 186:5 187:9 188:2 189:2 190:2 191:17 192:11 193:3 194:3 195:3 196:7 197:4 198:6 199:3 200:18 201:7 202:13 203:7 204:5 205:11 206:9 207:3 208:3 209:27 210:3 211:9 212:1 213:75 214:53 215:2 216:3 217:6 218:12 219:13 220:1 221:2 222:10 223:3 224:4 225:4 226:1 227:5 229:4 230:5 231:35 232:1 234:16 235:18 236:19 238:3 239:7 240:13 241:7 242:1 243:13 244:3 245:6 246:1 247:3 248:3 249:2 250:6 251:1 252:5 253:8 254:3 255:1 256:6 257:43 258:1 259:4 261:15 262:10 263:9 264:3 265:1 266:32 267:6 268:2 269:6 270:6 271:13 272:21 273:1 274:7 276:2 277:8 278:15 279:7 280:13 281:7 282:1 283:2 284:12 286:3 287:12 288:11 289:16 291:6 292:1 293:24 294:15 295:3 296:5 297:3 299:12 300:2 301:45 302:4 303:15 304:11 305:10 306:13 307:6 308:5 309:12 311:2 312:3 313:2 314:30 315:1 316:21 317:1 318:21 319:1 320:13 321:2 322:3 323:7 324:9 325:15 326:16 327:2 328:2 329:2 331:8 332:6 333:2 334:1 335:4 336:2 337:15 338:24 339:22 340:7 341:9 342:1 343:5 344:4 345:6 346:25 347:7 348:5 349:5 350:4 351:10 352:1 354:1 355:4 356:1 357:14 358:2 359:6 360:5 361:3 362:14 363:12 364:4 366:1 367:15 368:15 369:1 370:19 372:3 373:15 374:16 376:2 377:6 378:1 379:18 380:16 381:2 382:5 384:1 386:4 387:15 388:4 390:6 391:24 392:5 393:2 394:2 395:8 396:9 397:8 398:3 399:5 400:5 
-0 -0 2.11339120538144e-05 0 1:7 2:12 3:5 4:3 5:2 6:9 7:4 9:8 10:1 11:3 12:1 13:2 14:17 16:6 17:1 18:7 19:12 20:4 22:8 23:19 24:2 25:8 26:2 27:5 28:4 30:14 31:6 32:2 33:8 34:2 35:28 37:10 38:38 40:6 41:1 43:1 44:5 45:23 46:7 47:21 48:6 49:4 50:3 51:8 52:4 53:4 54:16 55:13 56:1 57:11 58:13 59:3 60:8 61:6 62:39 63:2 64:1 65:6 67:2 69:6 70:17 71:24 72:4 73:7 74:4 76:4 77:9 78:1 79:4 81:17 82:5 83:3 85:4 86:2 87:5 88:3 90:28 91:5 92:13 93:3 94:5 95:1 96:3 97:16 98:5 99:22 100:6 101:2 102:8 103:9 104:1 106:4 107:21 108:2 109:1 110:4 111:4 112:7 113:1 114:3 115:16 116:6 117:34 118:8 119:44 120:2 121:6 122:4 123:21 124:2 125:2 126:14 127:5 128:3 129:2 130:4 131:1 133:4 134:35 135:7 136:4 137:7 138:1 139:9 140:2 141:2 142:2 143:44 144:2 146:3 147:7 148:3 149:7 150:13 151:9 152:6 153:17 154:1 155:12 156:1 157:2 158:8 159:1 160:15 161:15 162:6 163:2 164:1 167:11 168:3 169:4 170:14 171:27 173:6 174:30 176:5 177:3 178:1 179:7 181:5 182:5 183:2 184:1 185:11 186:1 187:5 188:3 189:8 190:2 191:11 192:11 193:3 194:4 195:6 196:3 197:9 198:10 199:10 200:5 201:8 202:12 203:4 204:2 205:6 206:5 207:3 208:5 209:24 210:2 211:12 212:2 213:64 214:53 215:4 216:2 217:3 218:2 219:30 220:2 222:7 224:7 225:6 226:5 227:4 229:6 230:6 231:22 232:4 233:7 234:15 235:16 236:15 237:2 238:1 239:1 240:9 241:11 243:3 244:5 245:2 246:5 247:2 248:1 249:2 250:14 251:5 252:2 253:5 254:3 255:2 256:7 257:33 259:2 260:1 261:18 262:13 263:13 264:5 265:4 266:40 267:3 268:1 269:5 270:1 271:6 272:17 273:2 274:2 276:15 277:9 278:6 279:10 280:14 281:3 282:2 283:1 284:22 285:2 286:9 287:29 288:9 289:22 290:5 291:6 293:24 294:12 295:1 296:4 297:4 299:13 300:5 301:29 302:3 303:17 304:6 305:12 306:14 307:9 308:5 309:9 310:2 311:3 313:8 314:35 316:14 317:3 318:19 320:6 321:2 322:1 323:9 324:14 325:17 326:18 328:3 329:3 330:1 331:3 332:1 333:1 334:11 335:13 336:5 337:28 338:30 339:10 340:1 341:6 342:2 343:1 344:8 345:6 346:19 347:7 348:4 349:3 350:8 351:5 352:3 353:3 354:2 355:2 356:1 357:7 358:3 359:12 360:3 361:2 362:11 363:6 364:11 365:2 366:1 367:13 368:16 369:3 370:27 371:2 372:7 373:7 374:10 375:1 376:3 377:2 378:2 379:10 380:11 382:2 383:8 384:2 385:1 386:4 387:9 388:3 389:3 390:7 391:15 392:4 393:3 394:4 395:23 396:5 397:20 398:6 399:3 400:2 
-4.946253919726125e-05 -4.562696125737557e-05 -1.67771833414949e-05 2.342881464644343e-05 2:3 3:14 4:7 5:24 6:12 7:1 9:13 14:6 15:1 16:5 17:42 18:16 19:1 21:1 22:9 23:3 24:1 25:38 26:8 27:7 28:1 30:2 32:2 34:1 35:6 36:6 37:7 38:20 40:44 41:18 43:2 44:33 45:5 47:2 48:25 49:1 51:2 52:34 54:23 56:11 57:1 58:18 59:6 60:15 61:17 62:2 63:6 67:20 68:7 69:34 70:24 71:2 72:4 73:1 74:24 75:12 77:8 78:22 79:8 80:30 83:67 84:10 86:30 88:25 89:90 90:1 92:14 93:21 95:2 96:35 97:2 99:18 100:5 102:11 106:6 107:33 110:2 112:8 114:17 117:1 118:14 119:15 123:8 126:3 127:5 130:37 131:1 133:9 135:2 136:43 137:2 144:8 147:4 148:12 149:4 150:2 151:7 153:8 155:7 156:5 157:10 158:15 161:2 163:12 168:2 170:11 171:2 173:1 174:3 175:19 176:6 177:4 178:2 179:2 181:6 182:15 183:2 184:8 186:12 188:14 189:2 192:4 193:11 197:40 199:11 200:1 203:10 204:1 206:5 207:1 209:8 210:2 211:1 214:15 215:18 218:11 219:1 220:1 222:8 223:1 225:36 226:2 227:1 228:32 231:8 232:4 233:31 234:8 236:5 237:47 240:2 241:13 244:3 246:28 247:5 248:4 249:2 250:34 251:51 252:1 255:4 256:5 257:14 259:4 260:12 261:19 262:5 264:26 265:4 266:11 267:5 268:3 269:2 272:19 275:5 276:21 278:7 280:16 284:7 285:11 286:1 288:9 289:16 290:21 291:3 293:2 294:2 297:4 299:2 301:4 302:1 305:11 306:3 307:8 308:3 309:2 311:13 312:28 313:37 314:11 317:3 318:3 321:4 322:1 323:3 324:27 325:2 326:1 328:16 329:9 331:2 332:1 334:2 335:4 337:7 339:8 342:2 345:6 346:4 347:4 350:3 351:10 352:23 353:4 354:6 355:4 356:33 359:2 360:6 361:58 362:4 363:10 364:24 368:6 369:17 370:20 371:7 372:50 373:1 374:2 376:4 379:1 380:1 381:22 382:13 383:34 386:34 389:28 390:11 391:8 392:6 395:4 396:16 398:2 399:11 400:14 
-0.0001281491774498096 -0.0001157530266584234 -0.0001580368453531666 7.075968343505579e-05 1:4 2:14 3:10 6:5 7:3 8:1 9:7 11:5 12:3 13:1 14:15 15:4 16:15 18:1 19:22 20:7 21:1 22:9 23:13 24:4 25:6 26:2 27:11 28:9 29:1 30:5 31:14 32:1 33:9 34:2 35:21 37:9 38:45 39:5 40:2 41:1 42:1 43:4 44:2 45:32 46:6 47:13 48:8 49:4 51:1 52:2 53:5 54:9 55:7 57:12 58:19 59:7 61:14 62:23 63:5 64:1 65:2 69:2 70:14 71:12 72:7 73:7 74:9 75:5 76:5 77:22 79:7 81:14 82:5 84:2 85:10 86:1 87:4 88:3 89:1 90:3 91:9 92:4 93:4 94:19 95:5 96:4 97:15 98:4 99:13 100:13 101:1 102:13 103:9 105:1 106:10 107:12 108:5 109:4 110:8 111:7 112:9 113:6 114:8 115:16 116:17 117:9 118:5 119:53 120:1 121:3 122:4 123:16 124:1 125:6 126:18 127:2 128:2 129:2 130:1 131:11 132:1 133:7 134:28 135:3 136:6 137:13 138:1 139:13 140:1 141:4 142:2 143:7 144:3 146:3 147:13 149:3 150:17 151:6 152:16 153:12 154:3 155:9 156:8 157:7 158:19 159:6 160:5 161:16 162:19 165:2 166:1 167:18 168:6 169:6 170:11 171:10 173:3 174:51 175:1 176:11 177:8 178:7 179:6 181:1 182:8 183:6 184:3 185:17 186:6 187:8 188:4 189:5 190:4 191:21 192:14 193:4 194:4 195:5 196:7 197:1 198:9 199:6 200:6 201:14 202:6 203:2 204:2 205:14 206:14 207:2 208:3 209:27 210:1 211:9 212:5 213:66 214:39 215:5 216:7 217:1 218:18 219:21 220:10 222:3 223:3 224:2 225:2 227:3 229:1 230:6 231:29 232:9 233:5 234:18 235:9 236:6 237:3 238:5 239:13 240:7 241:10 243:11 244:15 245:3 247:1 248:9 250:5 251:1 252:2 253:3 254:7 255:8 256:14 257:28 259:4 260:2 261:42 262:24 263:5 264:9 265:8 266:47 268:7 269:7 271:5 272:14 273:2 274:10 276:4 277:12 278:9 279:5 280:22 281:1 282:1 283:1 284:3 286:3 287:7 289:2 291:9 292:4 293:21 294:7 296:4 297:9 298:1 299:25 300:4 301:30 302:5 303:14 304:4 305:20 307:8 308:3 309:7 310:2 311:9 313:5 314:10 316:22 317:4 318:6 320:5 321:8 322:1 323:4 324:4 325:10 326:13 328:1 329:7 330:2 331:22 332:3 334:4 335:3 336:3 337:16 338:33 339:18 340:2 341:3 342:10 344:9 345:4 346:14 347:6 348:8 349:2 350:14 351:10 352:1 353:3 354:2 355:7 357:9 358:5 359:9 360:8 361:1 362:8 363:12 364:14 365:5 366:3 367:5 368:8 369:8 370:25 372:11 373:12 374:2 376:1 377:4 379:6 380:3 381:2 382:6 384:1 385:3 386:11 387:9 390:6 391:17 392:4 393:2 394:1 395:3 396:11 397:6 398:13 399:2 400:5 
-8.328002927369737e-05 -5.394951521360779e-05 -0.0001715093634825404 2.487775024639748e-05 1:5 2:10 3:4 6:5 7:2 8:3 9:11 10:1 11:3 13:1 14:20 15:1 16:25 18:1 19:7 20:3 21:4 22:9 23:20 24:3 25:9 27:6 28:14 29:3 30:7 31:4 32:3 33:12 34:4 35:26 36:2 37:7 38:54 39:3 40:5 41:1 42:1 43:2 44:4 45:33 46:12 47:14 48:17 49:4 50:3 51:4 52:3 53:2 54:10 55:2 57:8 58:14 59:9 60:4 61:10 62:29 63:4 64:8 65:2 67:1 68:1 69:2 70:16 71:16 72:5 73:5 74:4 75:7 76:8 77:30 78:4 79:5 81:9 82:6 83:2 85:7 86:1 87:5 88:5 90:5 91:10 92:7 94:11 95:10 96:5 97:26 98:4 99:8 100:4 101:1 102:9 103:4 105:2 106:7 107:18 108:4 109:3 110:9 111:4 112:15 113:4 114:9 115:6 116:7 117:18 118:8 119:65 121:5 122:4 123:15 124:1 125:3 126:19 127:4 128:4 129:2 130:2 131:8 132:4 133:9 134:22 135:3 136:12 137:24 138:1 139:5 141:4 142:1 143:15 144:3 146:1 147:10 148:1 149:11 150:7 151:7 152:15 153:14 154:3 155:7 156:1 157:9 158:13 160:6 161:9 162:5 163:1 164:4 165:2 167:10 168:3 169:7 170:12 171:9 172:2 173:8 174:49 175:2 176:8 177:8 178:5 179:6 181:1 183:4 184:6 185:18 186:3 188:3 189:1 190:2 191:15 192:15 193:2 194:2 195:9 197:3 198:7 199:7 200:7 201:6 202:9 203:6 204:5 205:6 206:8 207:3 208:3 209:13 210:4 211:20 212:3 213:54 214:36 215:6 216:4 217:3 218:12 219:26 220:2 221:2 222:1 224:4 225:7 227:3 229:5 230:4 231:26 232:6 233:3 234:20 235:5 236:4 237:2 238:2 239:2 240:9 241:9 243:11 244:8 245:6 246:3 247:4 248:3 250:9 251:1 252:1 253:8 254:2 255:6 256:7 257:48 259:2 260:2 261:24 262:16 263:6 264:2 266:30 267:4 268:5 269:9 271:9 272:19 274:18 276:13 277:5 278:9 279:6 280:12 281:2 282:1 283:2 284:4 286:4 287:14 288:6 289:20 290:2 291:7 293:23 294:12 296:7 297:9 298:2 299:27 300:5 301:22 303:12 304:7 305:4 306:10 307:10 308:9 309:4 311:4 312:1 313:2 314:37 316:22 317:4 318:15 320:6 321:8 322:3 323:9 324:12 325:12 326:29 328:1 329:9 331:10 332:1 333:1 334:12 335:7 337:8 338:49 339:30 340:5 341:11 342:6 343:1 344:12 345:4 346:27 347:2 348:13 349:2 350:4 351:9 353:1 354:2 355:5 356:3 357:3 358:2 359:9 360:7 361:6 362:8 363:9 364:11 366:1 367:4 368:3 369:4 370:42 371:2 372:14 373:10 374:3 375:1 376:6 377:2 378:2 379:7 380:4 381:4 382:3 384:1 385:2 386:17 387:12 388:5 389:4 390:14 391:7 392:1 393:1 394:4 395:1 396:4 397:13 398:9 399:4 400:4 
-0.0002331126137273299 -0.0002156882883746605 -0.000122724840743586 -0.0001190662483278967 1:1 2:14 3:4 5:3 6:7 7:1 9:18 10:1 11:2 12:1 13:9 14:13 15:3 16:6 18:3 19:13 20:4 21:3 22:14 23:6 24:3 25:8 26:3 27:13 28:16 29:3 30:4 31:5 32:2 33:4 34:3 35:7 36:4 37:10 38:18 39:9 40:11 41:3 42:4 43:9 45:8 46:7 47:9 48:10 49:9 50:14 51:17 52:13 53:9 54:15 55:14 57:5 58:17 59:11 60:3 61:9 62:11 63:9 64:14 65:11 67:2 69:2 70:10 71:18 72:3 73:4 74:4 75:8 76:5 77:23 79:4 80:1 81:6 82:8 83:1 84:4 85:5 87:6 88:2 90:6 91:11 92:4 93:10 94:15 95:18 96:8 97:11 99:10 100:13 101:2 102:9 103:1 104:8 105:2 106:15 107:2 108:11 109:6 110:12 111:3 112:3 113:6 114:23 115:10 116:16 117:3 118:1 119:28 122:2 123:11 124:2 125:7 126:32 127:5 128:12 129:7 131:6 132:9 133:19 134:13 135:5 136:18 137:11 138:4 139:6 140:1 142:4 143:6 144:4 146:4 147:7 148:2 149:7 150:17 151:7 152:6 153:11 154:1 155:14 156:3 157:7 158:18 159:2 160:9 161:10 162:11 163:1 164:2 165:1 166:2 167:3 168:5 169:7 170:9 171:12 172:2 173:1 174:21 175:2 176:9 177:13 178:6 179:9 180:5 182:8 183:21 184:8 185:1 186:3 187:10 188:6 189:4 190:2 191:4 192:10 193:9 194:3 195:9 196:6 197:13 198:3 199:2 200:5 201:10 202:7 203:2 204:13 205:7 206:13 207:10 208:3 209:15 210:8 211:1 212:10 213:30 214:24 215:1 216:2 217:24 218:13 219:8 220:5 221:3 222:1 223:7 224:2 225:5 226:4 227:6 229:2 230:5 231:22 232:6 233:5 234:14 235:4 236:8 237:2 238:5 239:25 240:9 241:8 243:14 244:9 245:3 246:4 247:6 248:2 250:4 251:2 252:8 253:4 254:16 255:3 256:5 257:21 259:8 260:4 261:25 262:4 263:6 264:1 265:8 266:10 267:17 268:10 269:26 271:4 272:11 274:3 276:7 277:5 278:22 279:10 280:5 281:15 282:5 283:4 284:6 286:3 287:9 288:10 289:10 290:1 291:9 292:7 293:12 294:1 296:11 297:2 298:2 299:16 300:4 301:21 302:8 303:1 304:7 305:14 306:6 307:6 308:16 309:13 310:2 311:19 313:6 314:12 316:20 317:4 318:4 319:2 320:4 321:6 322:15 323:9 324:18 325:12 326:9 327:5 328:4 329:9 330:3 331:14 332:6 333:7 334:7 335:4 337:4 338:8 339:15 340:20 341:11 342:5 343:7 344:8 345:5 346:14 347:13 348:16 349:3 350:22 351:5 353:4 354:2 355:7 356:1 357:5 358:1 359:6 360:25 361:3 362:6 363:18 364:7 366:2 367:3 368:13 369:11 370:13 371:4 372:10 373:14 374:4 375:1 376:8 377:14 378:11 379:5 380:9 381:8 382:11 385:2 386:27 387:13 388:6 389:5 390:13 391:9 392:5 394:9 395:4 396:14 397:7 398:19 399:1 400:2 
